<?xml version="1.0"?>
<opencv_storage>
<DigitOCR type_id="opencv-ml-ann-mlp">
  <layer_sizes type_id="opencv-matrix">
    <rows>1</rows>
    <cols>3</cols>
    <dt>i</dt>
    <data>
      561 100 6</data></layer_sizes>
  <activation_function>SIGMOID_SYM</activation_function>
  <f_param1>5.9999999999999998e-01</f_param1>
  <f_param2>1.</f_param2>
  <min_val>-9.4999999999999996e-01</min_val>
  <max_val>9.4999999999999996e-01</max_val>
  <min_val1>-9.7999999999999998e-01</min_val1>
  <max_val1>9.7999999999999998e-01</max_val1>
  <training_params>
    <train_method>BACKPROP</train_method>
    <dw_scale>1.0000000000000001e-01</dw_scale>
    <moment_scale>1.0000000000000001e-01</moment_scale>
    <term_criteria><epsilon>9.9999999747524271e-07</epsilon>
      <iterations>1000</iterations></term_criteria></training_params>
  <input_scale>
    1.4598436242091251e+01 -3.9998473638324956e+00
    2.6382497964447570e+01 4.6847440370071164e-01 1.8688332849196971e+01
    2.0358684405807037e+00 2.2798627715274917e+00 1.3863138497849874e+00
    1.9992347669251218e+00 1.0199182592574751e+00 2.4948617306827168e+00
    1.5357956019418553e+00 2.4200842246334235e+00 1.5342257275931028e+00
    2.0665921117089545e+00 1.0865481788228288e+00 2.5207179998509774e+00
    1.5557984742666546e+00 1.8565777706574023e+00 8.6760967552323376e-01
    3.5636648811042355e+00 1.0870381859229183e+00 3.5582766047665584e+00
    2.0071022934610587e+00 2.7992819731670697e+00
    -1.4694731241151588e+00 2.9461389148916721e+00
    -1.1459401214620184e+00 3.4696644834487169e+00
    -2.0819105201016632e+00 2.1697958760331932e+00
    1.1993969831055915e+00 4.0380784915007633e+00 3.3334757172399567e+00
    7.8713834608389952e+00 7.1039144782643069e+00 4.9121623343729874e+00
    4.2066878603013356e+00 2.7807797899426085e+00 1.9172329857928272e+00
    2.7125882841297257e+00 1.7455391792175807e+00 2.6962426931350012e+00
    1.7316027043517979e+00 2.1588076931510671e+00 2.1874864252958159e-01
    2.3029662167968139e+00 2.9685114373083943e-01 2.7156252021907168e+00
    4.3321325996049476e-01 3.2522300251693177e+00 3.8641552875374213e-01
    4.0583500794396734e+00 -4.4023332828902428e-01
    4.0454382321226312e+00 1.4357787686001700e-01 4.3072122142657294e+00
    -5.2981270652152823e-01 3.9329547365409216e+00
    1.1948348333014291e-01 4.6563825230106826e+00
    -1.4925269805401642e-01 4.7740566689746720e+00
    -7.3545599182410792e-01 4.5326615983867011e+00
    7.5094408563834925e-02 3.5475171592417216e+00
    -2.3899285924001937e-02 4.6430946608153221e+00
    -1.7201734937659369e-01 4.2111819688616503e+00
    -1.5164973746488217e-01 4.3174303473166100e+00
    3.6293374064703970e-01 2.8092914517236061e+00 3.4488786361362472e-01
    3.0952809300951087e+00 6.0780318177828885e-01 2.6669744963812536e+00
    -2.7765802212302210e-01 1.9377795329186582e+00
    -1.2968821423397479e+00 2.6453338661261734e+00
    -8.1257509223195794e-03 2.9879297755054228e+00
    -2.7572629943689470e-01 1.2501119953659584e+01
    1.2063333455322971e+01 1.1679856017395755e+01 1.1149075506721445e+01
    9.6798181684183362e+00 9.0863985102583822e+00 1.2759037400442788e+01
    1.2322872192317554e+01 1.1827404158989619e+01 1.1301190954254166e+01
    9.7775742851992664e+00 9.1912835268000705e+00 1.9634855985743813e+00
    -1.1962391221532798e+00 2.7327798542599169e+00
    3.1011813401042615e-02 3.0280654195538799e+00
    -2.9364380996137773e-01 1.9695446146619564e+00
    -1.3468106575033327e+00 2.6647423761425917e+00
    -4.1911474986160074e-02 2.9681459585834773e+00
    -2.3602896819985453e-01 2.5606515312936096e+00
    2.5694954685399096e-01 1.4353199486630135e+00
    -6.4151938981979817e-01 2.2057572219199546e+00
    1.5941010882782458e+00 2.3410934652034903e+00 1.7859465794729574e+00
    1.3584509522473489e+01 1.3151332893859880e+01 1.2356182633451288e+01
    1.1846717154254621e+01 1.0226102889092012e+01 9.6604662418147988e+00
    2.7646897134838904e+00 1.8673856482102105e+00 3.5523942304516574e+00
    3.0812677275555753e+00 2.5301581081119853e+00 1.6894071585402421e+00
    4.6012029638586931e+00 2.3195474263811904e+00 4.7498988186967841e+00
    -2.5780170932805238e+00 4.7953412567887943e+00
    2.7846411367456581e+00 4.7322710948585645e+00
    -2.9245707446179621e+00 3.4024116047497834e+00
    1.1713685312109574e+00 3.3378592476523314e+00
    -1.1049833887895093e+00 3.4289304611996889e+00
    1.2404784373275850e+00 3.5353776512125279e+00
    -1.4496235380240403e+00 3.7348553237132069e+00
    1.5987077203351803e+00 3.8643319154941778e+00
    -1.7519054902642968e+00 3.9583144651514495e+00
    1.8922905380250508e+00 4.0147147676582309e+00
    -2.0054121149898041e+00 1.4356286960927351e+00
    -2.4277550374626239e-01 1.4199884784876338e+00
    1.5097963044813328e-01 1.4232947867489711e+00
    -1.2146074195953159e-01 5.7189876608997094e+00
    -4.4984838917833658e-01 6.0521577251954115e+00
    -5.1292499358731529e-02 6.4856370079102375e+00
    3.6032939028731552e-02 2.4477194868904002e+00 1.5676956016869503e+00
    2.3094749142600834e+00 1.4041712751041708e+00 3.6267416111565325e+00
    2.7730520908712322e+00 2.4202262954198179e+00 1.5430937071025785e+00
    2.2405133238570265e+00 1.3308283662884244e+00 3.5539114331158572e+00
    2.6952830754982360e+00 2.7742124944782796e+00 1.9412259592680501e+00
    3.3953902987195463e+00 2.5388690916035013e+00 4.4859496579930829e+00
    3.6779388659729890e+00 2.2923133088898973e+00
    -1.4133232655093688e+00 2.7872825695172194e+00
    -1.9097649896399376e+00 3.2869689411467200e+00
    -2.4365127188128377e+00 2.5518429075877904e+00
    1.6535122971716867e+00 4.6376691546423094e+00 3.9447543273309780e+00
    4.1120784248849320e+00 3.4012998730147133e+00 8.5787599996181516e+00
    7.9926893488268700e+00 2.3309953175483384e+00 1.4643074132299831e+00
    2.6618594251764529e+00 1.7554778696836879e+00 3.7827649873123570e+00
    2.9223942017148463e+00 1.5331041263247547e+00 1.2738712225750681e-01
    1.5811102144390963e+00 1.3878094119150369e-01 1.6498614821554343e+00
    2.1206063405496883e-01 3.2993000156778560e+00 3.5950950824284617e-01
    5.2156033143820402e+00 -8.8349297018910300e-01
    4.1394229268851888e+00 -2.7667357392397213e-01
    5.1109583759857786e+00 -6.5120388105348093e-01
    3.7238367954502771e+00 2.7519715316663707e-01 4.5579963835451052e+00
    -3.1374114423106680e-01 4.1764400742456473e+00
    -7.1990536855326304e-01 4.9544235543665875e+00
    -1.5565619910147566e+00 3.6846387983194480e+00
    1.1636063875381435e-01 5.0971903108224890e+00
    -4.4632614827955419e-01 4.4599256896810395e+00
    -4.1475185146088349e-03 4.1654394528463898e+00
    -5.7401907698633159e-01 3.8997097619181922e+00
    5.4406791285955725e-01 3.4117305141497054e+00
    -9.7681873677854785e-03 3.6344417009360739e+00
    -3.0160650007509537e-01 5.4594879573753214e+00
    1.6377213933665014e-01 7.4705077301708265e+00 5.6786714993695986e-01
    7.4263428603886315e+00 -6.5274741435680050e-01
    3.3146321847854021e+00 2.3900565401265363e+00 2.8293641311537292e+00
    1.9388954877951403e+00 2.6934407673383389e+00 1.7632661968218586e+00
    3.3504159138813296e+00 2.4328599838983487e+00 2.9319029833663066e+00
    2.0434968221839052e+00 2.7746639152168093e+00 1.8536851075464766e+00
    3.6115624933309380e+00 2.3298695400252760e+00 3.7989677687962837e+00
    2.8115706837759586e+00 3.3114574644795516e+00 1.6084910609187575e+00
    3.9766567671853532e+00 -2.5164679176084825e+00
    4.7559152989284330e+00 -3.4973542198226042e+00
    3.2488568981311245e+00 -1.8185356872569109e+00
    2.4951039615121253e+00 1.5070212343063698e+00 6.9512301451357388e+00
    6.2655447515329952e+00 5.3486542522909550e+00 4.7400266088430820e+00
    5.3007527032863271e+00 4.6313061318936448e+00 3.2961021599127029e+00
    2.4010746405970940e+00 3.1017345783942174e+00 2.2305623241301831e+00
    3.1782629731089149e+00 2.2911204589896208e+00 2.1977725510897250e+00
    3.1469589906231726e-01 2.7062270882404542e+00 2.6668026692582469e-01
    2.1929540546090833e+00 1.4101053932420746e-01 3.6062650323166907e+00
    8.0380088805114069e-01 4.4001123035422385e+00
    -6.4672026177636621e-01 4.3714054797715587e+00
    -5.7021348601853816e-01 4.1395714470555474e+00
    3.4035653761264195e-01 4.7893983388300256e+00 9.8066337906451662e-01
    5.2347089371244557e+00 -8.9002303260589799e-01
    4.3838257166938739e+00 1.8984220435839982e-01 4.5929851882237420e+00
    -6.5336073303077813e-01 3.1909894042345099e+00
    2.7263022194258252e-01 3.5361236107431302e+00
    -2.3897998482607821e-01 3.7399019064974004e+00
    3.5771396305991847e-02 3.8762806199482771e+00
    -5.7168219645839968e-01 2.6265151331319285e+00
    4.4209655675691589e-01 2.5898096502349404e+00
    -2.6275857681205127e-02 2.4025281841773709e+00
    2.5066872911867388e-01 7.8810362650072987e+00 7.6330565677813167e-01
    8.7725998177133775e+00 3.6868138265057609e-01 7.8221289188394332e+00
    4.2339210690972096e-01 3.2943609523329611e+00 2.4102616754857782e+00
    3.6994759082385227e+00 2.9149815710816531e+00 3.3108306648943802e+00
    2.4515425342457395e+00 3.2651348991971796e+00 2.3843678985610968e+00
    3.9146859577304403e+00 3.1252961257606762e+00 3.4152330026681965e+00
    2.5518606920950928e+00 3.4415537743383591e+00 2.5716021841547025e+00
    3.9729162184868838e+00 3.2235813749239450e+00 3.2557504655677869e+00
    2.4181416854257609e+00 3.5747409527541985e+00
    -2.7198718336023240e+00 4.4062966137526640e+00
    -3.6650382860267623e+00 4.0338159847684656e+00
    -3.2278626361521368e+00 3.7282613143570527e+00
    2.8629552919201915e+00 7.5388938448585492e+00 6.9133839291907053e+00
    7.6757577863841799e+00 7.2193374103830363e+00 7.3921686657441157e+00
    6.7975734311852714e+00 3.3144151927722612e+00 2.4451940759157260e+00
    4.1579716699533140e+00 3.3692220834956199e+00 3.6904828009426884e+00
    2.8304887374976317e+00 1.7720085543170707e+00 2.6910622079647121e-02
    1.8427426514087872e+00 -3.2988069650582819e-02
    1.7234220287425304e+00 2.7752928002662405e-02 3.9913963098677061e+00
    2.8652616941330461e-01 5.3860694354380367e+00
    -2.1169720655365526e-01 4.7443420830999417e+00
    -7.6529117115623346e-01 4.7372815388365819e+00
    -7.7626473586586486e-01 4.6673440942311153e+00
    7.5794622909702647e-01 5.9835233158375853e+00
    -1.2008930246472973e+00 5.0650318573144313e+00
    -4.2167725412621876e-01 4.0987902966833367e+00
    -3.2576380962772233e-01 2.9087134800689136e+00
    8.5146702814068900e-02 4.2955062651932483e+00
    -2.3023105629595328e-01 4.0469451350424501e+00
    -3.5714090095263529e-01 4.0572647429871145e+00
    -1.3247886731868416e-01 3.5985282952588502e+00
    -1.3599835792133869e-01 3.7281195273054268e+00
    -1.7876199458236261e-01 3.8652770931443667e+00
    4.3682413644061363e-01 2.1424559220006039e+00 1.1758582905139638e+00
    2.3301647898073874e+00 1.3803987407360467e+00 2.6717901480503667e+00
    1.7200745465541747e+00 2.1702559900766705e+00 1.2143984755946720e+00
    5.2554772448964391e+00 4.4057249533782130e+00 2.1424559220006039e+00
    1.1758582905139638e+00 3.5656712023608801e+00 2.7737852755731445e+00
    3.1865906610656163e+00 2.2421885593947040e+00 1.4951125399476870e+00
    -1.9751183596700622e-01 3.4319929282082455e+00
    2.3899694965503473e-01 4.2516880532123036e+00
    -1.0330721377789097e-01 3.9581917525153743e+00
    -2.2883624939584823e-01 3.8147002873361546e+00
    2.1814001684437917e-01 2.1424559220006039e+00 1.1758582905139638e+00
    2.3301647898073874e+00 1.3803987407360467e+00 2.6717901480503667e+00
    1.7200745465541747e+00 2.1702559900766705e+00 1.2143984755946720e+00
    5.2554772448964391e+00 4.4057249533782130e+00 2.1424559220006039e+00
    1.1758582905139638e+00 3.5656712023608801e+00 2.7737852755731445e+00
    3.1865906610656163e+00 2.2421885593947040e+00 1.4951125399476870e+00
    -1.9751183596700622e-01 3.4319929282082455e+00
    2.3899694965503473e-01 4.2516880532123036e+00
    -1.0330721377789097e-01 3.9581917525153743e+00
    -2.2883624939584823e-01 3.8147002873361546e+00
    2.1814001684437917e-01 2.5725097775356960e+00 1.6730488282106215e+00
    2.3984927511296545e+00 1.5078895325594492e+00 2.5183938780055040e+00
    1.6314725241961328e+00 2.4767105972758570e+00 1.5836538941416207e+00
    3.8976107909497628e+00 3.0676536908707099e+00 2.5725097775356960e+00
    1.6730488282106215e+00 4.8608346943266127e+00 4.1398602250799454e+00
    2.9195171647500899e+00 2.0434994257422927e+00 1.3823281006794603e+00
    8.6127623739887527e-02 4.0941872167604281e+00
    -3.2713681715654896e-01 4.0851916467257023e+00
    1.2025723633183721e-01 4.1395983280042330e+00 3.8134708702590203e-01
    3.8513914801952751e+00 1.6052347590334384e-01 2.5104480247891812e+00
    1.5227342456163897e+00 2.8724072502112383e+00 1.9076763981936886e+00
    2.6310791363667527e+00 1.6625616502733978e+00 3.1536296181397510e+00
    2.1976246705458178e+00 3.2052164339122995e+00 2.3421902361665907e+00
    2.5104480247891812e+00 1.5227342456163897e+00 4.5447085768031688e+00
    3.7989907651583326e+00 2.7846000548905536e+00 1.8244258195823109e+00
    2.0712850633482707e+00 -4.9183169511547498e-01
    3.3466720451242140e+00 8.1037516888252545e-02 3.7342994053943062e+00
    2.6096606748667550e-01 3.9641560227352164e+00
    -4.3240458393002912e-01 3.9777994281606182e+00
    2.2229217595805537e-01 3.6352875441740435e+00 2.7752882296582029e+00
    3.7037205794124120e+00 2.8866999975553718e+00 4.0140451834934314e+00
    3.1869719756973196e+00 3.7422502110538209e+00 2.9407384517982385e+00
    4.0587898451879614e+00 3.2623428101236027e+00 3.6352875441740435e+00
    2.7752882296582029e+00 8.3086928687012946e+00 7.7486269765476923e+00
    4.3494183600396576e+00 3.5137711939723473e+00 1.4466820474952273e+00
    -1.8869300638660680e-01 4.1573967672336103e+00
    -1.1865413275705750e+00 4.7840068833149472e+00
    1.0864372240235707e+00 4.4002260988287025e+00 2.5073607487103899e-01
    4.0147730644594128e+00 4.2363801414031066e-01 2.3805506504061738e+00
    1.4846952043225292e+00 2.0764320346590925e+00 1.1164052788629071e+00
    2.8088089124045621e+00 1.8748735830244541e+00 2.2373214168383750e+00
    1.3500118268282955e+00 2.0838577814372945e+00 1.1007975328528257e+00
    2.5227715473239765e+00 1.5647186804859061e+00 2.1895931009287102e+00
    1.2952587424138535e+00 2.0137091858840765e+00 1.0512180721591284e+00
    2.5887522062764519e+00 1.6439172264532829e+00 2.4620942443880884e+00
    1.6025140227816390e+00 2.8249571229494381e+00 1.8583144155510236e+00
    2.5742755669408020e+00 1.6405177854758186e+00 4.4547642491370176e+00
    3.8194615149950288e+00 5.5941089458125122e+00 4.9267738836566748e+00
    7.7160887992663776e+00 7.0530623576371871e+00 2.1253577049953174e+00
    1.1829731396262928e+00 4.0390193890059374e+00 3.3362509390427704e+00
    3.1930571532536565e+00 2.4024630665285356e+00 4.4810241195491143e+00
    3.7726110940646653e+00 2.5159317693691485e+00 1.6450998825611076e+00
    2.5531989807179949e+00 1.6594689690606799e+00 3.4723772994244326e+00
    2.6004058211038097e+00 1.3830198863748995e+00 2.7847117129589033e-01
    1.5016220241339395e+00 2.7638661831781375e-01 1.6403182306244053e+00
    3.3960375362480616e-01 3.7701964863300796e+00 2.8605116386011451e+00
    4.1022634725437950e+00 3.2672989058609971e+00 4.1496296613123409e+00
    3.4980525593501448e+00 3.7770480710270959e+00 8.3604687291558610e-01
    4.1587260734385740e+00 -5.6741496129273102e-02
    3.4997189913417119e+00 -1.6670390146579914e-01
    2.4969051379273677e+00 3.3852156494320029e-01 2.2701100684870941e+00
    1.0544605423228692e+00 2.8068527464402195e+00 7.5050607308794082e-01
    2.5963284469412975e+00 1.5100893760801435e+00 2.4800933189403320e+00
    5.9704657471480527e-01 2.4169863877475550e+00 1.1568164421610023e+00
    3.7151454787956455e+00 3.0381788002986796e+00 5.6962552650432672e+00
    5.0595153187564019e+00 4.4290122952656521e+00 3.8043934328547215e+00
    5.4767386134931861e+00 4.8985021698921551e+00 6.9738955020046172e+00
    6.3798759079650074e+00 6.5830072524556247e+00 6.0075391576663248e+00
    9.8103704068864506e+00 9.2876097121389734e+00 8.6293327791100793e+00
    8.2556619204612733e+00 3.8816494821811096e+00 3.1892069405126340e+00
    4.1839987924109350e+00 3.5459156175761062e+00 7.0704771698340698e+00
    6.4623971394930404e+00 9.7180846086164490e+00 9.2327619108122629e+00
    3.9916953730239895e+00 3.2902277868822618e+00 5.2505917903336190e+00
    4.6378241407300695e+00 3.6592873704882334e+00 2.8830326501968258e+00
    4.1756811794780946e+00 3.5365785095364766e+00 4.5635452046605458e+00
    3.9258164952419041e+00 6.0968077267315506e+00 5.5054813941616656e+00
    5.7794512859992331e+00 5.1860482303218980e+00 5.2925121547827629e+00
    4.6706452224891999e+00 5.9305708217914610e+00 5.3559904433995298e+00
    7.6009956317982725e+00 7.2324884802329361e+00 3.2472513816166941e+00
    2.4639020630768207e+00 3.9954875037805397e+00 3.3441048751087892e+00
    5.2368790945585966e+00 4.6079821559243577e+00 6.6125087835388143e+00
    6.0861517934363807e+00 3.2201058977289398e+00 2.4308689266586549e+00
    5.7698934036233318e+00 5.1404721155806694e+00 4.6866961827200928e+00
    4.0248027059766471e+00 5.8231795985308068e+00 5.2464266740212970e+00
    7.1331905453935587e+00 6.6140276878673179e+00 1.2522339003325868e+01
    1.2051059300042088e+01 1.3040943381149253e+01 1.2572404220720717e+01
    8.5334273448788718e+00 8.0072687859057119e+00 9.1500674635191004e+00
    8.6223165445519836e+00 9.0401104184177488e+00 8.6678557726393386e+00
    4.7757229667452439e+00 4.0842434939844958e+00 8.8131591420870592e+00
    8.2842198294945906e+00 1.1204255682375008e+01 1.0698756685934200e+01
    9.5856617316306139e+00 9.0755998670303750e+00 4.5595792158117474e+00
    3.8541992774050469e+00 1.2489002191577271e+01 1.1992537906494336e+01
    2.5645118996090375e+00 1.6857964409916992e+00 2.4562623813653932e+00
    1.5456166720445630e+00 3.3851687077394153e+00 2.5238755698792081e+00
    2.5444436303041966e+00 1.6682037010358330e+00 2.3043479079642206e+00
    1.4101563640656798e+00 3.8838374889667282e+00 3.0392334144631659e+00
    2.1754483968974805e+00 1.2961894764250235e+00 2.3912475771912836e+00
    1.4920593754189264e+00 3.6416271623789145e+00 2.7901458934341159e+00
    2.9577146125196383e+00 2.1053421184278585e+00 2.7397841365924767e+00
    1.8673976992611949e+00 4.1620744173850008e+00 3.3416389203548578e+00
    5.3824594470715486e+00 4.7559597534893969e+00 4.7538087666885893e+00
    4.0960741019881857e+00 5.7089820651403960e+00 5.0630610948711698e+00
    2.3797502857621922e+00 1.4788359297341227e+00 4.6315432296885017e+00
    3.9386916724711192e+00 4.1136657009042761e+00 3.4029630959915735e+00
    8.5804175231679256e+00 7.9944682210693108e+00 2.3673004975524403e+00
    1.5021775950494214e+00 3.2001545290445819e+00 2.3039541479423273e+00
    3.7725264361289912e+00 2.9168929247368918e+00 1.3347890799703293e+00
    3.5722344914828658e-01 1.3614217620615106e+00 3.6229154570917255e-01
    1.5697557253407357e+00 5.7675996690654663e-01 3.1205898730325110e+00
    1.3007142841787169e+00 3.7661179481373885e+00 1.4944863138993443e+00
    3.4079015084786253e+00 1.1085009494361564e+00 3.3961783299539854e+00
    1.6519225831256673e-01 3.6764323068456468e+00 7.8939713807068101e-01
    3.6578584887276082e+00 4.5436557517081855e-01 3.9092217189823670e+00
    1.2288477674541565e+00 4.7748559372344399e+00 3.4001064586504963e+00
    5.2847596219631354e+00 2.1097865338611501e+00 6.9595130344520699e+00
    5.7246394603989295e+00 5.0695772648680411e+00 2.4739808815884805e+00
    6.7637916849240707e+00 5.5218696987626430e+00 4.7361937946657431e+00
    4.1101755897223793e+00 5.7567898876363133e+00 5.1065962389297237e+00
    4.8957553668894427e+00 4.2785240225718271e+00 5.5537289543313904e+00
    4.9853295167786236e+00 7.4371813790300161e+00 6.8511539723662889e+00
    6.0081679436757440e+00 5.4227380490762256e+00 9.7627893064576927e+00
    9.2288931743176512e+00 1.9366655044278126e+01 1.9071484296645142e+01
    5.1560346614249744e+00 4.4782849145428720e+00 4.3442761536772601e+00
    3.7142557998818457e+00 6.5640757499572082e+00 5.9535898443796826e+00
    9.4567075148107307e+00 8.9208443572201901e+00 4.5424225003186240e+00
    3.8450929431303456e+00 4.4405649152966280e+00 3.8277820989229205e+00
    4.2493907230170445e+00 3.5454027914845647e+00 4.8337205748892327e+00
    4.1982844857611745e+00 3.8863966258582776e+00 3.2501426579990618e+00
    6.3835921543901648e+00 5.7988390942165182e+00 6.9331585658556891e+00
    6.3489569146056040e+00 4.9909122883366521e+00 4.3757501732323032e+00
    7.8419840137356749e+00 7.2442266234852912e+00 1.1855942478268732e+01
    1.1526457538819086e+01 4.3046293972675080e+00 3.6236193115920461e+00
    3.9904994601192039e+00 3.3415725783550245e+00 5.1672617091525321e+00
    4.5414432313035169e+00 8.5516701473482026e+00 7.9521014011769626e+00
    3.7660968816196463e+00 3.0613080811487139e+00 6.0459142384942188e+00
    5.4159246364512921e+00 6.1079799022160790e+00 5.5087651070005812e+00
    5.7251095806580246e+00 5.1569057037804651e+00 7.7095784440138466e+00
    7.1895563135350624e+00 1.2784496808413254e+01 1.2322433698530221e+01
    1.3744998207936764e+01 1.3299833529206998e+01 8.8796154091475028e+00
    8.3728657624002345e+00 7.5866719908490854e+00 7.0767314428718038e+00
    1.0454708670646808e+01 1.0167881254182484e+01 5.1195183620247677e+00
    4.5067346323407875e+00 1.0014117091557925e+01 9.4922329073514700e+00
    1.1584522802629390e+01 1.1097957439346880e+01 7.6312660046386309e+00
    7.1206411010534545e+00 6.0629756170554518e+00 5.4613003989569675e+00
    1.2663229151426327e+01 1.2176725696742796e+01 2.8452001720051481e+00
    1.9135773815826087e+00 3.0025133848425378e+00 2.1273943088118790e+00
    2.6224566497404238e+00 1.6918400744569311e+00 3.4889409996601617e+00
    2.5758230023178088e+00 2.7338806908213500e+00 1.8508670917849348e+00
    2.9771060495339965e+00 2.0581808185052792e+00 2.9902907745873004e+00
    2.0569832680236790e+00 3.0970900599471527e+00 2.2135693422588369e+00
    2.5987086121615341e+00 1.6678792647917102e+00 3.2697557320371309e+00
    2.4028511362364160e+00 3.1055150685611146e+00 2.2852144286894385e+00
    3.6804249805754878e+00 2.8163124623694467e+00 8.9403537052145214e+00
    8.3354443733450765e+00 6.3875423064136161e+00 5.7583024269190144e+00
    7.1747833562310568e+00 6.5214809980982444e+00 2.7732944487707605e+00
    1.8352454409917305e+00 7.6251326044091581e+00 6.9781013156908500e+00
    5.3217029904563402e+00 4.7225993766975636e+00 5.0675699347765804e+00
    4.4108327423716815e+00 2.9792734408821993e+00 2.1085723708904407e+00
    3.3148726727314735e+00 2.5062341350855899e+00 2.8429575163986782e+00
    1.9830093382254133e+00 1.6420145568629807e+00 1.5381002175182337e-01
    1.6429045150162551e+00 7.9647707142923713e-02 1.6595956456076508e+00
    2.5001356948784975e-01 5.1864969568271890e+00 4.5606547643078956e+00
    3.4623206608299681e+00 2.7761227039593455e+00 4.2943776152661934e+00
    3.4724534132988625e+00 3.8944314667602327e+00 4.0150698516562416e-01
    3.6322882886928478e+00 6.3115088303357270e-01 3.7502122754458540e+00
    1.9817078423781956e-01 3.0978375639033611e+00 5.4430307340527539e-01
    2.9440751965852141e+00 1.4509860667036700e+00 2.8682915705775147e+00
    5.1156130440912639e-01 2.6384446611062287e+00 1.4049437078756453e+00
    3.0115442740351539e+00 6.4258576685575297e-01 2.8772730314381652e+00
    1.5326198435174927e+00 8.4081865576009438e+00 7.8098521330503194e+00
    6.4457274447546586e+00 5.8507040461787323e+00 7.2212357259193762e+00
    6.6439322419709628e+00 1.1809403608814570e+01 1.1324717692726336e+01
    9.5398219376154767e+00 9.0675127094840686e+00 1.0817506344672248e+01
    1.0302086100368649e+01 1.2141171142809164e+01 1.1704787363129562e+01
    1.3778392345348703e+01 1.3443643501022391e+01 7.8904313028266113e+00
    7.2556055458399618e+00 7.1888574005989625e+00 6.6064083203633812e+00
    9.4095983601257149e+00 8.9041503049696722e+00 1.3103999958232944e+01
    1.2700542912301882e+01 7.7241199473899798e+00 7.0796650291350840e+00
    1.1238926415068326e+01 1.0731523430643389e+01 4.6766280412038848e+00
    4.1173470545053865e+00 9.8664548036786499e+00 9.4528999549289434e+00
    9.1318233346328004e+00 8.7728879264129116e+00 1.1982991428639892e+01
    1.1598437050259678e+01 1.6731659022512591e+01 1.6356940915634080e+01
    1.0447212442023359e+01 1.0011664412079037e+01 8.9193298740050917e+00
    8.4980118590002842e+00 1.3056228487215694e+01 1.2744585540193638e+01
    5.4901635098770285e+00 4.8986307969382299e+00 8.2685341074368992e+00
    7.8843964165938365e+00 1.5160460383028809e+01 1.4757412188513541e+01
    9.4692431329380398e+00 9.0571135882546567e+00 5.0295890597205615e+00
    4.4317377755493563e+00 1.2156197442761631e+01 1.1756944497950851e+01
    5.9240968606893452e+00 5.3302841352217687e+00 7.6308978186871181e+00
    7.1231493386786946e+00 7.2887054519069316e+00 6.7926128625316116e+00
    1.2653161620957363e+01 1.2213709705692047e+01 1.4431189637604584e+01
    1.4010090987775444e+01 1.2217389144574836e+01 1.1733827924036845e+01
    9.6063546313809240e+00 9.1412766029403159e+00 1.1088264925542072e+01
    1.0754535448773874e+01 5.3827435920606153e+00 4.7496434113986332e+00
    6.2600429665528772e+00 5.7488442821493226e+00 1.4096890652045252e+01
    1.3644663463995034e+01 1.0543678083069809e+01 1.0117183792187870e+01
    5.1619371213063543e+00 4.5105449160891951e+00 1.3442727966998699e+01
    1.2986934628864573e+01 2.2475175305356028e+00 1.3197398546607395e+00
    2.8147890435361282e+00 1.8590286776919895e+00 2.3310967653115413e+00
    1.3920285555023943e+00 3.8771968142533884e+00 2.9352597591287024e+00
    6.1807886448665661e+00 5.5067307509599246e+00 2.2475175305356028e+00
    1.3197398546607395e+00 4.0432680764180988e+00 3.3252009678139287e+00
    2.9002814920734488e+00 2.0165769581507407e+00 1.4749256891147213e+00
    2.8270049579374995e-01 3.8335093169681769e+00 2.8875707191405606e+00
    3.7935069283169693e+00 -2.8930802034527925e-01
    3.1072122728000111e+00 1.0914715548441520e+00 3.1286441267538567e+00
    1.9742581514403938e+00 2.3537073004452735e+00 1.4631117287325399e+00
    2.4652789092920067e+00 1.5804691929855548e+00 2.3236664983043513e+00
    1.4302654164269140e+00 2.7041105522030198e+00 1.8477325097261019e+00
    3.6824439076919626e+00 2.9576853640013088e+00 2.3537073004452735e+00
    1.4631117287325399e+00 4.3735692174491776e+00 3.6798802658226379e+00
    2.7414663162774433e+00 1.8575501364247957e+00 1.5007769439202800e+00
    5.0950380375780924e-01 5.1425229639932075e+00 4.5093936517481819e+00
    3.9645568340726318e+00 -6.9272628136832659e-01
    2.7417744089109184e+00 8.1475258329699551e-01 2.8218219187944587e+00
    1.6930483693294085e+00 3.1092369415434264e+00 2.1742764221686799e+00
    3.2228760644728904e+00 2.2596348317416619e+00 3.0305038186727935e+00
    2.0683064268195763e+00 3.5525990107498964e+00 2.6129116034740849e+00
    6.2174437063284467e+00 5.5351507106739914e+00 3.1092369415434264e+00
    2.1742764221686799e+00 5.5490199122516684e+00 4.8950988802455324e+00
    3.2459516508209627e+00 2.3502385006297555e+00 1.6617257405827162e+00
    1.2991211383718201e-01 6.2080459225689077e+00 5.5013476882453380e+00
    3.5464039738477999e+00 1.4995289718087165e-01 3.0857693554625514e+00
    8.1362586229164346e-01 3.1035812750943657e+00 1.7843452239524269e+00
    3.7605527854604328e+00 2.9377556069759012e+00 3.8790451583886756e+00
    3.0778152913693058e+00 3.5976240554747081e+00 2.7876486118066324e+00
    4.1408863120444259e+00 3.3581618424543800e+00 5.2826414161665340e+00
    4.6052424491335175e+00 3.7605527854604328e+00 2.9377556069759012e+00
    7.8469984555612688e+00 7.3650455143652058e+00 3.6216246993518069e+00
    2.8037773624555489e+00 1.6063682385200659e+00 4.4356626905770302e-01
    7.2444920752996511e+00 6.5268013364728832e+00 4.0600321398494827e+00
    -5.1128066911611603e-01 3.1382135568722882e+00
    9.3425193735166367e-01 3.2521609608434754e+00 2.0064800392874984e+00
    2.9590288147965484e+00 -2.3308265594951805e-02
    2.2351241867678189e+00 -4.4237030347083397e-03
    1.6196069587561326e+00 -2.5010935545102496e-02
    2.0697445499695513e+00 1.6691002762132878e-02 1.9548380254736051e+00
    9.7126648377202063e-01 3.2805943916518538e+00
    -2.0963729483100108e-01 3.7070205731839465e+00
    2.0127899527372833e-01</input_scale>
  <output_scale>
    5.2631578947368418e-01 4.9999999999999994e-01 5.2631578947368418e-01
    4.9999999999999994e-01 5.2631578947368418e-01 4.9999999999999994e-01
    5.2631578947368418e-01 4.9999999999999994e-01 5.2631578947368418e-01
    4.9999999999999994e-01 5.2631578947368418e-01 4.9999999999999994e-01</output_scale>
  <inv_output_scale>
    1.8999999999999999e+00 -9.4999999999999996e-01
    1.8999999999999999e+00 -9.4999999999999996e-01
    1.8999999999999999e+00 -9.4999999999999996e-01
    1.8999999999999999e+00 -9.4999999999999996e-01
    1.8999999999999999e+00 -9.4999999999999996e-01
    1.8999999999999999e+00 -9.4999999999999996e-01</inv_output_scale>
  <weights>
    <_>
      6.7046626552243405e+00 -1.0798153326560014e-01
      -1.3940343779895428e-01 -6.2356973317352224e-02
      1.1584599580225957e-02 9.7702442494363079e-02
      -5.2627474141922082e-01 -1.9477929901506932e-01
      -8.4004250935777969e-01 -5.7383409054812040e-01
      -1.4252227896714814e-01 -3.5978169426948220e-01
      -1.4567506418136703e-01 -1.8146707377366694e-01
      5.1401270063395632e-01 -3.1928371556342983e-01
      2.5597544577854325e-01 -1.3278968894553680e-01
      6.6539500229473775e-02 8.3730512268913093e-02
      -4.0065206804330478e-01 -7.6626717902961702e-02
      -4.7987218158907996e-01 -1.0606027902482164e-01
      -3.8835996948586970e-01 -5.3188031798521207e-01
      1.0319597372253642e-01 2.7404937370555396e-02
      1.1718977292260020e-01 3.6299585691878811e-01
      -8.6340816414441551e-02 2.6873731585668537e-01
      -2.8957790831913444e-01 -8.5086464491569391e-01
      -3.8748307483100947e-01 5.6962606621053380e-01
      -1.5159019191768963e-01 1.5691133629916743e-01
      -2.2420121727000173e-02 1.3809005421923779e+00
      -4.0294928839021610e-02 5.7525387071382694e-01
      2.9667914039201898e-01 -3.5022399061140191e-01
      9.9550347103325068e-02 2.0030821944062274e-01
      -3.5506585304910609e-01 3.9512791960699795e-01
      -3.8414011536799902e-01 -5.1262214546581564e-01
      8.1873282433664452e-01 -1.0527946055768125e-01
      -2.2536594416747954e-01 1.5653366957820497e-01
      -6.7337092708612519e-03 -3.7234907416385826e-01
      5.0448707993367436e-01 1.4476653771677914e-01
      -3.8036929276619608e-01 -3.6392732912494430e-01
      -3.4557843068614930e-01 3.9757065754472803e-01
      -3.3177680891285637e-02 7.1191502103847171e-02
      -1.5177655117359898e-01 2.4985213378727525e-01
      -3.1138632145536810e-01 6.3681569819613165e-04
      -4.6484228428229868e-01 -4.2706550391919795e-01
      1.7779699578105720e-01 -1.6780324087387066e-01
      -3.0928209498129455e-01 -3.8730170205521902e-01
      -4.6721237445730585e-01 -1.3724171952861425e-01
      1.6423337302142949e-02 5.4491258891253280e-01
      6.3536077340728681e-01 -1.9229388225586502e-01
      -4.4149388364396536e-01 -2.2777565887937123e-01
      3.0797313145736560e-01 -8.8122537160635422e-02
      -5.8567376788467990e-02 -5.0629832947833180e-02
      4.1818260329099084e-02 7.5581541216620918e-02
      2.4339279806709736e-02 -2.3835077028470666e-01
      2.7902930191393066e-01 -1.5703453456678926e-01
      -2.0099618722704810e-01 -4.1258044515325881e-01
      2.3056536733266930e-01 -1.8829771608175502e-02
      -1.9724648440703041e-01 -6.4507870927771749e-01
      1.3499098242449004e-01 3.0881775323460442e-01
      -4.6047785624759827e+00 -3.2601470182173820e-01
      -5.2387858096227674e-02 8.2614484406515545e-03
      9.3333250416630598e-02 1.2556197669449626e-01
      2.2658866689988347e-01 -1.9174123990406972e-01
      6.2327810136273420e-01 -2.1003673590628674e-01
      6.0510762037603485e-02 -3.4615930269194750e-01
      4.5715055102538515e-01 -2.6223841634776424e-01
      5.6168714506637396e-01 -7.5685019718640023e-01
      6.4722633253416717e-01 -2.3612398024188003e-01
      -2.0188547635009749e-01 5.6033171585843006e-02
      2.9089225058411872e-01 1.1944639485846704e-01
      4.6067057390968780e-02 -7.4429863972667321e-02
      -1.8597330562045017e-01 3.2254832673740119e-01
      2.0620886434061619e-01 -1.3187875679322872e-01
      4.4137466393521819e-03 -7.9043602673620994e-01
      4.3394687877105392e-01 8.3350465814910374e-02
      -2.3972415621458409e-01 2.4552537992728948e-01
      1.5838902649920331e-01 -5.6052712024317441e-01
      5.3507882627964402e-02 2.0504450427585901e-02
      -3.4658530975841692e-02 5.8513518896697259e-01
      -1.9585491140525579e-01 3.2990568865940806e-01
      9.1126718912407617e-02 1.4785176368331718e-01
      -9.0638790050730597e-02 -1.5852249465193449e-01
      4.1392456796422383e-01 1.4360427618097769e+00
      3.3425696877806504e-01 -3.8800382205461109e-01
      -4.6552542685014342e-01 -7.7910370991703365e-02
      -1.8721153896569359e-01 1.6680619064030128e-01
      -1.6144351032951951e-01 -6.1432418973092116e-02
      1.8925879431774142e-01 -7.0641051428083912e-02
      3.2778994025256886e-02 -1.3905409839403676e-01
      -6.7312594645039814e-01 -6.1794863197588519e-03
      1.3802626413683328e-01 2.2606401103400534e-01
      -1.6385521716344548e-01 -2.8147073689618846e-01
      -2.0036235621938422e-01 2.1784203817868106e-01
      -1.1435335593822477e-01 -4.1333069219913593e-01
      2.3620524152402206e-01 5.6681226549095499e-02
      -2.8458535282274361e-01 -3.5977602784446239e-01
      -5.4684021652211445e-01 -2.3561234866238934e-01
      7.3671717278310733e-02 -3.3034983062317558e-01
      -7.4034551541689986e-01 1.8464719401749893e-01
      3.6709962876346154e-02 -8.1760005715511574e-01
      -5.1413253433673811e-01 1.8634589707181060e-02
      -3.2672436098650626e-01 9.8292837960875748e-02
      1.1421665477204679e-01 1.6703232083128777e-01
      -2.2566750567839045e-03 3.0923511957870270e-02
      1.2528421363924349e-02 -3.5047291274623510e-01
      2.0445179271752151e-01 -1.1281204371101954e-01
      1.3328205483272515e-01 -1.7136901263458773e-01
      -9.6280727518751039e-02 -4.3995177061710944e-01
      1.5231331407666571e-02 1.3844390573985338e-01
      -3.6422167709994957e+00 1.4295009161287081e-01
      -3.9863862074782271e-02 -3.6496405973686315e-02
      2.0544038089245503e-01 9.7335889453784200e-02
      2.3609685143101319e-01 -6.0144220338898091e-01
      2.6236180789406027e-01 -1.4723957565468311e+00
      5.2186752404981558e-02 -1.4508843648840397e-01
      -8.2866847442711289e-01 3.8647955968348741e-01
      7.4390764863311043e-01 3.7681915586924797e-01
      8.2060256122841874e-02 -4.2274751841106456e-01
      2.6195356171151779e-01 -8.2066053963112251e-01
      2.4763314862760850e-02 -1.3569382643808886e-01
      -2.2398840146677154e-01 -3.1319875318793189e-01
      -3.3261927889278503e-01 -3.8081295799032278e-01
      -6.2328371732913779e-01 3.5931165578666718e-01
      -1.4771076934940834e-02 6.3212535168241413e-01
      -9.7601423036699475e-01 -1.7753853335237210e-01
      1.5030447794460206e-01 -1.3533944602547154e+00
      -2.9048881522937453e-01 2.4366340400046826e-01
      -1.1170424255370694e-01 -1.2412543930375433e-01
      8.0721644736937367e-03 -6.7059598975870527e-01
      8.7844013012588873e-02 4.9229083899126662e-02
      4.8810901838251664e-01 6.5224887023854961e-01
      2.6239352341275085e-01 3.1631120224863668e-01
      -1.1616192820002840e+00 -4.0237436116003021e-02
      -7.9735613116636028e-01 -1.3436684831229317e-02
      5.0254636641480582e-02 -2.6576030732390461e-02
      -9.7639594025928797e-02 -1.1194499933610594e-01
      5.4667252457160788e-02 -4.3044699309843282e-01
      -4.8219394729782573e-02 2.5992206524475719e-01
      2.2470145779387549e-01 5.0589513242211226e-01
      -1.4278667590615998e-01 -1.7305722809304472e-01
      5.5856716722390273e-02 -4.5233829306316931e-01
      1.4316218472957179e-01 3.1395659103920442e-01
      4.6595844642349682e-01 -2.6631033906352880e-01
      7.1649513727400943e-02 2.9385819755351056e-01
      4.9309868114170423e-02 2.2484395365293952e-01
      -2.1203148528369734e-01 -2.1359350485639300e-01
      -1.5379762704100824e-01 -6.4124779840610591e-01
      -4.1964548223526110e-01 4.0259469064989117e-01
      1.0051244787088742e-01 -4.8884546884404706e-01
      -9.8050721737590565e-02 -8.3094542304207308e-01
      -8.4942296677672377e-02 -3.7303929367898205e-02
      1.5471283560988683e-02 -8.2006147678211124e-03
      3.0869862410208304e-01 2.8666346695512612e-01
      2.3272872963613209e-01 -6.4386517548937344e-02
      3.5214193257003845e-01 -4.3370382998252327e-01
      -6.4350528186977840e-01 -4.8342421908719707e-01
      1.4974700525327478e-02 -1.5197537908498196e-01
      1.0805606216976006e-01 5.7360366890514991e-01
      -3.2290535333007200e-02 1.1293181978416451e-01
      6.1874449087264729e+00 -1.0423819593925004e-01
      3.2087877740349701e-03 -1.1002924912344265e-01
      5.6191448359596087e-02 -5.1497980837824642e-02
      1.0606938554407570e-01 2.1691937888481144e-01
      -3.3366886489211633e-01 -1.4389166173757070e-01
      -1.6308458031174075e-01 4.2483294461054262e-02
      2.1735678744445860e-01 -1.4071509994658526e-01
      -2.0644302690962521e-01 6.6269568378370444e-03
      -1.2767449351626470e-01 1.4174207439770770e-01
      -1.7362152448371602e-02 3.7446901131356974e-01
      1.0440511637605393e-01 -5.8998070108660323e-02
      2.3970704320139949e-01 8.8482760595651966e-02
      -1.7176213781708266e-01 -3.4469023749045857e-01
      -3.9178841979543924e-02 -1.1334310148369506e-02
      1.7556669271475819e-01 2.9457589003407801e-02
      -1.0588539296562570e-01 8.7748123016080426e-02
      -2.8560635984167942e-01 -1.5425684483868748e-01
      -1.9447937623260400e-01 -4.3045471239745600e-02
      -2.3596123278310258e-01 1.3324171828769943e-01
      3.6879094481067159e-02 1.1243475962140022e-01
      -2.3489245524205185e-01 4.0332415861206228e-01
      -2.7249102521556834e-01 -3.0890480704411385e-02
      6.9444241063360321e-02 1.2428761756513976e-02
      -1.9585876322707679e-01 3.7097160365460746e-01
      -9.4864550772384232e-02 -2.6333393991600784e-01
      2.1972405474730849e-01 -7.6971025902235105e-02
      -1.6685024604334872e-01 -9.8277933896062375e-02
      9.3345797833344207e-02 -1.0825876160464327e-01
      1.4146821325498626e-01 1.0805765604668835e-01
      -2.4772434562121817e-01 1.0838233536674780e-01
      9.2184755623687609e-02 1.6281085269465001e-01
      5.7372849022942610e-02 1.5594991153462767e-01
      -3.0705801902932441e-03 4.3419882462927537e-02
      1.3954951421095163e-03 1.5854232954196065e-01
      -4.5692662748361890e-01 -1.0391813645173500e-01
      -1.0991510338908736e-01 4.1867222610776203e-02
      5.9105371713244717e-02 -2.5060083130215827e-01
      -7.7858404604121878e-01 -2.0139902417772193e-01
      3.0177614267160985e-01 -1.4473199462563771e-01
      2.9958920607361120e-02 1.2085663034504254e-01
      -3.9534460233985774e-01 2.1233850049379774e-01
      1.8122191104086777e-02 -9.4266429520414058e-02
      5.7580341808191444e-02 -1.0695003287232605e-01
      1.8576195541992646e-01 8.0539439839376448e-02
      2.3705763506655711e-01 -2.1936507953168519e-01
      5.1012920556109460e-02 -8.1352873011572721e-02
      1.7429008827462464e-01 -7.2767093803445690e-02
      -7.7163477950912177e-02 1.1740418048258599e-02
      -1.5606410325195466e-01 -1.0050379207414399e-01
      -3.1436204941209389e-01 -1.6251804747361487e-01
      1.0765265571080761e+01 1.9793883716915511e-03
      6.7018910010880464e-02 -7.2615115505892211e-02
      7.9025021115307920e-03 -3.2017270445881409e-02
      3.2990216145976053e-01 1.0871045084031836e-01
      -1.2740305290968401e-01 6.9426835596118966e-02
      -9.8618783659523326e-02 -8.9709365729844330e-03
      1.3275835351000614e-01 -7.8980268494359476e-02
      -2.4947734300032356e-01 1.3839944159272455e-01
      -2.5557609085214017e-01 -1.6182971326707374e-02
      -1.2470528538202443e-01 2.0044182288727544e-01
      2.1138319030388064e-01 5.9239644112605867e-03
      1.8834317474890400e-01 7.5111040943186547e-02
      1.1838438214025386e-01 -1.8412273917637167e-01
      -1.0276152040309033e-01 1.1889550305397056e-01
      -2.6116275526424554e-01 1.3761506335882537e-01
      -2.5299821817796338e-02 7.3353847030395103e-02
      -3.2431032773682346e-02 1.8647077980178714e-01
      2.7637029613006819e-01 -3.7109942933850298e-01
      -5.0727299350229078e-03 3.4871574895651923e-02
      5.6574368830050306e-02 -3.1099559043801909e-02
      -5.5091380491087409e-02 -5.7520092666383271e-01
      -1.9572589913482288e-01 -1.5408099225542693e-01
      4.8325417570796225e-02 -1.8239929140960850e-01
      -4.2966560603335056e-02 -3.4261402443057198e-01
      2.3565854951970902e-01 2.6465976638727606e-01
      -5.4822228953882425e-02 -6.0517584215996512e-02
      3.4611505082982480e-01 -4.5874940958697728e-02
      4.0738970612550955e-03 4.2449426231449552e-02
      5.9314937172014373e-02 4.7791063206670648e-02
      5.3265966487946396e-02 6.7783408759588956e-03
      1.7690859685413801e-01 -2.1482312288278571e-01
      -1.2137589575597607e-01 1.9439268258961406e-01
      -6.4980487237532150e-02 -1.9281529567759292e-01
      2.0330215445318395e-01 9.6625823875788164e-02
      1.4203044578930107e-01 2.1981433928616220e-01
      -8.4073826177110109e-02 1.3105619830529519e-01
      -7.8994082225846501e-02 4.1779414763775219e-01
      -5.8878774545391942e-02 2.7088497959768698e-02
      -1.4846139014532815e-02 -9.2947962673361958e-02
      1.5036039408111926e-01 -1.9529840249204486e-01
      -1.2302215807995263e-02 3.2696703359068735e-01
      -3.2643169637317088e-01 -6.2432501257802572e-02
      5.9334300671289031e-02 -7.6958166738266040e-02
      9.6056488005494878e-02 6.3570239511161544e-02
      1.4663824344433435e-01 -5.0368545013583323e-02
      8.8165991867232230e-02 -5.6074589853441291e-02
      7.3667050364032857e-02 -1.3931529668796999e-01
      7.4501404120101311e-02 7.6305396725754981e-02
      -4.5865989565095307e-02 -1.1350270798151675e-01
      4.3608093398601819e-02 -1.6260545917283345e-01
      7.1373218718360896e+00 -9.4435061342575802e-02
      9.5861578831807001e-02 -4.9669219373594954e-02
      3.0690103630730260e-02 -1.4775430466507999e-01
      2.3980218596394082e-01 1.1875300392007931e-01
      -2.0286293722902624e-01 4.2687031920545196e-02
      -9.5971865565435979e-02 1.3274844310041164e-01
      6.3379945851126648e-02 -3.6256824007902227e-02
      -4.5014407003406709e-01 1.9244873299644810e-01
      -2.0360806454558231e-01 -1.9912310905335566e-02
      -2.7662477830838451e-03 1.4202713003041753e-01
      2.6386235757716453e-01 -6.2531662230514873e-02
      2.0076736708464776e-01 1.5595591675642839e-01
      9.8385217343756035e-02 -2.7491666849399532e-01
      -1.5128171493358233e-01 -1.3925941284985151e-02
      -2.1680551103989756e-01 2.6360225969344614e-01
      -3.2703181975929328e-02 2.0743779323712591e-01
      2.2549279315420665e-03 2.3923135985768409e-01
      1.1521231809838729e-01 -7.5669310234567660e-02
      4.6758516361429338e-02 6.5325883624674480e-02
      8.2599467616539038e-02 5.2097221931255173e-03
      4.1427556093911584e-02 -2.0026864835331612e-01
      -1.6217150602414654e-01 -1.8635419668296732e-01
      2.0754178393701503e-01 -1.7762824937622734e-01
      -2.2360000453867210e-01 -2.5209085948064686e-01
      1.3690415040377821e-01 2.3265531023845407e-01
      -3.0277947507540887e-02 -6.6238899681367161e-02
      -1.8948861903680893e-03 -2.6111248098437574e-02
      -3.2772551147210650e-02 7.1327419630452332e-02
      8.3322599194969510e-02 1.1618945148351634e-01
      4.5557017193337608e-02 1.1296329666473636e-02
      2.2570113096357899e-01 -5.3665465026515806e-02
      -1.3700416965800297e-01 5.4328753548722547e-02
      -7.4526841626687795e-02 -8.4565393289869839e-02
      1.0081477035264340e-01 5.5275329160836106e-02
      5.2397081514377053e-04 2.0590633515129167e-01
      -8.6155859513154562e-02 1.8784012492383684e-01
      9.5871568829487164e-02 1.7326710202291246e-01
      -1.7319939206561949e-01 1.5416279885276732e-01
      5.1646174564902170e-03 -5.6153253438984523e-02
      -1.1666525968617968e-03 -5.6687386343130086e-02
      -1.1054863965539799e-01 3.6709750788030682e-01
      -1.9348584910751240e-01 -3.7996256079726086e-02
      3.9898793477671293e-02 -4.5411327997634490e-02
      1.3089701074811708e-01 1.3063167940885820e-01
      3.0058329842358421e-02 -8.0197097922575525e-02
      1.3496469594222904e-02 -7.4854684981475461e-02
      1.0572827424514515e-01 -1.9468240031925105e-01
      8.3902612914699016e-03 1.7697921637344610e-01
      -4.5442128327368048e-02 -5.7558281005545622e-02
      -9.1093924541053264e-02 -2.7403999169265192e-01
      6.7380998481001066e+00 -9.8385414575446778e-02
      2.9485113021673674e-02 -1.0364769797986899e-01
      5.4240958265475731e-02 5.3881963896726150e-03
      1.1261141833958624e-01 2.0740729738146560e-01
      -3.1626563227485543e-01 -1.0775785225181476e-01
      -1.7183628960363467e-01 8.7656233928472237e-03
      2.3900180999948728e-01 -1.4086946862227387e-01
      -1.5110246390831075e-01 8.6451716728550287e-03
      -9.1200090833962355e-02 2.4554444875652767e-02
      -3.4456006443165980e-02 3.5072219674040739e-01
      7.0881893912305899e-02 2.2596280479375744e-02
      2.3074938582167559e-01 6.3335886849267775e-02
      -1.7302609317516765e-01 -3.0688794581586426e-01
      -3.9964296719217633e-02 8.9152661897437847e-03
      1.4920237625010416e-01 3.4956386262098597e-03
      -1.0944130786233383e-01 5.3546369026974731e-02
      -2.5071816503534405e-01 -1.4776400592792316e-01
      -1.4849619251243429e-01 -7.3426041383015131e-02
      -2.3746868118070649e-01 1.2300841006677804e-01
      6.4786009263297240e-03 9.9737748003614901e-02
      -2.0817267789603527e-01 2.6687611668557876e-01
      -2.1202568547249287e-01 -4.0662453517797896e-02
      8.0948755747183063e-02 -1.2876940016972205e-02
      -2.1608132300532271e-01 2.8860517983778922e-01
      -7.0047938964734754e-02 -1.8842036377185958e-01
      1.7910356206963682e-01 -7.7709230838420268e-02
      -1.0338007616692273e-01 -1.0365993446682327e-01
      1.1870104590542896e-01 -1.8312816182820027e-01
      1.4854358282458122e-01 1.0591099370482797e-01
      -2.4166978404993991e-01 9.5704719738303912e-02
      4.6719493070378704e-02 1.0095257517960959e-01
      4.0107599468685078e-02 1.5497906418311436e-01
      2.5388105012774158e-02 2.0344566785641369e-02
      2.6393940317648773e-02 1.3442793857550536e-01
      -3.3933493926364205e-01 -3.4222497500447820e-02
      -1.0805768473450390e-01 4.5862837269044924e-03
      -3.9438045306495223e-02 -1.7006558131329522e-01
      -7.2617318517356877e-01 -1.8917211975977286e-01
      2.6022152782325664e-01 -1.3097573948391050e-01
      2.8037235141244087e-02 7.6116576911075914e-02
      -3.9400690258285548e-01 1.7012357632865452e-01
      2.1296981060170680e-02 -8.2924661478844183e-02
      4.8243466533569680e-02 -1.0438125542299179e-01
      1.7621991691120878e-01 8.6910184501879095e-02
      2.3029048194395341e-01 -2.4797732441001949e-01
      8.1470576724061591e-02 -8.0453549915292674e-02
      1.6089520653212550e-01 -6.4554935277328598e-02
      -7.9799433086214400e-02 2.2415493120359332e-02
      -1.4516871072252133e-01 -7.0316031365329573e-02
      -3.1612365840255052e-01 -1.2487235532959312e-01
      1.0466792887343253e+01 -1.4657511479152544e-02
      9.6751029594648791e-02 -7.3585261465767146e-02
      -1.7178379721179731e-02 1.9184866551082466e-03
      3.2186615208879571e-01 1.1297869739291345e-01
      -1.3657939222129564e-01 6.6596773140649435e-02
      -1.0250301908168968e-01 7.2316330146972351e-03
      1.2372590458898779e-01 -6.8742948877086332e-02
      -2.5690544733064857e-01 1.9647255449755632e-01
      -2.5013424791007566e-01 -3.5178935392551826e-02
      -1.2111641600687791e-01 1.8161738304676070e-01
      2.1976509420555518e-01 2.6346714267400248e-02
      1.8961147061838010e-01 7.1340827435685567e-02
      1.1993441210354575e-01 -1.9094323847539788e-01
      -1.0196693497954831e-01 1.1729030598190410e-01
      -2.8562198766669611e-01 1.4997329625343370e-01
      -4.0793017754071563e-02 5.6757322487243723e-02
      -4.2657421590702953e-02 2.8718106105719476e-01
      2.9352346777465499e-01 -3.9090208939796761e-01
      2.0432939797447099e-02 1.8246897862501193e-02
      3.7832674894662299e-02 -6.0279063573395929e-02
      -2.2932818090599730e-02 -5.4507139278211947e-01
      -2.6111411199452145e-01 -1.4376610240292015e-01
      3.3275622539630643e-02 -2.0310812929036159e-01
      -2.3981564207737121e-03 -4.7179099774915140e-01
      2.5659241544001909e-01 3.0538506999427228e-01
      -7.5636404229037446e-02 -5.2769904408039602e-02
      3.6085206625987698e-01 -3.5631590172137476e-02
      2.0836466463560577e-02 3.3199319950657447e-02
      4.9829483658752283e-02 6.1315526804784838e-02
      1.1593766455238450e-01 4.2259231133656946e-06
      1.8327907238521920e-01 -2.2551613835405984e-01
      -1.3298960868790827e-01 1.6997285863159764e-01
      -5.0402982704756634e-02 -2.0798158371575071e-01
      2.0225426659783904e-01 9.5256960940177909e-02
      1.4000004247463552e-01 2.3633661158358302e-01
      -7.6210545438883795e-02 1.3759004339308739e-01
      -7.2345545163681191e-02 4.5078335152123317e-01
      -8.4721389416007025e-03 8.0238301260924530e-02
      -2.9054989962351060e-02 -9.9549403918043733e-02
      1.4113301130473413e-01 -2.3226620681601501e-01
      -8.4562693772337605e-03 4.0460183540479239e-01
      -3.3655836729480398e-01 -5.4055972918168618e-02
      6.8032621830294432e-02 -7.5021576867032452e-02
      8.9576444342878578e-02 6.9216620723961217e-02
      1.5624363982873493e-01 -4.5599322454074678e-02
      8.9107657988245242e-02 -4.0307457744004210e-02
      8.8845342761772222e-02 -1.6351306687351896e-01
      5.7760988734128244e-02 7.0004213508782415e-02
      -3.4258679675066073e-02 -1.2436135300786595e-01
      6.7475900976694508e-02 -1.9450242266982834e-01
      7.7371657883200946e+00 -7.1548791664761552e-02
      1.0426023527148984e-01 -4.3002761892354850e-02
      3.5987232132339675e-02 -1.5246145791112142e-01
      2.5725337541780946e-01 1.3656057698022553e-01
      -1.5444757213605964e-01 6.5564942535821000e-02
      -9.0287929847836401e-02 1.3086587077207501e-01
      8.3926524821614348e-02 -4.4618162705516350e-02
      -4.4354464666609977e-01 2.1571676251821861e-01
      -2.2454867442162105e-01 -4.2102989122830690e-02
      -1.7804712235021201e-02 1.0879877896713396e-01
      3.1650831608661323e-01 -6.1615230387218146e-02
      2.0575581912226470e-01 1.6277914489375434e-01
      1.1159700660814914e-01 -2.5390865206469226e-01
      -1.7958632484895345e-01 -5.2419064600929708e-03
      -2.7524844566602358e-01 2.4072745481612703e-01
      -2.0877183519566314e-02 1.9634796979741814e-01
      1.2153318321030049e-01 2.7631615789054259e-01
      1.5917519288083942e-01 -1.1865698672595458e-01
      6.7541036689594464e-02 5.8434805804042159e-02
      9.5365149008529063e-02 1.0816450180238175e-02
      6.1571571484527785e-02 -3.2102966421197354e-01
      -1.9239652547791003e-01 -2.1315553351262775e-01
      2.3281247044855902e-01 -2.0798837954126811e-01
      -2.0631869788301702e-01 -3.3287007743155644e-01
      1.7467355917956140e-01 2.8005379929412283e-01
      -7.8610057781554180e-02 -6.1915540915088621e-02
      1.0654792527402478e-01 -3.8299517711879283e-02
      -3.5426881798950947e-02 9.4363789556853553e-02
      4.3171319693619530e-02 1.0706834131868388e-01
      1.0813074138928123e-01 5.6464552688740399e-02
      2.5177578729612460e-01 -9.6446955590136496e-02
      -1.5073206113598864e-01 7.1306153931320712e-02
      -7.9531736998614266e-02 -1.1417083731353114e-01
      1.3042056200693763e-01 6.2824635005141391e-02
      1.0990143153993973e-01 2.2709676126285280e-01
      -7.6745268800266150e-02 2.0475929227937262e-01
      1.4619979953978357e-01 2.4323476205068795e-01
      -7.7327575183325711e-02 1.6726729870991369e-01
      5.1321568967876596e-02 -4.2509103018861669e-02
      5.1595495982756624e-02 -1.1566250935076748e-01
      -8.0757643608618132e-02 4.5315696732535504e-01
      -2.0270417964670659e-01 -3.5484163137679867e-02
      4.2601662188199232e-02 -3.9388980780045948e-02
      1.3261550118141852e-01 1.1719042553973551e-01
      -4.0317093404913081e-02 -6.0313602689405672e-02
      6.8641205629898288e-03 -1.0519393010966217e-01
      8.8938983415105394e-02 -1.8538296610068900e-01
      3.4420197509200987e-02 2.1261358598849231e-01
      -2.8499390152675289e-02 -5.6722943003132055e-02
      -9.1955028781753087e-02 -3.0095958782295423e-01
      7.1720291551799757e+00 -1.1135321767004097e-01
      -6.4580598041455398e-02 -1.3091924112263575e-01
      8.0609530426789547e-02 2.4573045345869283e-02
      4.7077671638319704e-02 2.2991591899955105e-01
      -3.7249330664493380e-01 -2.3432619382320341e-01
      -1.6257874936045091e-01 -3.2026997269367108e-01
      2.6575535881335605e-01 -1.8619159180867467e-01
      1.6380105632869349e-01 -1.2587520189661519e-01
      -9.3890887702212475e-02 1.7908960236695673e-01
      -8.5245494999348238e-03 4.3189303109256078e-01
      1.0630488681323402e-01 -1.5155096042296912e-01
      1.9256991817168773e-01 8.2341830813410205e-02
      -3.0628634870917215e-01 -3.8680708722436602e-01
      -2.6049120937292607e-02 -5.6827172467758813e-02
      1.4566085939697693e-01 1.0797946656073733e-02
      -2.1533931140410467e-01 9.4295535454426063e-03
      -3.5187599276909681e-01 -4.2124328100392822e-01
      -2.3668334112544864e-01 6.2277159667912443e-03
      -2.9622793202308850e-01 1.7667952369991166e-01
      4.3657129363147279e-02 1.6370651579640402e-01
      -3.8821758913392690e-01 4.7212231755174311e-01
      -1.6141060886693648e-02 -2.0133769926896607e-02
      8.1663583735731571e-02 4.7730437787155050e-02
      -2.5120876643140938e-01 6.7034987807002377e-01
      -1.3904933455008101e-01 -4.3293031652594655e-01
      3.1663975558572949e-01 -8.4799061344208601e-02
      -2.1913825126911746e-01 -1.0623642646035598e-01
      9.4924410297639886e-02 -9.7323729673124498e-02
      1.8275187016934177e-01 1.1107074995300731e-01
      -2.4328136788654903e-01 9.3640647015899123e-02
      1.5502285839206494e-02 1.9082604792424526e-01
      1.0043324194605587e-01 1.5013836734483757e-01
      -4.6257855891243304e-03 8.4813428138872576e-02
      -5.4803840239994607e-02 1.6228722215635652e-01
      -4.8424382550269657e-01 -1.7986250013619046e-01
      -1.1427915084435573e-01 4.7094179059543197e-02
      -8.7848636441311884e-02 -2.5665100677428243e-01
      -8.6636494023251753e-01 -3.7082125831058904e-01
      3.0909042210808335e-01 -9.7831631542546330e-02
      -8.1563305468424885e-02 2.0943994456243162e-01
      -4.3401850785356266e-01 5.9937038551675280e-02
      2.6274864406460634e-02 -1.1323081300245134e-01
      4.4195698973383921e-02 -1.2734688414633449e-01
      1.9880360008306466e-01 9.5973102544291172e-02
      2.3710986684276883e-01 -2.8805043967664540e-01
      3.0230497127045248e-02 -1.6448194745944261e-01
      2.3247354543665405e-01 -8.9907985373445895e-02
      -1.0167229096164303e-01 1.0016383655916283e-02
      -2.0413324518095879e-01 -1.7439533193211310e-01
      -4.6420532200017955e-01 -9.3991121362538829e-02
      8.0270099894749745e+00 -9.3411710617032539e-04
      5.0553973125799755e-02 -8.3159192188636433e-02
      7.6005923989745552e-02 -2.8247911161685740e-01
      2.6817867721464556e-01 2.2602822187146846e-03
      -1.8526952639106228e-01 -1.2565316830048320e-01
      -1.2384673900034292e-01 2.7431352535988412e-01
      1.9756592352602775e-01 -1.1053105682420074e-01
      -6.2999917105500303e-01 1.8131732369259190e-01
      -2.0174850333221062e-01 2.2462696333402671e-01
      -1.3875999561753372e-01 2.1350423782869329e-01
      2.6913681561382097e-01 -2.3756640455386480e-01
      2.5866949730654748e-01 1.3551468534574626e-01
      -7.2054826026559165e-03 -1.7046195782391912e-01
      -5.2181936470306958e-02 -1.1771707084826429e-03
      -1.0489137928162331e-01 1.2087306553075820e-01
      -4.8556054707280284e-02 1.3165771042251814e-01
      -2.8128434879885050e-01 8.3604459557548416e-02
      2.6953799637386666e-01 -4.3239477859095526e-01
      5.4142186064330779e-02 7.2674651190253639e-02
      3.3929321840465161e-02 1.8921373227969218e-01
      3.2801514877984474e-02 -2.3307296626278359e-01
      -3.2046710157871583e-01 -7.1332001585413335e-02
      -2.6325252367880195e-02 -1.3043342199677993e-01
      -4.0178934790276602e-03 -1.4021824423534673e-01
      1.3422031980561513e-01 1.8299803664428244e-01
      1.1214488689040734e-02 -5.1312786067550929e-02
      -1.3505073439140589e-01 -1.4198670083484256e-02
      -7.1604426893324635e-02 7.5038110645689979e-02
      1.2674295307384389e-01 1.0413329022852244e-01
      -3.2464436302182764e-02 -3.4863778944978031e-02
      2.2092969890630959e-01 -5.2995171652650407e-02
      -2.0501099563693947e-02 1.9645571194749534e-01
      -8.4731865226222364e-02 -1.7372419299617367e-01
      8.0642676552578202e-02 2.1159786399128808e-01
      -3.0502113887758958e-01 1.9449416474541570e-02
      -5.5866396350740193e-02 1.5527428298616944e-01
      2.6864665648182745e-01 3.4090568634474372e-01
      -6.9674580490215604e-02 -7.5801876351709443e-02
      1.2924360285396532e-02 -1.4406554450441869e-01
      1.7452956503836917e-01 -5.8240583392578843e-02
      -8.4274275510202792e-02 3.1531038312305970e-01
      -3.8197335763978596e-01 -7.1671556604003456e-02
      9.6709767394616494e-03 -7.1526333666536934e-02
      1.0853164132467100e-01 3.0908082924152227e-02
      2.2856770310677066e-01 -1.9469826810746327e-01
      -1.2633667730491852e-02 -6.4916792205518947e-03
      1.2966122978887898e-01 -1.7146369249791393e-01
      1.1806664566458894e-01 -1.5586875898786642e-02
      -1.0010847738540896e-01 -2.3596473201074283e-01
      -9.4075028048108966e-02 -2.7403886120145049e-01
      -1.6094719338942061e+00 -6.1316793167862114e-02
      1.2115565138086792e-02 -6.4915063304056567e-02
      1.7388858780049551e-01 -2.2901544203727664e-01
      2.3273243433954666e-01 1.0504238445069215e-02
      -1.2546214565285607e-01 -8.4370776793908017e-02
      -6.1775358669900627e-03 4.8473266650099506e-01
      5.4066113638791921e-02 2.7687774187085613e-02
      -7.2595464661113329e-01 3.2061396979279805e-01
      -2.1778675149573126e-01 2.8956535283741885e-01
      -4.9779171181292964e-02 1.1447198278036395e-01
      2.9026922649971809e-01 -1.7518511878385962e-01
      2.5889682417105259e-01 7.1699620561483088e-02
      4.2905086329882061e-02 -3.6683752342727133e-01
      -2.3659571480307143e-01 -2.4105483842311645e-02
      5.7465165051394929e-02 2.9493501570375291e-01
      -1.5224084024598969e-01 3.3993803559275676e-01
      -5.0742716698578869e-02 3.0889876304988068e-01
      -2.5078828008581883e-01 1.5552521491485771e-01
      5.4095864415225445e-02 4.6073277600141876e-02
      6.9297505712621013e-02 -2.3947159472592100e-02
      9.8283819006166104e-02 3.1889365496704414e-01
      -5.6595812177289917e-01 -8.2305730831775670e-02
      1.5114742776936527e-01 1.9460088328450902e-02
      -1.1812449783894237e-01 1.0389998978894293e-02
      -2.0396194784942659e-02 -2.0108850502414685e-01
      1.5617472861359269e-01 -5.6618950023411274e-02
      -2.9374112169854349e-01 -2.6927785967190445e-02
      6.8576415758964698e-02 1.5727776547209402e-01
      1.1017874383115742e-01 1.2316087218760344e-01
      -1.7687566209453773e-01 7.6937054736686328e-02
      4.6887394834951279e-01 1.2818864850468753e-01
      -3.4751660581921300e-02 7.8605678839751836e-03
      -9.1573734575555558e-03 -1.5762444024185380e-02
      1.7306840433200607e-01 4.8709243566282021e-02
      -4.8738047343488672e-01 -1.6922185804155016e-02
      -6.0890215180426185e-02 2.4496918447274155e-01
      4.7604067255619908e-01 -2.3199640213216097e-01
      -4.5255229346181580e-01 3.5268513593417941e-02
      2.1867510298649362e-01 -1.5927830177273011e-01
      -1.1015884249457465e-02 1.1062252562787681e-01
      -1.5123106940376016e-01 8.4764046969030948e-01
      -1.6455407213231391e-01 -7.0838264174401241e-02
      3.3683178148412520e-02 -8.4775231775903945e-02
      1.4091509893181769e-01 1.2482288655615865e-01
      1.1584530264237287e-01 -5.4142625398796940e-02
      -5.6268387971924669e-02 -1.0208497781273233e-01
      -2.3031982559300043e-02 -1.9807086179000205e-01
      -6.0102739454576740e-03 1.1592430744144884e-01
      -4.3721755828797337e-02 -3.8501690039364223e-01
      -1.3163458901183511e-02 -4.5012189971159394e-01
      -1.0240561695100261e+01 1.0980520148567295e-01
      -1.9993392227005871e-01 5.7104528838939850e-02
      1.5670589492118768e-02 1.4259450014073666e-01
      -1.0915438636739544e-01 -1.6895350788420385e-01
      2.8235499453274043e-01 2.1939350906958222e-01
      1.7935462136798661e-01 -3.6111605394050439e-01
      -7.3158917292510867e-02 3.8158687775532864e-02
      6.3049311042893830e-01 -3.0543234898253713e-01
      2.8744735443374592e-01 -2.2567254070044343e-01
      -5.3553000989585833e-02 -1.9146587608680252e-01
      -1.6521682835692206e-01 1.6872397288984664e-01
      -2.1093719213357501e-01 -5.6909219088081490e-02
      8.6011001585852634e-02 2.3010673298088269e-01
      3.0528980975184822e-02 1.9452328481047595e-02
      8.9972115701060631e-02 -1.9071968958777086e-01
      8.3749326795409820e-02 -8.0936141264991573e-02
      2.5277673960172192e-01 -2.1699682193498229e-01
      -2.4500429307749574e-01 2.7797751734652581e-02
      -3.2740713662730223e-02 -3.3564612071362500e-02
      -4.1778100712818546e-02 -2.9273593272556631e-03
      -2.8531470964342270e-01 4.8157868396282771e-01
      6.9546680916932746e-01 -1.3866417863082568e-02
      1.0397082298556848e-02 1.6286802912548554e-01
      6.4598680101225658e-02 8.6473401107057857e-01
      -7.3554805995410671e-02 -3.5175163750385802e-01
      2.2959946851940274e-01 4.0283325086841980e-02
      -4.3916381020828704e-01 4.5864988197368742e-02
      -2.7438617141755932e-02 -6.1076431868217693e-02
      -7.8118445986881904e-02 -1.5819891051938834e-01
      -1.6242317225861458e-01 -1.0168694999700408e-01
      -2.8554645389988020e-01 9.0198379667555423e-02
      6.3400227294994921e-02 -7.6305228569340314e-02
      -2.4724355936185817e-04 1.3186759549009824e-01
      -2.4473854768132377e-02 -1.5059267601354320e-01
      -1.0535501939082996e-01 -4.3105960748369969e-02
      1.1116530826363927e-01 -4.4968904355500404e-02
      -6.9871104752353752e-01 -4.3156104700560921e-01
      -1.5293689657288215e-01 -1.5515700397019389e-01
      -2.6677430322993262e-01 2.0467921277573625e-01
      -2.2562020866809199e-01 3.9295684656622121e-01
      2.5535254357775955e-01 -7.4765274804490756e-01
      2.5824533910427643e-02 4.2276541373107039e-02
      -5.3251380015673505e-02 6.5812539872229306e-02
      -1.5232073017108885e-01 -1.7258680052986985e-02
      -3.2037896017106804e-01 -9.0041770171757855e-03
      1.0691799542702801e-01 -5.3096551684891545e-02
      -7.1938251014814131e-02 1.1739258968689122e-01
      -3.8292747021731362e-02 2.0053569090406245e-02
      5.6914717427262229e-02 2.8746206399872905e-02
      -1.0647095562091810e-01 3.6556277722034602e-01
      -6.7882630695572148e+00 4.4006154032106864e-02
      9.4537707207464364e-02 7.6968219747139424e-02
      -9.7425775828380759e-02 9.6223148865975647e-02
      -2.5322694849842420e-01 -1.4850775012943671e-01
      1.7987385735958716e-01 -4.1875985786246753e-02
      4.9396363806663728e-02 -1.0507169251120277e-01
      -8.1079138592984462e-02 8.6750447255159360e-02
      2.0256917683654599e-01 -1.7995873765149911e-02
      2.7691789113056514e-01 -1.1858922580859323e-01
      8.6399968444005840e-02 -2.2583448771151554e-01
      -9.7092974389534653e-02 2.8500451466615382e-03
      -1.4684264380342821e-01 -5.0985372137728545e-02
      -1.0055756966812082e-01 2.6292630570016268e-01
      9.5600528675312269e-02 -1.2760290093757426e-01
      1.3361792266931569e-01 -1.0156421046142874e-01
      5.9734796739331235e-02 -1.4956429431167870e-01
      -9.5979718623354880e-03 -3.6081576759402711e-02
      8.9646513296890967e-02 1.5433759897728822e-01
      2.1629098094901122e-01 -3.6709074340927517e-02
      -8.2328566054339691e-02 2.0305514334405809e-02
      2.4051769910828297e-01 1.1517843044980750e-01
      7.1012873710544919e-02 1.5306039352966144e-01
      -8.4399583958740004e-02 7.2759385104027418e-03
      -3.5797327063590595e-02 -2.3367249986277894e-01
      -8.7636673754086958e-02 1.2863051276128734e-01
      -1.7586321706452257e-01 7.2103528020852528e-02
      1.5079958615525032e-03 8.0915248301799816e-02
      -1.5336247072395285e-02 -1.6988741975721475e-01
      -1.0241635653355423e-01 -3.4941840964762584e-02
      3.4438407356438872e-01 -1.6338045660260821e-02
      -2.8006069777215326e-01 7.5378397142947418e-02
      5.8494499415158330e-02 -1.9512057019819934e-01
      9.5756032240423172e-02 5.9055183319897423e-03
      -1.8230249084588343e-01 -2.4168225336618363e-02
      5.7060121746938662e-02 -1.6401582136995962e-01
      1.1819296505655444e-01 -3.7415289521427836e-02
      1.1163961717844069e-01 8.6776089417977945e-02
      5.0852056487892805e-01 1.4201757167115056e-01
      -9.4834846255339902e-02 2.2979595040635765e-03
      -1.8815440555096896e-01 -3.3546949801214858e-02
      8.1876951651425181e-02 -1.1394740893725490e-01
      1.7383664220919248e-01 6.2646329065458389e-02
      -9.6533067078844834e-02 9.5154067683361668e-02
      -1.2605426623035365e-01 -5.7187288230426708e-02
      -1.4573380443937672e-01 1.8022766108995315e-02
      -8.8160314016574287e-02 1.2573426160387877e-01
      -4.6766291490198293e-02 4.4870636792714483e-02
      -4.3732307699102850e-02 -1.0507205176127617e-01
      3.9084236781751859e-02 1.5436907348345644e-01
      7.0419486406104528e-02 -1.7787809632867423e-02
      -4.6223858431341798e+00 1.4398425481369170e-01
      -5.5686633028768605e-02 3.2546119273602687e-02
      4.3267776478568179e-02 5.9781662360896971e-02
      -2.0453052867647215e-01 -1.2778729075072565e-01
      3.5196126524571780e-01 -1.2169463886047453e-01
      1.3254513935941084e-01 -5.3451126048682952e-03
      -8.6728219979306798e-02 7.6031255181196314e-02
      2.4718685914452773e-01 7.6042536718383827e-03
      8.8079539432412146e-02 1.4198690678842754e-01
      -7.1028709271735565e-03 -2.0912833276762594e-01
      7.9988774202554125e-02 -4.2318123608891867e-02
      -1.0653911552666276e-01 -8.9620971170587177e-02
      7.7279913588231943e-03 2.1175387399303780e-01
      -9.9195569495628324e-03 9.3441589362323729e-03
      -2.6573335462110145e-02 -6.9776139146066868e-02
      1.8545303511011080e-02 -1.1652077736452757e-01
      2.7667942754385449e-01 -1.4976894222050618e-01
      -9.2445183748587918e-03 1.0595197192151198e-01
      1.5749177704045805e-01 -3.1667597595927320e-02
      -3.4888233605493868e-02 -5.4271566977942845e-02
      2.0966845077095397e-01 -4.2190072561556063e-01
      -6.3753934730125580e-04 1.1559909715841242e-01
      -9.9330171607880949e-02 1.3162146855207921e-01
      5.3900334775086295e-02 -3.0638969460345095e-01
      -1.1702776027672446e-01 3.5097314371574637e-03
      -1.0696776087891276e-01 7.4236242016961024e-02
      3.1525702379211901e-01 3.0892448237223192e-02
      8.8528133619786963e-03 8.2268602532479126e-02
      -1.6073621426611440e-01 -1.3178001834485453e-01
      2.4314821597263239e-01 8.6172986165508517e-02
      -5.0504488668599856e-02 -1.7081873453301355e-01
      9.7214713578033504e-02 -1.0879078899259771e-01
      3.9576256281273391e-02 -1.1702654602099353e-02
      -1.9443574290061893e-02 6.5187069963686201e-02
      4.5418906514563306e-01 -4.8854737202533631e-02
      1.1238359222103191e-01 -3.0308055902203233e-02
      2.1332183645461386e-01 1.3974024181977468e-01
      3.6922878961128253e-01 2.7810041402192707e-02
      1.5961598803219859e-03 8.6961491443128314e-02
      2.2959762133702849e-01 -9.5895297653805570e-03
      2.0670091979276750e-01 1.2221245261002230e-01
      1.9275665813732146e-01 1.5363234341356637e-02
      -5.7722702013793266e-02 3.2298021444116698e-02
      -4.5759081986006644e-02 -1.8756115468848344e-01
      -1.7704896462584269e-01 1.6945794185421703e-01
      -7.0776229771805962e-02 1.7544348570747334e-01
      -1.5105325399347705e-01 1.2597294089333921e-01
      4.8933038035901967e-02 -7.9454107810923685e-02
      3.7397511450406651e-02 5.2186764953977741e-02
      2.7420546296930559e-01 9.7455144466390725e-02
      9.5629505619471775e+00 -7.1941852873871143e-02
      8.5242749574735127e-02 -7.7631947592284548e-02
      3.0615142272032329e-02 -2.9203220128175153e-02
      2.2118114697076355e-01 1.7445542294446889e-01
      -2.0670039207097665e-01 -3.6218957932795851e-02
      -1.3782164552110485e-01 3.9669951808127810e-02
      1.5955080956709544e-01 -7.4157960239068663e-02
      -2.7045348661514557e-01 1.3025691142105211e-01
      -1.7327615038140354e-01 -3.7145203516696604e-02
      -2.1227407259917196e-02 2.5417813574630399e-01
      1.7028144140305693e-01 1.2820689793033045e-02
      2.0249147814963259e-01 8.2134330107457201e-02
      -1.6398870365221366e-02 -2.6319228144561890e-01
      -7.6777516342295335e-02 3.7892204429404240e-02
      -7.1478848082371677e-02 9.9878255308998853e-02
      -9.6982570401112050e-02 7.9912329878524924e-02
      -1.0110486708662542e-01 6.3134655040834570e-02
      3.6908494559950052e-02 -1.9197852562789450e-01
      -9.8401879023098993e-02 7.2652228527230661e-02
      3.3724942804402379e-02 3.5284356058570165e-02
      -7.1763306879545921e-02 -1.0466060901367777e-01
      -2.1618172473011513e-01 -3.8288925534886456e-02
      7.3269308209943429e-02 -8.4695213572603012e-02
      -2.2010587765598880e-01 -8.4604252651192050e-02
      3.8539950221455122e-02 1.0161019722749860e-01
      2.1162151180287057e-02 -6.5511610873680598e-02
      7.3613280681767645e-02 -6.3320086718947399e-02
      5.5877688175159347e-02 -7.9645885188573143e-02
      8.2501675929139998e-02 9.6092017776567493e-02
      -4.6237737545928206e-02 7.0805560067815299e-02
      1.3956965767876875e-01 -4.3639191882636270e-02
      -4.9933319109108837e-02 1.2721421562262555e-01
      -7.3880211268464906e-03 -4.3859685326581341e-02
      9.5333993800381239e-02 9.8014020574233127e-02
      -9.5282938953546045e-02 1.3802006753832524e-01
      -1.0854092256787569e-01 6.6210795745514209e-02
      -1.1293856471837423e-02 1.0979203532796909e-01
      -3.9863432450867670e-01 -5.5133626399816400e-02
      1.3086174148543872e-01 -8.1106100868028150e-02
      4.6757611626038684e-02 -1.9480026981071930e-02
      -2.3577112356859065e-01 2.7830530440738915e-01
      -1.3995375112276112e-01 -6.2808814523527018e-02
      8.0196642883879510e-02 -8.5615147800008964e-02
      1.4772165725937916e-01 1.1350924270234634e-01
      1.9790861339704735e-01 -1.8387991887138389e-01
      5.5458904441387805e-02 -1.1504982676202553e-02
      1.4542290781159914e-01 -1.7287836836732473e-01
      -2.3594300599142710e-02 7.2432609253331087e-02
      -7.8090537260742110e-02 -2.6870489606128572e-02
      -1.6411888747211503e-01 -1.7614429007829360e-01
      2.2930106640376610e-01 -8.3524546523901080e-02
      -9.8726112131256108e-02 -5.9805573944624831e-02
      1.5617161223443413e-01 -3.2709661668356357e-02
      6.7841262947238259e-02 2.4003699371729668e-02
      -2.5916535112924061e-01 2.6676100654108095e-04
      -1.9655358974518450e-01 9.4113127197613139e-02
      2.8854795577983672e-01 -9.4986119734308566e-02
      -5.8330472741289240e-02 -1.6487802666083259e-01
      -1.3233678073836214e-01 1.5357591981940508e-01
      -1.0021184839419842e-01 1.8364862683148761e-01
      5.1137414826988532e-02 2.4499446963506893e-02
      2.5701203893956431e-01 8.4969529595208704e-02
      -2.1816097255118597e-01 -2.8064876625762009e-01
      -3.6714026934605133e-02 1.4205418837467105e-02
      3.5935191851948139e-01 -1.4707138617880111e-01
      -1.1267275836259916e-01 5.5941569840749703e-02
      -2.2591031774864759e-01 -2.8604136784897322e-01
      -4.3518188717633205e-01 3.1251689515768538e-02
      -4.4707068640083131e-01 1.2193188994365937e-01
      4.3436294677323274e-02 1.3102862748342459e-01
      -6.7164417881381488e-01 9.1694227805869810e-01
      -3.0181104862098074e-01 -1.6018018025031090e-02
      9.3333881621800729e-02 1.2047733652481743e-01
      -6.5303493704694210e-02 1.1675366164222094e+00
      -1.8975516614487095e-01 -7.3057452775466214e-01
      3.9705288477235307e-01 -5.9536243781983057e-02
      -4.6806569585930624e-01 -1.3288734813282116e-01
      1.8003939497583327e-01 -2.2252615087251187e-01
      1.7598413738326751e-01 1.0110765675999259e-01
      -5.1504862128307372e-01 1.9754572630445608e-01
      2.7862569077046302e-03 2.8379257526214396e-01
      2.0360820096805360e-01 1.5571725528660602e-01
      5.7304665906346128e-02 1.6332665368100180e-01
      2.0816466197149941e-02 8.7701714850112411e-02
      -8.2588016846972856e-01 -2.1826041729640497e-01
      -6.7439044660865019e-02 4.3200048558763630e-02
      7.4748977127443370e-02 -6.9799813913508779e-01
      -1.2854291733500793e+00 -4.7032049487210187e-01
      2.1996727912756850e-01 -1.9897952033691951e-01
      -1.0455450032820361e-01 2.3336328143218849e-01
      -4.5351223741502633e-01 3.7105931677152405e-02
      1.0296129957550512e-01 -6.9423764304828939e-02
      6.8199096380250637e-02 -6.7699036752132014e-02
      1.6559520074279852e-01 1.3773073407306760e-01
      1.8219439391421346e-01 -2.3650889609943049e-01
      1.4911052017034090e-02 -2.4564579525553928e-01
      -7.7522836148583235e-03 -1.3716059948468881e-02
      -4.1600098209570363e-02 1.5674663731410073e-02
      -1.1822075249112951e-01 -8.4425725225720089e-02
      -5.1320034228168210e-01 -8.6319017349376220e-02
      -2.9211434787419419e+00 -6.1149775065260641e-02
      4.2917364344639622e-02 -5.6844425240591953e-02
      1.0468195921940830e-01 -1.5091886005279173e-01
      3.3531410632934289e-01 3.8732306669079673e-04
      -7.3313954645056786e-02 -6.4045498711168436e-02
      -3.3443749449712103e-02 1.7533203270847461e-01
      7.5973295546627018e-02 -1.1533770698936685e-02
      -1.2083989076746386e-01 2.1986541869376372e-01
      -3.9404114442961397e-01 4.4906032359901676e-02
      -2.6853798638715998e-02 9.5639085301502280e-02
      2.6544040207933872e-01 -3.4580763615203326e-02
      1.1406348902502240e-01 5.5257888591414631e-02
      1.6385467032573431e-01 -2.3594784091182777e-01
      -3.0549321435918889e-02 7.5554141426514690e-02
      -2.2388012333707294e-01 2.2761612061317324e-01
      -3.1118537360998729e-02 5.2002290476389337e-02
      -6.0937975485743860e-02 3.3802074827791068e-01
      1.5217601841692519e-01 -1.2944519306774419e-01
      -1.1836260713506851e-01 1.7253914168812003e-03
      7.4312523701157457e-02 -6.6296751795033068e-02
      -2.2652273960164315e-01 -6.0671078629971043e-01
      -4.2340238826376186e-01 2.6143156049406733e-02
      -1.7576042121684785e-01 2.1548482710471516e-02
      -8.3247964609816899e-02 -1.0641754877200678e-01
      1.1838832722845816e-01 2.9277061352656508e-01
      1.1977797702644427e-01 -2.3652083400334742e-02
      1.9038626531448760e-01 -3.5886629130035888e-02
      -2.1675056392784161e-02 1.0169998969503462e-01
      4.5078811658100411e-02 1.1378030696026409e-01
      -1.0678456146536543e-02 6.7900361600216702e-02
      2.3323073170128805e-01 -2.0132208556803499e-01
      -4.3192696721963339e-02 2.3168158878420678e-02
      -5.1384314028757365e-02 1.7999012150790212e-02
      7.9383853356132378e-02 9.0743331180391601e-02
      9.6889956162276206e-02 4.0197019505206405e-01
      -7.4556279388234795e-02 9.2761612866139986e-02
      1.8921116322543235e-01 2.9996510543239302e-01
      -1.9081838192322165e-01 -5.3051824947495749e-03
      6.3576268511139917e-03 -6.3331160093340458e-02
      1.5431773561393711e-01 -2.8298146356246969e-02
      -1.3407632403461999e-02 2.6845851697284157e-01
      -2.8263927179020554e-01 -5.9362696615419923e-02
      1.3166731530954973e-01 -9.3628083860161707e-02
      1.6594494415565833e-01 7.1973190961922992e-02
      3.4897528311421289e-01 4.1468091973071129e-02
      -2.7611468901193894e-02 1.8812204037584582e-01
      -1.8764445392651562e-02 -1.4056883868287182e-01
      1.2350745766423250e-01 -1.5325367305640533e-02
      -8.3792720508744090e-03 2.0912750976174423e-02
      1.2709430284726481e-01 -2.0318221827939875e-01
      1.2394549294781088e+00 -9.4768084056594593e-02
      1.4651148473418352e-01 6.7524648817636007e-02
      7.2984443656009340e-02 -1.9629098508821835e-01
      2.3338208579163144e-01 4.8465971152971389e-02
      -3.2581330657437471e-02 -8.2497664043391997e-02
      -1.9171082238829262e-01 2.6782203177123537e-01
      -3.6310812604888748e-02 1.3413831391300604e-01
      -5.0176474744638744e-01 2.5530909804124402e-01
      -3.1874131812553530e-01 -6.5790420669686656e-02
      5.4717463039927208e-02 -2.7760596369717182e-02
      3.3311679378395431e-01 -6.4364158271151412e-02
      1.0690077085576448e-01 2.1769976426222293e-01
      1.4274125845590885e-01 -3.0354473849748626e-01
      -1.5036063393160319e-02 -8.0954791386118441e-02
      -1.8232872739385403e-01 2.9773955924744261e-01
      2.4008600062062950e-02 2.6386300713764044e-01
      8.9402502035766579e-02 1.8330189446432446e-01
      -1.2765547851381414e-02 -5.3618344013417106e-02
      4.6434615920915294e-02 -9.3803332970207425e-03
      1.1251710172171889e-01 -8.9363515710044014e-02
      1.6418301190732795e-01 2.8629305538346105e-02
      -2.6232684311043020e-01 4.6289567592770581e-01
      4.4310480025564265e-02 -6.4210219418782813e-02
      -2.2929922051203649e-01 -1.9260193885452684e-01
      -4.4789533756107301e-02 1.8294456063106454e-01
      2.0551783435477558e-01 6.6204416444856900e-03
      -2.1688679780248621e-01 6.5846803971786633e-02
      3.8458486515740346e-02 -6.4328449832437934e-02
      4.9671016140353338e-02 3.1613828597211713e-01
      -1.8242757980502990e-03 4.2527070563767339e-02
      2.2679214184084806e-01 4.9593718646170050e-02
      -6.9073122208942780e-02 -2.0795866586304831e-02
      -5.7240744422768315e-03 3.2794665591385753e-02
      9.3825988567910162e-02 -1.0082976896813149e-01
      -2.5372300542693615e-01 2.7605584162545488e-01
      -5.9428317421628990e-02 2.2423986812776856e-02
      2.9915412277095288e-01 7.2805819084128268e-02
      -3.3006189793352986e-01 1.0434480154789295e-01
      8.9097501524057821e-02 -1.8923761706955373e-02
      1.5289898900878376e-01 9.3222208245791974e-03
      -1.1420836726554898e-01 5.2395279872631240e-01
      -1.0806978089534529e-01 6.0502364804343213e-02
      1.9428835960997601e-01 6.4056297819051172e-02
      1.7493569762589881e-01 3.5531425496008384e-01
      9.6233107759812350e-02 -3.5949503827202141e-02
      -1.9231664235212248e-01 4.5913615290336038e-03
      7.2907439160790566e-02 -2.7080530060262487e-01
      1.0769017343430823e-01 1.4844541751256779e-01
      7.7028973218479499e-02 9.3744382936466475e-02
      -5.9538631737778472e-02 -3.6347587709288326e-01
      8.4832472756481820e+00 -1.0897924291156283e-01
      1.2232740613006915e-01 -8.8841614169161448e-02
      6.8647533297156393e-02 -7.4734562773775539e-03
      1.0140942463286533e-01 1.8763695613800996e-01
      -3.0713871890903782e-01 -1.0284967867422558e-01
      -1.9080687772481250e-01 7.0358532528414092e-02
      2.4941510179021606e-01 -1.2340190935305485e-01
      -2.0056429099283368e-01 9.9590913223812902e-02
      -3.8813785958475441e-02 -1.5426902388255906e-01
      -2.7478037415293952e-02 3.1336791264117919e-01
      -2.6120452619805238e-04 1.3976461583219085e-01
      2.2154264029057741e-01 6.9049668268800117e-03
      -1.9004313998066533e-01 -2.5475989439893898e-01
      -5.3485182330207215e-02 8.3566123417627963e-03
      1.5499588619727493e-02 2.4761441373320494e-03
      -1.0482540404257877e-01 2.0645022480799406e-02
      -2.2605193349741706e-01 -3.9240384749140614e-02
      4.6384436313123599e-03 -1.2217891117283390e-01
      -1.5256004467320622e-01 8.8626727144080569e-02
      -6.6252566687451150e-02 1.2238180079616462e-01
      6.7588402478541559e-02 -2.2314743790339051e-01
      -3.0151163790212693e-01 -4.0961397762189579e-02
      8.6217728828479154e-02 -1.0570183293658703e-01
      -2.7707350893337768e-01 -2.0549185158596028e-01
      -7.0628932275366776e-03 1.1830619787187527e-01
      5.6915060186405950e-02 -8.1024499536841738e-02
      1.7348410327829808e-01 -8.9809066600960205e-02
      1.5147758564378999e-01 -2.6600095194036438e-01
      1.7047945355887684e-01 1.3384569692350679e-01
      -1.3306684296730950e-01 5.9330239892605718e-02
      3.0170445459707266e-02 -3.1233212576844818e-02
      -2.8968198113059847e-02 1.2095176538153136e-01
      9.5206721334908137e-02 -4.9209402267347713e-02
      5.4176171855792120e-02 7.6207822110391149e-02
      -9.6792984645266578e-03 1.6473577533676184e-01
      -9.9851737537400911e-02 -9.2097729813128887e-02
      -3.9133218169832680e-02 1.4802061219156282e-01
      -4.1950364057254241e-01 -4.4395996755412996e-02
      2.0886415422337953e-01 -1.0405135835493377e-01
      1.2148482242669087e-01 -9.1179430300667691e-02
      -3.6880960839396426e-01 2.0468829327503898e-01
      5.7004814727872589e-02 -6.0357961470416409e-02
      4.0732802079129049e-02 -9.3057695352226591e-02
      1.7353726448411419e-01 1.0047396727408299e-01
      2.1707607822356328e-01 -2.7151562485072128e-01
      7.5230304378148649e-02 -2.3355801646360218e-02
      1.3851172085684416e-01 -7.7763163027256929e-02
      -3.3539291718426061e-02 3.1164658022477181e-02
      -1.2085439300512515e-01 -5.6110980813134592e-02
      -2.2539557546457434e-01 -9.3268772850076065e-02
      6.0623921172613109e+00 -7.3608583436379535e-02
      1.6033447688787650e-01 -5.2735851103210205e-02
      -5.3265307512587678e-02 2.2730243064514193e-02
      2.7982387765342354e-01 9.1893829083063955e-02
      -1.3021318841588916e-01 4.4754370189611412e-02
      -1.3143179794198381e-01 1.1369164937535915e-01
      1.0238818068062902e-01 -1.9030198494861931e-02
      -4.1970966583703162e-01 3.4619387890832776e-01
      -2.2355976621120419e-01 4.3530539236179354e-02
      -3.8272733428056850e-02 1.1190630369874961e-01
      2.4256285072824757e-01 3.6324161156400983e-02
      1.4625094573728820e-01 6.2895186531639460e-02
      7.0337644447306655e-02 -2.0125906139184757e-01
      -7.4547967590206585e-02 1.1671255460125218e-01
      -2.8631350224970076e-01 1.6831871450428881e-01
      -8.6185997760150762e-02 -1.1046261866825269e-02
      -7.0853780038473660e-02 5.7683534232656708e-01
      2.4620820740182606e-01 -4.1798119886552831e-01
      5.5307267696976622e-02 -3.4967883920348796e-03
      1.7286053048456252e-02 -6.4845851379175395e-02
      8.1329380948393704e-02 -2.0321358237099404e-01
      -5.1371686310556197e-01 -1.2465413213176998e-01
      -2.9103545970609299e-02 -2.1969452785242230e-01
      2.2706992885830427e-01 -5.8095674130544794e-01
      2.1122800959245291e-01 2.6589992642220450e-01
      -8.3821842887916942e-02 -2.9489924990172642e-02
      2.1292490858420962e-01 -1.0063330879073056e-02
      5.6349144971459854e-02 1.0369809279172861e-02
      7.2029588076671314e-02 8.9010941333143703e-02
      1.9251670755713748e-01 -2.6706159125778457e-02
      2.3242292355762284e-01 -1.9867936786125623e-01
      -1.1641784229467804e-01 9.0286151169786860e-02
      -4.2348548173899742e-02 -2.0515477096919466e-01
      1.5670653976946161e-01 9.3668876949700525e-02
      7.1617692280859110e-02 2.6521203028030443e-01
      -5.6312631147162000e-02 1.3301008217145879e-01
      1.0055339860814169e-01 3.7661016121048818e-01
      3.1704057222852119e-02 2.2460319744823978e-01
      -8.8803388511326409e-02 -8.9830143186531528e-02
      6.9149646192180003e-02 -2.6861864723458373e-01
      -4.6981297294069316e-02 6.0938401467935077e-01
      -3.3426291825159044e-01 -3.5598360594585689e-02
      1.0983872222184303e-01 -5.8078826014802992e-02
      5.6147415334953113e-02 1.2329783199347401e-01
      2.4088998708525813e-01 -7.5023385587386663e-03
      5.9616895852201778e-02 2.0646655954742292e-02
      8.9155601743885052e-02 -2.0626542791414643e-01
      3.4511388955003559e-02 7.0162407606119666e-03
      -7.0067112299193263e-03 -2.1723050547838121e-01
      1.5742625457540729e-01 -2.4549096937068804e-01
      6.8669092045018356e+00 2.0963737128805562e-04
      9.9703468823412134e-02 -4.3851171959940601e-02
      4.2258139803649765e-02 -1.7142186649482039e-01
      3.0890395203678800e-01 1.8494740764049683e-01
      -3.6109692926313060e-02 1.0393588334669004e-01
      -9.4941014017886904e-02 1.2732913018828687e-01
      1.6090126385573261e-01 -5.4485289853318380e-02
      -4.5482179330106937e-01 2.4570587232143776e-01
      -1.8424147282569983e-01 -4.7330482215762417e-04
      -6.4872852178080920e-02 -8.1691269160606341e-03
      3.7840327685986913e-01 -2.4461811447173531e-02
      2.1407152548033129e-01 1.5397233563168425e-01
      1.4045180249665293e-01 -1.4895935034804250e-01
      -2.5165893948632773e-01 1.6646711158467893e-02
      -3.7688768488252383e-01 1.1450988683581580e-01
      1.5283898304970395e-02 1.4288941123989432e-01
      3.2363833620019039e-01 3.8258074687439930e-01
      2.2612520685240034e-01 -2.0519143549431940e-01
      9.8869681307038312e-02 4.5966608878882029e-02
      1.3971178175169829e-01 2.6633006001719434e-02
      4.6021082226167642e-03 -4.0401295848433627e-01
      -2.4789624877481808e-01 -3.1415999663399136e-01
      2.8886747009347524e-01 -2.8741879515758895e-01
      -1.3615907264597005e-01 -3.3768556001017203e-01
      2.5644285534933148e-01 3.2781682194361461e-01
      -1.6409623245373961e-01 -5.8194927407177625e-02
      3.1834783124230287e-01 -4.1003059314067482e-02
      -3.8139775301559951e-02 8.3405300603423285e-02
      -3.2509931804892762e-02 1.0016347591020694e-01
      1.6879088459411451e-01 1.9682473565553760e-01
      2.6565379007030715e-01 -1.4567933162213548e-01
      -1.6020522330743037e-01 1.0508931842523066e-01
      -1.1800855999720522e-01 -1.6912833944155445e-01
      1.6574397272033037e-01 5.5935066142706810e-02
      1.9395422846280092e-01 2.4425258996425275e-01
      -5.0053041241694102e-02 2.5250299624612110e-01
      2.4456314680112665e-01 3.0809703819981760e-01
      5.4028512103982899e-02 1.5497643977446457e-01
      1.3798092387668626e-01 -1.4325929893946852e-02
      1.1539430927479466e-01 -2.7472750083170516e-01
      1.3573623543639158e-02 5.7044032388063970e-01
      -2.3927211760069800e-01 -3.4953793522995769e-02
      5.3470829375115402e-02 -3.7459379148533020e-02
      1.2065856402037231e-01 6.2116253759944548e-02
      -2.2089738217081067e-01 -1.8331600496698911e-02
      -7.5217817052936039e-03 -2.1617677638651431e-01
      2.9054823334658749e-02 -1.4000916766592342e-01
      7.2385303561159756e-02 2.6740759983956697e-01
      -7.4046506434378573e-03 -4.2723113558828150e-02
      -8.6919019997775390e-02 -3.3443231682000385e-01
      1.4656165819855580e+01 2.8515738488523488e-02
      3.8435611266823388e-01 -7.7703601742066683e-02
      -1.4254630284315356e-01 -2.3998911774341969e-01
      4.3797648554128804e-01 1.6152244651782496e-01
      -1.9859794711908643e-01 -2.6499574554523203e-01
      2.7133198533373415e-01 4.2278349201573216e-02
      -3.6376965827314228e-02 4.1504532515044601e-02
      -6.9321410201181166e-01 3.5938464619400257e-01
      3.2749495076840174e-01 -1.2097468393248435e-01
      2.6263747117170561e-01 2.0571746957054263e-01
      2.7162360272151242e-01 -2.3040093222094474e-01
      -4.5636091740953663e-02 3.5805119688483947e-02
      4.9149715744507751e-02 -5.8802498688286686e-01
      -6.4085489968414400e-02 -2.8907439170586052e-02
      -3.7821862582119692e-01 2.4284206244776693e-01
      -1.1234672652303797e-01 3.8081486559482719e-01
      -1.9770739446975033e-01 7.7586252455832661e-01
      4.0079320848965161e-01 1.4638062735838986e-01
      3.4333665270480102e-01 6.6263764008544584e-02
      1.2592446051963865e-01 3.0861460517632811e-01
      8.6775167250231577e-01 -1.2632002224178687e+00
      -8.4542267079207756e-01 1.6676820222319912e-03
      -3.3767233395725946e-02 -1.5487520698290244e-01
      -5.6945852612933412e-01 -1.8871267961854872e+00
      -2.8957183812528767e-02 1.2034931623723362e+00
      -4.4687309372789574e-01 -4.1673478634304068e-02
      8.2122406911263979e-01 7.9504713815738939e-02
      -7.6060688898647630e-02 -4.2390928956323026e-03
      3.6908977844211932e-01 -5.8700186543391673e-02
      7.5152810601825470e-01 3.7174107691281145e-03
      1.7683448527576820e-01 -3.6952140633297459e-01
      -2.6337605641574335e-01 1.0632048895042191e-01
      -2.3273942503782608e-01 -2.0356127751889896e-01
      -5.1015886994976258e-02 2.2668871591467271e-01
      6.4159519150704403e-01 2.7623708494581184e-01
      -3.8705765302299598e-04 1.8963381172851571e-01
      7.2100604221285836e-01 9.2848724600494847e-01
      8.5873421415689044e-01 4.8394729629700545e-01
      1.6502219453948991e-01 6.6830158631726408e-02
      3.2830195537491713e-01 -5.3974664764614311e-01
      -3.2257240466277348e-01 6.0593572529302642e-01
      -5.1336347089009349e-01 -9.1642450113149893e-02
      7.5147922964126271e-02 -9.7993557703354134e-02
      1.0068754351256894e-01 -1.4916747105310108e-01
      4.3517129069923638e-01 2.3942104062453742e-01
      -1.3542776130034875e-01 3.3037825836386325e-01
      -1.8191886051313031e-02 -5.3210843411438991e-01
      1.7457468245479801e-01 -3.9981592596720156e-02
      -1.1718253114749699e-01 5.9104816884809695e-02
      4.6088993910287401e-01 -3.4053541797772358e-01
      7.5602037073928470e+00 -5.8899172200247218e-01
      2.5782252702893315e-02 -8.9498570092431201e-02
      9.2405837794166543e-02 2.0268574782375992e-01
      1.0287160199970518e+00 1.2207380882366252e-01
      1.5018233954168503e+00 1.2338047117551159e+00
      4.6453049316115397e-01 -3.6434735278738384e-01
      6.6367663804075849e-01 -1.1406043692743013e-01
      5.8768033799343389e-01 -6.4418875985449076e-01
      5.3297781954319778e-01 -4.0374679102864697e-01
      -2.7786371394233678e-01 3.0707921033898894e-01
      9.0683385651882456e-02 1.9253829778989678e-01
      3.3826725739833419e-01 -1.6297975138252213e-01
      -2.2984606073436897e-01 2.0449806716644281e-01
      2.8061861387304481e-03 -1.5432038817098327e-03
      -1.1403806829614073e-01 -1.5404896613561994e+00
      1.1874123902177065e-01 -3.3007227141392356e-02
      -1.7572289145113568e-01 1.3623170467045276e+00
      2.9588868936882107e-01 -9.1387468392297266e-01
      -1.1186326514814866e-02 2.3098805666105039e-02
      -2.1294597913480571e-02 -4.8874242297863291e-01
      -3.7083511159185423e-01 -3.3693030661453122e-01
      2.4993416562465224e-03 -4.1001879151507679e-02
      4.1324160634521392e-02 -3.3671476055787580e-01
      1.5582980670110535e-02 1.4885530431306648e+00
      8.7640970376377747e-01 -2.1313712609677773e-01
      -1.3303513228619361e+00 -1.0822357282123192e-01
      4.3312999411308922e-01 -3.1920694804723858e-04
      -1.9303327568925893e-03 1.4062228550163558e-01
      3.1304092027072783e-01 2.2447509489814366e-01
      -7.6070228819379582e-02 3.8656205700469487e-02
      -5.4796721043410890e-01 -3.9446594794215545e-01
      -7.4768684935829000e-02 3.1811996706713280e-01
      -1.2945269240121235e-01 -3.6329783853023628e-01
      1.1907062175872175e-01 -1.6200315835405966e-02
      -5.1523854051860343e-02 -7.9978414435168177e-02
      -7.7060250590834628e-02 1.0763752469365889e-01
      -3.1732269989786488e-01 2.9921411115882188e-02
      -2.0322316346219141e-01 -3.0769179533169250e-01
      -2.9887276403685573e-03 -7.4530698687357222e-01
      -1.2592489066373460e+00 4.5748799480899778e-02
      -1.3631436633579391e-02 -1.4294140301278496e-01
      -1.3001713812853135e+00 -7.0503590045909684e-02
      -1.2189613433755682e-01 -9.0269350770025722e-02
      -2.0378131918409470e-01 1.6664442563274201e-01
      -3.6240351954429935e-02 -5.9125307235784498e-02
      -1.7131345099112218e-02 -1.5397579451826668e-01
      2.1422592090137641e-02 4.5020916053804726e-02
      4.5487928636037490e-02 1.2424585164363620e-01
      -9.0854904828559707e-02 -1.7746947944257815e-01
      -2.0455458469521434e-01 -5.5692624669187715e-02
      8.4193710885265300e+00 -4.1793282756590422e-01
      9.3804830861263719e-02 -6.5876188521752158e-02
      7.0362067183394633e-02 3.1805271400469698e-01
      1.5423631741879014e+00 2.5229229029480871e-01
      9.1524939213487244e-01 1.0124251134622217e+00
      1.4942700982667110e+00 -4.5445638515950326e-01
      -8.5215204978625614e-02 3.7767272136909669e-02
      9.5460774657297642e-01 -4.6495395418634961e-01
      1.3355657551028322e+00 -5.4638771079699178e-01
      2.4861639279009609e-01 2.3433853784291669e-01
      -6.9403530839144856e-02 1.6533391338478859e-01
      1.4049265582641893e-01 -8.9189741174154791e-02
      -4.2565010186642110e-01 -3.6745349260496374e-01
      -1.7464491415317418e-01 2.1095921871235296e-01
      -1.0847224729154188e-01 -2.8588026619503239e-02
      -4.9465511592040390e-01 -1.8693464366477039e-01
      5.2429973968442611e-01 3.8629165274437394e-01
      -1.6520655422874050e-02 -5.5302135962428889e-01
      -1.1710283262629008e-01 -2.5828739394829752e-02
      -7.7029823608981127e-02 -2.0817461140335198e+00
      -1.7566821045866196e-01 -2.7535213592264107e-01
      2.4221934336021109e-01 -1.2102890756227654e-01
      2.3269094225522000e-01 -2.5165865864747594e-01
      -1.0584447309914283e-01 1.4258292308100287e+00
      3.0010284370241042e-01 1.0786431699711543e-01
      -8.5197846409908184e-01 -5.7680287442609023e-02
      1.6632186814382446e-01 -1.9849814596018914e-01
      1.0258381612024042e-01 -1.5978776633262409e-01
      -4.2753600658987194e-02 -1.0225292786716545e-02
      5.7171545698372156e-02 1.3631171495520306e-01
      -6.9672438347801313e-01 -4.1493158095366139e-01
      -1.5143387876580860e-01 4.0905190667595737e-02
      4.3289045677999639e-03 -1.6388595216323104e-01
      7.9715119665710443e-01 -1.5705205171802183e-01
      3.0585078430530355e-01 -3.3916349638010795e-02
      -2.8817475031225198e-02 8.0247301623684181e-03
      -5.2266069372845636e-01 1.7920712217949264e-01
      -2.0872430925861940e-01 -5.7277742077438853e-01
      1.2575927094604658e-01 -1.8953261204467609e-01
      -8.2895685335824520e-01 -7.6696979877384747e-02
      -2.4522963747583026e-01 4.8232496875467587e-02
      -1.7952979213043705e+00 -3.8996560915339248e-02
      3.2108521934597636e-02 -2.9871901287005606e-02
      -6.2663029005182835e-04 -1.2065440633570712e-02
      1.7811261033250941e-01 -1.5208863201574727e-01
      2.6839725928798414e-01 -1.1613699164876966e-01
      1.8863153343430755e-01 -1.2807402552863387e-01
      -3.7398363645410998e-01 1.9777091497720389e-02
      -2.0020998336128984e-02 1.5898756041806597e-01
      -3.8057421279034803e-01 -9.0196249215195423e-02
      -7.8165776123132087e+00 -1.1276393220573315e+00
      -2.6356229721751133e-02 8.3126357782968521e-02
      8.5387721227189614e-02 8.4928518288613683e-02
      -6.7870263955541021e-01 -1.4847077165150974e-01
      -2.1998553317348649e-01 4.1489135848770348e-01
      1.6473326560407309e-01 5.9889468277155744e-02
      -6.6044817218745144e-01 1.3438736373241711e-01
      9.7663795914506046e-01 -1.2438277376640047e-01
      5.6177260827972260e-02 -5.2816389235675450e-02
      1.5403696854293308e-01 -1.5231927848396087e-01
      -2.4668237270694746e-01 -1.1240630284504938e-01
      -2.3061960566466252e-01 -4.8662232829927807e-02
      -2.4492721756276972e-01 -4.4896892074296102e-01
      2.5370921858200640e-01 -7.9125344547684842e-02
      1.2256485243829532e-01 3.8984084094436966e-01
      -2.0574621405123599e-02 -1.5592197205652034e-01
      -6.3031745246766968e-01 8.2517683999666902e-01
      -2.4126658266127807e-01 5.8201626431505804e-01
      -4.0089462573363044e-02 -4.6412085282597305e-02
      -6.2574860964065643e-02 -7.7344273602188762e-02
      -4.2669586667559545e-02 4.1637375227647028e-01
      -2.2222723408278341e-02 -2.3163233142417924e-01
      -1.7557658736881557e-01 2.9281158368894111e-01
      3.0419322578389202e-01 1.4087869867765976e-01
      -4.8461064668416021e-01 -2.9534375852561312e-01
      -2.2557791989632209e-01 9.3238425233145780e-02
      -5.0606439918733592e-01 8.2843895780515972e-02
      7.7133404745987053e-02 1.6685537654061217e-01
      1.6208875175911464e-01 5.7595077878225716e-02
      -1.9110684675740830e-01 9.9934252100982793e-03
      -5.1071355730941059e-01 4.1648142193899779e-01
      1.3474513742380390e-01 -5.3626799553543825e-01
      -2.5521493655461268e-02 3.1583616894055927e-01
      -4.7172066774506340e-02 -8.7368362051357173e-02
      3.7249788203630607e-01 -1.0475212157079634e-01
      5.0647605372330332e-02 -1.3935627298536771e-01
      9.7381832425494128e-02 -2.9979101256857815e-01
      -2.8331657737883115e-01 -5.9373185587857239e-03
      -2.4134798984296588e-01 7.0730756264887298e-02
      -9.9554551461178472e-03 9.2594917203238453e-02
      -4.9462213544523959e-02 -7.4275533665525317e-01
      6.2663407091979884e-01 6.6809489999264657e-02
      2.8754164387135600e-02 8.0743781008211807e-02
      -1.1608084384488018e-01 9.6338222795218115e-02
      -6.9540642520140054e-03 2.7329086349937450e-02
      1.4259830617122521e-02 1.3026087003905956e-01
      -5.9396181181145591e-02 2.2390588513871684e-01
      -3.5828169636432938e-01 -8.8847760780621246e-02
      6.6785621545903076e-02 1.7565256219088048e-02
      5.4743496449859007e-02 1.2954340402495904e-01
      6.3669550608621286e+00 8.4311748132874964e-01
      -5.1284127939015666e-03 -7.9906128526680432e-03
      -2.5260187543185791e-02 -1.1677378349278496e-01
      7.3964025260766519e-01 -1.9594756139402616e-02
      5.6771674382883908e-01 2.4042352399906725e-01
      -1.7758795091292734e-01 6.0997798109957799e-02
      5.6211428335839941e-01 1.2168937843432062e-01
      -8.9967180156235704e-01 -6.3703238239308915e-02
      -2.0084013908807694e-01 -1.3511862691812002e-03
      -8.0018132655802127e-02 3.2645637983700439e-02
      1.7068267193032033e-01 1.7399433202914311e-01
      1.6626528834521020e-01 1.2400632069751939e-02
      2.0252061129802704e-01 5.0851397075098603e-01
      -2.1686473790891667e-01 1.4773905147286170e-01
      -1.5501746238331407e-01 -4.4039057348628136e-01
      2.5330011725724494e-01 1.6690428143740396e-01
      6.6827432077393090e-01 -2.5400990772049725e-01
      2.6995418845907676e-01 -5.0017032150051077e-01
      1.3474072631390546e-02 -3.5020558711162449e-02
      7.0700193610647263e-02 4.3124819272580696e-02
      9.7091518772914123e-02 -7.0463767434452729e-01
      -2.7791991928437509e-01 1.9810983896369060e-02
      1.7807019707428570e-01 -4.1162158607006888e-01
      1.3511974429988449e-01 3.9261421445046307e-01
      3.7579822116847850e-01 1.5425199147943305e-01
      -3.3084389322394686e-01 -2.6847892055107438e-02
      3.7710089352206799e-01 -7.6658259854783167e-02
      -8.3929700826304132e-02 -1.3477027521315871e-01
      -1.8088388813439084e-02 5.6006280816835771e-02
      1.1587135171838761e-01 2.7475139256176173e-02
      4.4366055704940621e-01 -2.2415883485293739e-01
      -1.5027974388781862e-01 4.5033157580830957e-01
      6.7942501863558033e-02 -4.8100246164771226e-01
      1.6204172237534692e-01 2.8414970557268742e-03
      -1.6357837983915174e-01 1.0644358354543587e-02
      -6.4285410468326448e-02 2.5403901365931042e-01
      2.2581148531369630e-01 3.5417082462031280e-01
