<?xml version="1.0"?>
<opencv_storage>
<DigitOCR type_id="opencv-ml-ann-mlp">
  <layer_sizes type_id="opencv-matrix">
    <rows>1</rows>
    <cols>3</cols>
    <dt>i</dt>
    <data>
      118 100 6</data></layer_sizes>
  <activation_function>SIGMOID_SYM</activation_function>
  <f_param1>5.9999999999999998e-01</f_param1>
  <f_param2>1.</f_param2>
  <min_val>-9.4999999999999996e-01</min_val>
  <max_val>9.4999999999999996e-01</max_val>
  <min_val1>-9.7999999999999998e-01</min_val1>
  <max_val1>9.7999999999999998e-01</max_val1>
  <training_params>
    <train_method>BACKPROP</train_method>
    <dw_scale>1.0000000000000001e-01</dw_scale>
    <moment_scale>1.0000000000000001e-01</moment_scale>
    <term_criteria><epsilon>9.9999999747524271e-07</epsilon>
      <iterations>1000</iterations></term_criteria></training_params>
  <input_scale>
    1.7229562727117342e-01 1.6407767832164997e+00 6.2200349976482894e-01
    3.4207235630594370e+00 6.7395479872299191e-01 7.5731884339455169e-01
    9.9956532051330127e-01 -5.4912292941143441e+00
    1.0767848082709324e+00 3.6650656920890540e-01 1.2396188330933577e+00
    2.2444980186460333e+00 1.2569708730062117e+00
    -1.1559360349261529e+00 1.3088902516637833e+00
    3.4519419212216200e+00 1.3858273856546179e+00
    -2.8107208134995387e-01 1.4493237837322894e+00
    2.1306965802582747e+00 1.4833244656838285e+00
    -1.6110023235357209e+00 1.6479463003693910e+00
    -3.4198044070512537e+00 1.6894232293260341e+00
    -9.3856222445110837e-01 1.7846089941040624e+00
    -1.6484644729455142e+00 1.8774464254439929e+00
    1.9413755183408226e+00 1.8908661166003242e+00 1.2062802099792911e+00
    1.9768249163921801e+00 2.9174782026241441e+00 2.0310192140523338e+00
    1.2174465274785069e+00 2.0622401300704212e+00
    -1.9912880743543000e+00 2.1133814956958989e+00
    7.0869997878826407e-01 2.1195533462290141e+00 1.5945143624787284e-01
    2.1901333054627665e+00 -4.4413222972542366e-01
    2.2399843042272578e+00 -2.1523609132667305e+00
    2.2840458856327785e+00 2.5917361989398939e+00 2.2982312964820166e+00
    -2.2362354837621248e+00 2.3472019325857660e+00
    -1.3720782765661386e+00 2.4445731220946882e+00
    -7.7870547200580909e-01 2.4806943460218740e+00
    6.4135033746141523e-01 2.5020794599087552e+00
    -1.0113461334194493e+00 2.5562855302640646e+00
    -7.1473161987131695e-01 2.5673932539739295e+00
    -1.2280039247658023e+00 2.6026973405231084e+00
    -1.9202554353280392e+00 2.6416130913887441e+00
    3.6712528916837855e-01 2.7539211867562945e+00 3.5093239310222448e+00
    2.7960865936996093e+00 9.6365466174632278e-02 2.8265100115427302e+00
    -3.0527384005996612e+00 2.8723037011281809e+00
    2.0111019926614651e+00 2.9143216388217525e+00
    -4.3622506950009543e-01 2.9456868791934681e+00
    -2.1297527690088338e+00 2.9526278153637620e+00
    -1.0179654151948598e+00 3.0582791888432763e+00
    -1.5641437731958772e+00 3.0658899145953611e+00
    4.6960910481051901e+00 3.1337431574363719e+00
    -1.7852973905329208e+00 3.1667793736499301e+00
    -4.1777467963831916e-01 3.2277259774332694e+00
    6.7693874444269300e+00 3.2748878351282098e+00 4.0923903065013167e+00
    3.3312173532814198e+00 -3.4057590807025315e+00
    3.3795963318851885e+00 -5.9254229720338492e+00
    3.4313336909023082e+00 -2.3923543834194214e-01
    3.4636478212939537e+00 -2.6827545325185991e+00
    3.4976357745036153e+00 6.4963245186646663e+00 3.5968314090132756e+00
    -7.5833784105374473e+00 3.6561448005874495e+00
    6.0770898583412836e-01 3.6898238597296840e+00
    -5.2200666068892099e-01 3.7323161131190843e+00
    -2.3797364855046471e-01 3.8059044552183194e+00
    2.6054024502508537e+00 3.9145308927915505e+00
    -1.1060865999671226e+00 3.9135961274333417e+00
    3.4240929646811302e-01 3.9197529496559014e+00
    -8.2521261636829268e-01 4.0389535808788954e+00
    -1.0177682589827204e+00 4.0029729806899086e+00
    2.3353402878976359e+00 4.0778486176322888e+00
    -1.5342484031793484e+00 4.1192310969993002e+00
    -1.0711604293568553e+00 4.1818746337586417e+00
    -7.2371551590522798e-01 4.2749793466041339e+00
    -2.9824383968166873e-01 4.3322704935244660e+00
    1.7711346604752556e+00 4.3626416785393856e+00
    -3.6088902880080092e+00 4.3875388057690836e+00
    3.0044155316011061e+00 4.4780562815148519e+00
    -1.6189354156328126e+00 4.5466976173431233e+00
    -6.8812107323752170e-01 4.5534895469054923e+00
    3.7501873021449372e-01 4.5944624064055972e+00 2.9939313468873535e-01
    4.6593809544586149e+00 5.0942778156591242e+00 4.7019546655886435e+00
    2.0435986030059468e+00 4.7626411183970374e+00
    -4.5830644328047693e-01 4.7230028245166178e+00
    -2.1371051880468057e+00 4.8253948791096954e+00
    3.2298849018696107e+00 4.8882511587334783e+00 1.5633351354193015e+00
    4.9277932428646052e+00 4.4306429564778629e+00 5.0010489213663725e+00
    1.4225283536345926e-01 5.0398435875832091e+00 6.0804974229691811e-01
    5.1174311240848072e+00 -1.9288026183060227e+00
    5.1328702137829634e+00 -1.0023878738424812e+00
    5.1483525695643886e+00 -1.7911193975318870e-01
    5.1899754264359075e+00 2.1908908668550917e+00 5.2764732804422776e+00
    -2.2842007333499543e+00 5.3464501253204562e+00
    -2.4914672082326255e+00 5.3204015748129079e+00
    -9.4985913628712570e-01 5.3833135043733389e+00
    -9.2935455895327590e-01 5.4202068900090259e+00
    -5.2411363323675220e+00 5.4660614117361295e+00
    -7.8290913672105222e-01 5.5097857717348919e+00
    1.3979820585536780e+00 5.6237138007957910e+00
    -3.0230656085036376e+00 5.6405576803939157e+00
    -5.2346595551128807e+00 5.7034164512655021e+00
    -6.4504641412835539e+00 5.7328220661144220e+00
    3.1397972654999609e+00 5.7899221776443470e+00
    -9.9044153961517234e-01 5.8045324546370107e+00
    -7.2532906881226333e+00 5.9077269977639197e+00
    1.7326273241972241e+00 5.9010968414875373e+00 1.1140351719830541e-01
    5.9943203755802692e+00 1.5581090567872347e+00 6.0375273984759765e+00
    -3.5723815829056704e+00 6.0500907472221952e+00
    -3.0662422547718426e+00 6.1546805035654453e+00
    3.3740826381576494e+00 6.1778833401592426e+00
    -2.9170172365684417e+00 6.2119428570416808e+00
    -4.7149362283366179e+00 6.2884265835948367e+00
    4.8740683086317249e+00 6.2603674883237446e+00
    -4.8810797218998054e+00 6.3052347163460052e+00
    2.2533759863234626e+00 6.4084292541925283e+00
    -8.7976634266390281e+00 6.5076125244868051e+00
    1.4033854894176616e+00 6.5149782076642655e+00 4.5425966768646375e-01
    6.6774853984776108e+00 2.0890290576070361e+00 6.8038089367256136e+00
    -5.2359416642861936e-02 6.8038108341532846e+00
    -8.5061502332859429e-01 6.9005396073475547e+00
    -1.0314762457913393e+00 6.9797839444175889e+00
    6.6835270861552987e+00 7.0030112005547567e+00 7.7007785755349956e-01</input_scale>
  <output_scale>
    5.2631578947368418e-01 4.9999999999999994e-01 5.2631578947368418e-01
    4.9999999999999994e-01 5.2631578947368418e-01 4.9999999999999994e-01
    5.2631578947368418e-01 4.9999999999999994e-01 5.2631578947368418e-01
    4.9999999999999994e-01 5.2631578947368418e-01 4.9999999999999994e-01</output_scale>
  <inv_output_scale>
    1.8999999999999999e+00 -9.4999999999999996e-01
    1.8999999999999999e+00 -9.4999999999999996e-01
    1.8999999999999999e+00 -9.4999999999999996e-01
    1.8999999999999999e+00 -9.4999999999999996e-01
    1.8999999999999999e+00 -9.4999999999999996e-01
    1.8999999999999999e+00 -9.4999999999999996e-01</inv_output_scale>
  <weights>
    <_>
      2.6713350136443212e+00 -5.7200868809489003e-01
      3.5108232775081092e+00 -6.6900639274432128e-01
      -2.3081367593052382e-01 2.6268954781603333e+00
      3.1816527015128201e-02 1.2676554632793946e+00
      3.6091030103232208e-01 9.7488763706612214e-01
      7.3051671043872690e-01 -1.8447409048160390e-01
      -5.9299650678351457e-01 -8.0672705334865824e-01
      -5.0401273448599349e-01 -1.5738819828351716e+00
      2.3285721333803964e+00 -3.4551451746070400e-01
      -1.2468398905535913e+00 -2.8236218887457387e-01
      -1.5941130879160483e+00 1.6297541610930670e+00
      1.4145745013641384e+00 1.1516158789632944e+00
      -4.5500990761143761e-01 9.5219256083491544e-01
      1.8264817355434004e-01 -1.3176435580219981e-01
      -7.7276736931122927e-02 -8.6135185074881521e-02
      -2.3470585064169462e+00 -4.5630378867808863e-01
      -7.8175170396621108e-01 -4.5204014302747266e+00
      4.6044075180161445e-02 7.2278583626349313e-01
      -8.9896431582665559e-01 4.2759585954550738e+00
      -7.1235459484945551e-01 7.6222997425673611e-01
      -6.0721236364285736e-01 -1.6738598683142487e+00
      4.7196887953011457e-01 -4.6564374699084154e-01
      -2.3056294896013263e+00 -4.5790338920922463e-01
      3.2191797665100796e-01 1.0164395024211459e+00
      1.5935123119764996e+00 -2.7254269068152515e+00
      -1.6036514947428517e+00 7.1302647352996473e-01
      -1.3953572122997351e+00 -1.2492021496591403e+00
      -1.2660664062455975e+00 2.5334074774643250e-01
      -1.3123364034736584e-01 1.1253248676995840e+00
      2.2502967972231795e+00 8.8785720825775860e-01
      2.0635933771458254e-01 1.7673936844884319e-01
      1.4481508581238187e+00 2.3460053143137313e-01
      1.0481400689655536e+00 -2.5540691358003187e+00
      -2.0176887681266834e-01 5.2754903305164946e-01
      1.3656272703616984e-01 -1.0712816745452538e+00
      1.1342023478592281e-01 3.9083488062792227e-01
      -1.2984934128767875e-01 -2.1341032225321874e+00
      -1.4553360140252922e-01 -1.3691530749724701e-01
      -2.5279992314850324e+00 3.0296715403391210e+00
      -1.5877658700230648e+00 1.0454641171568757e+00
      2.1248822888276622e-01 1.9293663344997345e+00
      -2.2608199628030130e+00 -8.6541679565783824e-01
      -1.0735367032012939e+00 1.0211002134421132e+00
      2.9583178993144426e+00 7.0615493876034208e-01
      1.1191565504586778e+00 -1.4654229472865541e+00
      -2.0313149525620786e+00 2.1538650886119011e+00
      1.7370132280405575e+00 6.5603365803235802e-01
      2.0766299199109182e+00 -7.5354666732424735e-01
      -3.7819611776730871e-01 7.8704703382407781e-01
      4.9573166682721392e-01 2.1575078834548980e+00
      1.1825552200992300e+00 -3.0024813064506950e-01
      3.3804880277007643e-01 -4.0532517548716324e-01
      -3.1344955012972853e-01 2.1710775014342363e+00
      -6.2659782730844138e-01 9.4381598708715597e-01
      1.2669070850201847e+00 1.0536853615938120e+00
      -1.3985531596226615e+00 -9.5385282189393877e-02
      -1.6300818369091228e+00 9.4282451185553251e-01
      9.5853373312989668e-02 -7.9751979084616953e-01
      7.0650746165828138e-01 6.8169376349192556e-01
      -2.0625489320255825e+00 -1.2422770524546105e+00
      -1.0137884564833821e+00 -1.7466761161869274e-01
      -7.6644470320431313e-01 -1.2058155583531018e-01
      -1.3506323161890448e+00 -4.3531696534038733e-01
      -6.2262645632095981e-01 3.9776574319296781e-01
      -6.5522069268966676e-01 5.1932535444603960e-02
      1.0009410094246356e+00 -6.1911304902564401e-01
      -7.1372174749906014e-01 -2.0191840806265979e+00
      -2.4455748528594537e-01 5.1389141772470437e-01
      2.5569883169945475e+00 7.6275804545963588e-01
      1.7348179790800908e-01 1.4117915692800396e+00
      4.2820799090502508e-02 1.7234794098451367e+00
      -7.0492295807933092e-01 -1.9747611232428634e-02
      2.6617503910493201e-01 -7.4084202462139870e-01
      -9.4451869447680831e-02 6.2963543600749472e-01
      -2.6790720292000431e-01 -1.5522078492117894e+00
      8.6098764291512853e-01 -8.8537507852439301e-01
      -5.3869102064364149e-01 6.3501248645689334e-01
      1.1549692503268179e+00 -8.7920808660685212e-01
      8.3113990030718543e-01 4.4844487434754388e-01
      1.3450474095997373e+00 -1.3300078404193942e+00
      -2.4277245800254510e-01 3.9356439645537822e-01
      -1.0239121791546486e+00 -3.4331787017396781e-01
      -7.2613502116240625e-01 -1.1339390602535280e+00
      4.9417418167720550e-02 1.2912761185579584e+00
      -9.4809975093292564e-01 -1.5147424890533954e+00
      9.2176539563018833e-01 1.0644679900805398e+00
      4.4598249966431208e-01 -7.0834588704943902e-01
      -1.9928349861174557e-02 -6.4344268572538932e-01
      -4.3488399563369233e+00 8.6380655419268004e-01
      -9.7824326964066532e-01 2.0152573202360649e+00
      -2.9871372772584220e-01 -7.4753153834339003e-01
      5.3955368449928331e-01 -3.6065088635034126e-01
      -2.2762105198426159e+00 -7.3632635146085046e-01
      7.3240208555860165e-01 -9.7217121247868976e-01
      1.0020235347311863e+00 -2.1020149679528277e-01
      -1.1314903035694170e+00 1.5505207101807336e-01
      4.3345916925516087e-01 -9.1795099424577431e-01
      5.1713912915785265e-01 4.1411912140140056e-01
      5.5622043616032860e-02 2.1652181610786794e-01
      -4.6876508594159516e-01 4.4534813205187190e-01
      -2.5634918997288523e+00 -1.9625228958879788e+00
      -3.4467242624489491e-01 -6.4144614908887243e-01
      -5.0645259193250816e-02 4.2158693996245917e+00
      -1.4244605915361488e+00 2.0030539828545568e+00
      4.6386138500712798e-01 3.7364562605859253e-01
      9.9621151139469954e-01 4.2933671235410931e-01
      -6.9179217100485757e-01 -2.8088324180777924e-01
      3.0007471807906522e-01 4.6264076595797160e-01
      1.7980691833112332e+00 -2.1261110877331238e-01
      -3.1898667368590599e+00 -2.4561815609049784e+00
      8.4966508295827459e-01 8.0492958866779418e-01
      3.3251046129155366e+00 5.5380405956675749e-01
      -1.1399707850796938e-01 4.2632935592385950e-02
      -1.0001481714755017e-02 7.2835106921091453e-01
      -5.1559294890882956e-01 1.9656126545722954e-01
      -2.2645594053769633e-01 -2.5929616776953973e-01
      8.9910011948517873e-02 -5.0870110681726572e+00
      -1.7308689202702379e-01 6.9398365643978133e-01
      1.0872941971310133e+00 7.9253475313976962e-01
      -8.9936084766064323e-02 9.3333884421182833e-01
      -2.5591671621177264e-01 -1.2962873632001309e-01
      -5.4172491008752244e-01 -1.0575206746220234e+00
      2.0148215333954261e-01 3.3791419203001105e-01
      -2.8545028371078199e-02 5.8768936453564860e-02
      9.7043727852799500e-01 -3.4242811396357369e+00
      -1.0112505864383432e+00 -5.4376494983933854e-01
      -2.0260493581136605e-02 3.8764282952372231e-01
      9.6559875852413335e-01 -4.5694572182588622e-01
      2.2188571861223158e-01 -4.0879962217418692e-01
      4.7911915958436158e+00 -9.7441746042363053e-01
      -7.9823531751799223e-02 4.2831506115094609e+00
      -1.1059707564134669e+00 -2.7556058227920993e-01
      -4.3104667020479437e-01 -6.6009050116661880e+00
      -9.8282752073639457e-01 2.1111462248496076e+00
      7.7610290814819938e-01 -4.6014208652939875e-01
      -2.8088900454169724e-01 1.7469227175935853e+00
      1.4139412050840230e+00 -1.1477151526017861e+00
      1.5964248252540997e-01 8.7348192268844072e-01
      -3.2019289977202630e+00 1.1115664847123641e+00
      -2.3420064448699054e+00 2.7892876979310182e+00
      -5.9482433786164002e-01 -2.8277399331917641e-01
      -9.5061988847257228e-01 -8.3717020535397002e-01
      4.6035396994690603e-01 -4.0807329311798046e-01
      -2.9879055861328685e+00 -3.8849838100390766e-01
      3.2947610235598584e-01 -6.1125900048442428e-01
      -4.5262142611285681e+00 9.5016432551425511e-01
      4.4645577437563105e-01 7.4201947760081965e-01
      2.8141154288371393e+00 3.3238804443831432e-01
      -1.1478420788641406e+00 -9.9902355162768586e-01
      2.4088079855143374e-01 -1.8018024308509162e-01
      2.3184760698526654e+00 -7.3012302116489805e-02
      1.2278046867700555e-01 -1.5688886469444968e-01
      1.6052391268784622e-01 1.4602159448513703e+00
      -1.6612627826368911e-01 2.0241856933045924e-01
      -7.8007875784993075e-01 7.1105330372764952e-01
      -1.0898460408444701e+00 1.1534623826804886e-01
      -5.0534354828403072e-01 1.7167575556278303e-01
      -4.9469028654294106e-01 -3.3476500846376905e-01
      -3.4324766751958252e-01 6.4494146628657278e-01
      -3.7387966879290346e-01 1.9013588223962397e-01
      5.5114825065702888e-01 3.9148319097497847e-01
      5.4626113972248724e-01 -2.3436250604142692e-01
      -8.2778138165685022e-01 -3.1653860049549754e-01
      -5.2954776355755229e-01 -3.4521062442268674e-01
      6.4835983602472425e-01 -3.1810163182322088e-01
      1.9018799966033062e+00 6.2912023047691723e-01
      -7.3070056805929562e-01 -9.6590562550896852e-01
      -4.2071257967471332e-01 1.4265919134999938e+00
      9.2845889780877572e-02 1.0466466130138329e-01
      -2.4575360996581236e-01 5.5130458954945083e-01
      -8.0058975004723587e-01 -5.4484369223845674e-01
      5.7744822896748660e-01 -6.9746937307345735e-01
      1.9731503387242599e-01 -1.1700389035378214e+00
      -2.6095838572815167e-01 5.1897113294610420e-01
      -3.2389790143942071e-01 -5.3939650140777518e-01
      2.0013754102247994e+00 9.1150069841670911e-01
      -1.8832393254192836e-01 -1.3051681745220303e-01
      -7.0025972008626136e-01 1.7939015553613658e-01
      -5.1780516916230812e-01 2.1073973766812901e-01
      -9.9241985968457713e-01 8.0201911934803582e-01
      6.5330531722099003e-02 -3.9378942484806462e-01
      -5.8535533595490774e-01 1.4068906691597041e+00
      -6.7488090030188919e-01 -1.9418576320640468e+00
      1.7632666822565421e-01 7.2652112050647943e-01
      7.9131215533411306e-02 -1.7762565534682664e+00
      7.5363366798092879e-01 1.9221379580549727e-01
      -2.8684615605425556e-01 -5.2555673905142675e-01
      2.3810751078686213e-01 -2.9247738812900387e-01
      -2.3983894133775787e+00 1.5588607962998749e-01
      -5.8228735380358376e-01 1.3561124046977546e+00
      1.8195772811597019e-01 1.6907277969878254e-01
      -5.0818742924900562e-01 -4.0602990422425483e-01
      -1.9152612899114245e+00 -2.2507159700264448e-01
      1.3615762418793782e+00 -6.1896148715603028e-01
      5.5423665869339245e-01 -5.8732166885258574e-01
      1.7772984378838030e+00 1.4252960879878041e-01
      3.4190651534101328e-02 -1.6428083539898011e-01
      9.5651520781690647e-01 3.6091232790508576e-02
      1.4697930997079771e+00 6.2270894637835084e-01
      -4.0413282241120146e-01 3.2403179664934206e-01
      -3.4311789534387498e+00 -1.3730857719655931e-01
      3.9774319553688636e-01 2.8064380004482875e-01
      -3.5823193276746529e-01 -7.3846829260383706e-01
      6.3081566582243109e-01 6.3641405826528104e-03
      1.3846006875503553e-03 1.4526150343296942e-01
      3.8099834295716839e-01 4.9965371019212342e-02
      2.5131775603111522e-01 5.7421515755220076e-01
      5.9064353323453542e-02 -3.3714824135531002e-01
      -5.5192507684304233e-02 3.0667886714854864e-01
      -4.4300976373176304e-01 1.1596636948208800e-02
      -1.0273810487902504e+00 -3.6213796110962276e-01
      -3.2051083473447735e+00 -2.5647712052921823e-02
      -1.2373811557288049e-01 -4.7274701926776386e-01
      -6.2736951423992837e-01 3.1724797196019000e-01
      -1.3163809096153153e-01 3.8081256178573587e-02
      -1.5949701525773559e+00 -1.2156624698364269e+00
      -7.0133735049053303e-01 9.0030128172903900e-01
      6.2921609082448510e-02 -5.9191525921456523e-01
      2.4654087727185505e+00 7.4428581890185294e-02
      1.3513789952455996e-01 1.1199685773802451e-01
      4.2543783606094060e-01 1.3624668626856800e+00
      -9.1160256675319218e-01 1.0397467580496895e+00
      -9.1376848329778066e-03 -1.6464262542317148e-01
      2.5644004167781781e-01 4.0152984581883761e-01
      4.8400759127771259e-01 4.5489656968237280e-01
      -1.4047509065882169e+00 -8.8483954316638935e-01
      -5.0367908813288745e-02 -9.1098106595770278e-02
      1.4009660132941539e+00 -4.5470411233502754e-02
      1.3772888620396995e-01 -2.8613970630592434e+00
      7.4650289918388024e-01 -1.7400319377590379e+00
      -1.0922655537891111e-01 -7.3576055947005503e-01
      -2.2620303635957911e-01 -1.0469875315888406e+00
      9.9832372315741477e-02 3.4169948976549573e+00
      6.5337897629705002e-02 -3.3564259657775436e-01
      -1.3427586845860480e+00 -1.0206111580636792e-01
      5.8045713675255450e-01 -6.1001335033840653e-01
      7.3192153154246586e-01 3.7461178116452803e-01
      -8.9239456278871843e-01 -1.0344158504977778e+00
      -4.2821952238746530e-01 -2.8369277472698790e-01
      4.1628068591554729e-01 8.6370697275427899e-02
      -2.1690527637383694e-01 -1.4465738520475244e+00
      1.5223771901120990e+00 2.3524169077391294e-01
      7.9750540310789964e-01 1.1954726300373931e-02
      7.1783883444068020e-01 -4.6030581100245999e-01
      -2.3104860210697514e-01 7.2541663351278018e-01
      -1.9115640599020582e+00 3.1436045267131396e-01
      1.4591868779676600e-02 -4.8161065980266266e-01
      -1.4931507241998061e+00 -6.4099893543088454e-02
      -6.8808220901139738e-01 3.9572135577040779e-01
      -1.8367084806493397e-01 -5.1249784965935108e-01
      3.6726326686086890e+00 4.3990995330709537e-01
      -1.2786913922370313e-01 -7.3351084311745729e-01
      7.9646459953507831e-02 -2.2296570543292354e-01
      -3.8629330595739253e-02 3.6074210106539766e-02
      -1.5457897854763228e-01 2.1910544872500957e-03
      -2.0294311323220580e+00 3.2612142916164594e-01
      -2.7813761356414951e-01 4.7346262029144404e-01
      -1.0811066145720119e-01 -1.6234845086114258e-01
      -2.9591368435626619e-01 -1.9869738435571313e-01
      9.3513695857608392e-01 2.0481506870737223e-01
      -7.5280183729762762e-01 -2.2270418091382839e-02
      2.1017692774995478e-01 1.2274450518401794e-01
      -1.4609240954926572e-01 5.2890903962403391e-01
      5.2396880805417434e-01 -1.6734307505981367e+00
      1.0268803621155552e-01 2.6282082766019710e-01
      2.2141453514028506e+00 4.1901713389628176e-01
      -4.3790575126095183e-01 1.0177624014060453e+00
      -3.7411237595547858e-01 4.1283646108160765e-01
      -3.0783036589533264e-01 -1.4432604863767851e-01
      6.6581181016199698e-01 -9.0858610842078982e-02
      -3.0366996084233400e-01 -5.2220604777293067e-01
      1.0776765633600174e+00 -5.0357360643331184e-01
      1.7988954661314624e-01 -1.2652663265474715e+00
      -5.9799801289700660e-01 5.3040917137411908e-02
      -3.0124374409779914e-01 6.6398859980712943e-01
      2.4562116530956635e+00 -2.2184162227067583e-01
      6.0471614147186525e-01 -1.9136520567431850e-01
      -8.1079224925581428e-01 -1.6984582772065981e-01
      -3.1166452217964480e-01 -1.7051255069976483e+00
      -2.4007518643088321e+00 8.6619918093487722e-02
      -3.5953640736910808e-03 -1.5007386193306089e+00
      -1.3926603745623314e+00 4.4170669711229849e-01
      -7.3575258360698403e-01 2.9313659612535407e-02
      3.5502100180186125e-01 6.5344374637529073e-03
      3.7533067581667101e-01 -1.3136125494390376e+00
      3.3973173962903275e-01 -6.7421682629281865e-01
      -9.9322150459514558e-01 3.5370248055071218e-01
      2.6652545325855576e-01 -1.6472429472557817e-01
      -3.9766449988537528e-01 7.1353132798557678e-02
      5.1323263890624615e-01 8.2810105842148540e-02
      1.5158504648397694e-01 -2.3027739802871650e+00
      -6.9808955269242878e-01 2.4309056493038182e-02
      -1.4422344415524027e+00 -8.4431546537214151e-03
      2.5783739985931969e-01 3.0216936821958196e-02
      1.8949168117996373e-01 -2.8549279827760204e-01
      2.5343857994298689e+00 -7.8436911821296107e-01
      -6.1305579127809950e-01 -7.8155618869726717e-01
      -1.8271784651105513e-01 -1.3588811374631748e-01
      1.0026607788622923e+00 4.6789361159747905e-01
      -1.5909641441902353e-01 -5.9964508471440947e-01
      3.2411759208313331e+00 8.3800304136786727e-02
      1.2100924777798061e-01 4.8023496649014848e-02
      1.3849611123658542e-01 1.0165237968037712e-01
      -6.9839587488508703e-01 -3.4910639292361906e-01
      -8.2258707169469477e-03 -5.0180146624758426e-01
      4.6879284244720659e-01 -3.3328868942985274e-01
      -1.0130642944246736e-01 -5.4938204448058348e-01
      -7.9264809035048900e-02 5.6970144779677290e-01
      -3.5065274254591294e-01 1.5730694917803434e-01
      -2.9867279194614493e-01 1.9230310168288303e-01
      1.0617309953246674e+00 1.0262894571939609e+00
      1.5842005951277491e+00 5.8277428779188289e-01
      1.4992662540371590e-01 3.8026998371831311e-01
      7.8438141379456405e-01 8.9467822829259858e-01
      2.6193314221254055e-01 -2.1353553061658884e-01
      3.9830878916548657e-01 2.2521825348661206e-01
      -3.8216858398198827e-01 -5.2917599720541952e-01
      -5.9405071420725686e-01 -4.1809746984581786e-01
      -1.6864319302081670e+00 3.9416653914605526e-01
      -1.0410699776333241e+00 -3.2231886898800119e-02
      -4.2139088873580244e-01 -1.4871873929340835e+00
      7.5548546083605472e-01 -7.4573205677821919e-01
      -2.3257668836574966e-01 -2.6185018967947206e-02
      -3.5141663995900035e-01 2.1913130763251587e-01
      5.9598911313441794e-01 -6.2189375793806034e-01
      1.0706993235922613e+00 1.0147272979724358e+00
      -7.1618972325828423e-02 -5.5191748905879334e-01
      -1.2089072329807855e+00 4.6289753778017290e-01
      -9.5868211633061395e-01 2.2451833290051888e+00
      -7.5327259863152263e-01 1.4792213429411170e+00
      3.2955773035173441e-01 4.6100871399461291e-01
      -2.3000393729445198e-01 1.0167143431059851e+00
      1.3972304677990377e-01 -1.9929160257182166e+00
      1.0056231583122412e-01 4.2363426410164923e-01
      6.5581730357566215e-01 5.3555481278708095e-01
      -4.7370343838269058e-01 2.6263512280381784e-01
      -3.8346153404700101e-01 -2.3933408733152328e-01
      3.5633333860206318e-01 2.5353804099726435e-01
      6.4274320872550617e-01 4.8072116279430688e-01
      -4.6627828062998911e-01 -3.3007162560516523e-01
      1.9823318044023969e-01 1.6324897566682097e+00
      -1.7650388083205664e+00 -2.4573678408568644e-01
      4.0932961836334214e-01 -8.6442673007244522e-02
      3.0143225523442002e-01 1.4684729816112538e-01
      -3.6713781471546963e-01 -5.8935040436820119e-01
      1.4694936119345610e+00 7.2058163157873700e-01
      5.8994149498666526e-01 3.2629060128157450e-01
      1.3322759879444790e+00 -4.6318386940818058e-02
      3.2319112518310955e-01 2.7696233527983188e-01
      4.3324195348779748e-01 2.4344451362252839e-01
      2.2876977427022793e+00 7.2942835234923109e-01
      -5.0315007277938140e-01 8.7507576828714217e-01
      -3.0024663874140496e-02 -1.0471607979013975e-01
      -3.3315614552988465e-01 -8.8428123404320114e-01
      -1.2722987068565810e+00 6.5807389597139698e-01
      -1.2398533971026107e+00 -2.9679934144819015e-01
      -3.9182199882048865e-02 -1.2733510883116136e-01
      -5.4341643936178319e-01 -4.7880319510697922e-01
      -6.9413747636532130e-01 6.5842056405118610e-01
      2.1224850658813338e-01 6.8375995216925167e-01
      1.2926426529994937e+00 -1.7733146093433491e-01
      -2.3609726128081934e-01 3.3278545504532792e-01
      -7.4960934794597467e-01 -3.9599979482165043e-01
      -9.5049122425264010e-01 7.5350292647222161e-01
      9.6128254816200498e-01 -1.5601281857940458e-01
      8.7290567150070963e-01 5.2522419896109507e-01
      -3.5756708846308341e-02 8.2499241899976272e-01
      1.9913721898861862e-02 1.1386884413337397e+00
      -7.5170346271224431e-01 -4.8047347140126073e-01
      -3.0700028490383935e-01 3.6116311759431202e-01
      -2.9538927988915054e-01 9.8684419424370851e-01
      1.9158740364037538e-01 -1.9748752128208436e-01
      5.6183363967646516e-01 -3.9223495137212228e-01
      4.8592325855388335e-02 4.0141849709377148e-02
      -1.5376365414811671e-01 5.6991689342562823e-01
      1.3688015397944973e+00 1.9841702412970206e+00
      2.5420749247481417e-01 4.1288480146730339e-01
      -5.9804169938635210e-01 3.6726621877808879e-01
      1.1570732394996906e-01 -9.3968870593444956e-02
      -1.8177257421448589e+00 5.8707439613813572e-01
      4.2695322984508510e-01 -8.4120424044281172e-01
      1.4917847817167535e+00 9.9233016944092833e-01
      -3.8552032234245687e-01 4.2972313254219124e-01
      -4.3131149043947958e-01 3.0226220041141399e-01
      1.6199583579004187e-01 -4.1625318325810656e-01
      -1.3110343568378699e-01 -4.7813480879774156e-01
      -6.2356562156458861e-01 -1.9720536259826874e-01
      -3.8592984458463647e-01 -6.9576768685447377e-01
      -1.3487621637965481e+00 -7.3114030576163813e-01
      -2.9552157589874684e-01 8.1064746871830726e-02
      3.7660369897339835e-01 1.2894580601520006e-01
      2.5669574345337742e-01 8.5703642483066483e-03
      -5.4635989312947164e-02 -6.2060205527651258e-01
      2.2316229684653668e+00 -6.5825348455642529e-01
      3.8946255650040107e-01 -6.5909007203371561e-01
      2.1542791683622040e+00 -2.1843597744191995e-01
      3.0999920879065834e-01 -3.3551530144227382e-01
      -3.4828880837512444e-01 5.3112528794822245e-01
      1.3596521167897684e+00 4.9976452977929636e-01
      -3.4059144341391612e-01 9.0325534205953195e-01
      2.2039967737207804e+00 -2.6273302802335313e-01
      -1.9706135023542914e-03 -3.9728230930344327e-01
      1.2616149505837565e-01 3.0505898720347252e-01
      -1.6998446671561193e-01 -2.5348115631177809e-01
      -5.5197520504122011e-01 -3.5119451111403172e-01
      -4.9285975247315472e-01 -2.3271450757839988e-02
      -4.5231252819748052e-01 3.8460718546316185e-02
      -1.3565597615368896e-01 2.1134932082940930e-01
      2.0183695429505485e-01 -1.9295791160437720e-01
      1.4689498653928479e-01 -9.3367635457561174e-02
      1.8238335418514631e-01 6.6840055407037702e-01
      2.1685966461067414e+00 6.5944158472334169e-01
      -1.3600510980758004e-01 9.9211684131064093e-01
      8.1234765000832554e-01 -3.5867712303601351e-01
      -1.7567018501477982e-01 5.2943030705533044e-02
      1.2198921342269373e+00 6.4628258677544825e-01
      9.1048873836207966e-01 -2.1862730347982640e-01
      -5.4417588631327873e-01 -7.5939152040967595e-01
      -1.4493822922262702e+00 5.5703362302604649e-02
      1.9859417328264767e-01 -1.9240410641046565e-01
      -2.4917516361605443e-01 -1.4192605001491381e+00
      6.0072359483204896e-01 -9.4623944433698071e-01
      1.8249181291063207e-01 3.0648256472628806e-02
      -3.2850800604037894e-01 -2.3553104758618940e-01
      -6.8406275449228907e-02 -6.6154006189521483e-02
      9.6935142914821926e-01 5.1128579603809107e-02
      3.1093146247060013e-02 -1.7670617672234515e-01
      -9.2341923373926227e-01 7.6318479480677756e-02
      -5.5696384871158544e-01 6.3670358119483927e-01
      -1.1384877948994949e+00 1.1461170133900849e+00
      3.3329816206989375e-02 2.8988690499824571e-01
      3.5757216944057445e-02 2.6970590102488257e-01
      -2.7904629464141556e-01 -2.0225287692528369e+00
      8.3383498198437295e-02 1.6730119228525855e-01
      7.1799924174839846e-01 3.3639394913187104e-01
      -6.2555356739610180e-01 6.6932359425831534e-02
      -4.2249302346987588e-01 -4.8637286708186050e-01
      2.5650376933020963e-01 6.0741519958106027e-01
      4.7600864418692346e-01 3.8013918395857982e-01
      -3.5304232956335863e-01 -3.9950219748149307e-01
      -3.2349651791079265e-02 5.0813752203337359e-01
      -1.6387327811562398e+00 -5.8363942434257821e-01
      4.5894752703706088e-01 -4.5579206076055513e-02
      -8.4133108349876895e-01 1.7864544857050518e-01
      9.6690728990000002e-02 -2.0727512876930540e-01
      1.1619081998000731e+00 1.1441823170258746e-01
      1.4804830522643134e-01 2.1469674291421945e-01
      1.2406551929409613e+00 -1.9822443431072524e-02
      2.1609670755956650e-01 1.5723760415383772e-01
      1.0668256350443864e-01 1.1114942710090175e-01
      -2.8643764497110180e-01 1.4598247139492558e-02
      -3.6583145957139135e-01 8.6933421976253367e-01
      -2.0737662320535280e-01 -8.3685302777768811e-02
      1.5738727776141440e-01 -7.3701478342578797e-01
      -1.3190926704700281e+00 1.7118001060167487e-01
      -1.3344370429799784e-01 -1.4261374080194172e-01
      4.8091599320973016e-01 -2.2031527598414333e-01
      -2.1798260371301392e-01 3.1021745528049122e-01
      -2.4127826883170697e-01 7.4659605544969565e-01
      -4.4895876390916750e-01 4.5856245491368008e-01
      1.3058393232857008e+00 -4.4270148569880347e-01
      -1.7075702047019270e+00 -6.2651703795163349e-01
      -1.0469645944221347e-01 -5.8043009942768331e-01
      -1.0776002404954572e+00 6.9387583068270653e-01
      6.0752880527769459e-01 -9.5637749419586027e-02
      -1.3495926461396899e+00 -5.9379347623049483e-01
      5.5221747954159739e-02 6.6999795846025467e-01
      2.1210017062095643e-01 7.7167110427827490e-01
      7.0662734980577191e-01 -1.4183428134805140e-01
      -2.7067906725789481e-01 -5.5287148148573549e-03
      6.2576141668948260e-01 1.2891622987200064e+00
      -6.1989871520723694e-01 8.4398681370094664e-01
      4.3949576543457491e-01 5.0122427546442794e-01
      2.8004191305357851e-01 -3.0735639334079273e-01
      1.4490892391511528e-01 1.5415681256002348e-01
      -7.4487662364576068e-01 1.2213704712745024e+00
      -4.2830378897829191e-01 2.0990088763684300e-01
      7.7726491351439819e-01 9.1693448890048357e-01
      4.3576300996801010e-01 -3.3794858135078648e-01
      4.6941578274779833e-01 -1.0788819257829341e+00
      -4.8012255526534015e-02 -3.7863649849728837e-01
      1.7382675363469342e+00 -7.4895279820631253e-02
      -4.8440265452573850e-02 1.6261105238350182e+00
      -8.9088280937141134e-02 8.1839913555586730e-02
      -8.3883057708636422e-01 7.1691304008494661e-01
      -1.3353372961961521e-01 -1.9436991509562369e+00
      -2.3983676498150093e-03 5.5981432043111812e-01
      1.3392953300864057e-02 -9.3023778490511189e-01
      -5.6250166733432161e-01 -5.6427559298736785e-01
      4.2650991386327780e-01 -2.0368460656900989e-01
      -1.1597349271609776e-01 -6.0947829731346692e-01
      1.5215183852957115e+00 -1.1601455420588336e-01
      -4.1811729878996673e-01 -4.4733615693683204e-01
      1.1058359114914014e+00 -1.7254295221054658e-01
      -5.2330843907805336e-01 -6.4782281143137221e-02
      -5.9509124549977033e-01 -3.0904864283770089e-01
      4.4209099808579366e-01 2.6674871399118800e-02
      -7.5020097906844507e-01 3.9038493178292416e-01
      9.9159531443988799e-02 1.6793179456872845e-01
      -1.3724914849943004e-01 -7.5693933074045358e-02
      -5.7911729486829355e-01 -9.6841896264194482e-02
      2.9597686140279850e-01 -3.0837173065734363e-01
      -3.9127172919642024e-02 -4.1990419646656174e-01
      3.0231306441789402e-01 -6.7526801784677029e-02
      3.2207866084141296e-01 4.3810892572236346e-02
      5.3436688849105747e-03 -1.2933595211442608e-01
      1.0503267391713653e-01 -1.3866950891014532e-01
      1.5002941341769743e-01 -2.3427313573971051e-01
      -1.9773554764197432e-01 -1.2118824677039959e-01
      4.5816286145421559e-01 3.8983122792322961e-01
      -2.1237487906563896e-01 -2.8078449817166640e-01
      -1.3090308962484805e+00 -5.0273170142312194e-03
      -1.2213337612078193e-01 -4.3574668535006533e-01
      -4.9572658846274736e-01 -2.3898031805315556e-01
      -2.5317875582409444e-01 3.4175182452734564e-02
      -3.1561148107515113e-01 4.2834896723729539e-02
      5.0748719958520448e-02 1.0157460325258252e-01
      4.4030311644752540e-01 -1.7442637052844803e-01
      2.5258888348633685e-01 1.2293341266280008e-01
      -1.8491312465554907e-01 1.3166933208633275e-03
      3.9101807604128413e-01 3.6432366829751600e-01
      -3.7744585046652362e-01 6.9540654806898115e-03
      1.6569789573028423e-01 -2.7248916669400891e-01
      1.4261896187001699e-01 2.5811978167330929e-01
      -8.0572727659802479e-01 5.9235489899792715e-01
      -4.0451902596952044e-01 -3.8442900726252160e-01
      -2.5969447228909270e-01 -3.7095966222736254e-02
      2.0906995609984877e-01 -5.2009091128512042e-02
      3.3513088914809103e-01 -1.0433452022645038e+00
      -2.2343123647785647e-02 -6.7955010858874365e-01
      -1.1958292946343035e-01 -3.0483155800406808e-01
      -4.2278019344041884e-01 -9.2449349695933336e-01
      5.8442953656955419e-02 1.3103473878329164e+00
      1.8889255931854990e-01 -4.7741356706770061e-01
      -1.6486822952911073e-01 4.6373788853703229e-01
      4.7968896917783654e-01 -1.9858762533569604e-01
      8.2685849408600298e-02 2.2561674648227462e-01
      -1.5524539279652561e-01 6.0875646878086685e-02
      1.2461766953267553e-01 2.8109720535752274e-02
      7.0314866402924203e-01 -2.5526288413610815e-01
      -1.2158019121396094e-01 7.3596247038458995e-01
      -2.9257939616475509e-01 1.5220905534315127e-01
      5.6417221911250959e-01 2.6862346171472362e-01
      3.4976346602103364e-01 8.9567202451168379e-02
      -2.1538928931553472e-02 5.6581030322051007e-01
      -3.3765370440545828e-01 -8.6039757368079450e-02
      -4.2180128678222108e-02 2.7366531582545922e-01
      -9.6616762532535716e-01 -7.3027340679155561e-02
      -1.7801387477349756e-01 1.5699664950207098e-01
      5.5030425241997680e-02 -2.0069647324729939e-01
      -1.7376798285564448e+00 -1.3146633924958487e-01
      -4.0552302226779836e-02 -1.0602013588377660e-01
      7.8926046307074796e-02 9.2000455565936265e-02
      2.4693791394185208e-01 2.5230206846497183e-01
      1.8577233834825327e-01 2.8267932377384088e-02
      3.4509983710138492e-01 -3.6879315984711543e-03
      2.0959441690414218e-01 6.4555153917599348e-02
      3.4136916858730709e-01 1.9968274807342035e-01
      -3.0294082889946918e-02 2.2160672338776232e-02
      -5.2513410278997403e-03 -1.6567818039143076e-01
      -2.9197388248818151e-01 3.4441494274978396e-01
      3.6908346009459470e-01 7.5915687644845020e-01
      4.1284269985334959e-01 -1.5465707644327531e-01
      -2.2461295558600686e-02 1.8075710084567456e+00
      1.9174470903606441e-01 5.9670701716927543e-03
      -3.8824173796495615e-01 -1.4114189883535242e-02
      3.2337054531260546e-02 -1.0410557200431360e-01
      -8.4726252072179797e-01 -5.2749675315983169e-01
      -5.4059452555268672e-01 1.6324088359950598e-01
      1.3315205812610498e-01 6.6521913182597758e-02
      -4.7005196068724964e-01 -2.1113975949194849e-01
      -6.0254011913065432e-03 -1.5053901686700930e-01
      -2.6136875556037513e-03 -5.8995694305363968e-03
      -4.1431845367181031e-02 -1.1392666442779711e-01
      4.6315077397226284e-01 7.9372956005713549e-02
      7.6344551802498439e-02 6.7537617070798570e-02
      -9.2917613522996555e-03 -1.4326989076844804e-01
      3.8841591027877287e-01 4.3005993584965491e-01
      -1.0183019564921188e-01 1.7714830585266026e+00
      4.6302617560551990e-01 -1.5732574711472294e-01
      3.8078716466718465e-01 -5.9783294564180654e-02
      -2.8605206176262010e-01 -1.3984770721791337e-01
      1.5380329543906995e-01 -5.7340003017462816e-02
      2.5416043295114754e-01 -6.3168054319283629e-02
      4.2572430835028313e-01 -6.3295284206864311e-01
      -3.6253570100214211e-02 1.3029499217180311e+00
      8.4506586998313676e-02 -2.6486768450226372e-01
      -1.3305933919772212e-01 -7.0276877174596464e-02
      -1.4510871125668523e-01 8.8713740352004536e-02
      -1.1894075484308834e-01 -6.9384370486348523e-01
      3.4525381273472622e-01 -3.6624563170533936e-01
      9.0955466393391568e-02 -1.8862914358275645e-01
      -1.0894824734258969e-01 1.6422243872368916e-01
      -3.4121186596136762e-03 4.8167950688927253e-03
      -2.9553669997733227e-02 -8.5611648924918488e-02
      -5.0513096538334123e-01 3.1995779744672903e-01
      2.4083429173662660e-01 -2.9345373160207278e-01
      6.0053979228429977e-01 -1.3071812637227695e-01
      3.0674163389733451e-02 -1.8595891870475365e-01
      2.1250652380774784e-01 -6.3878319787691609e-02
      -3.9315531218371730e-01 -3.6537253079755505e-01
      -5.5982970331203058e-02 2.1315970041857527e-01
      -9.7973727182577186e-02 -5.8721988487195065e-01
      1.3778695036617727e-01 -2.8795045970894750e-01
      -3.6305739423941663e-01 -3.0358651506398515e-01
      6.6152820336788945e-02 1.7289962230436268e-01
      4.0696427172729110e-01 -7.6486617021842646e-02
      1.2506861579634582e-01 2.8345391310025420e-01
      -7.2178537998517603e-02 -7.4626443878772064e-01
      5.8240025151199915e-01 -5.7563785675002255e-01
      1.3351668568077975e+00 -1.4085702531511463e-01
      7.6838071375453298e-01 4.1437975944038974e-02
      2.4348032007971834e-01 1.9472225597333992e-01
      1.1436592135228411e-01 8.8801113791710151e-01
      -3.0451242458677347e-01 -1.0303055147979395e-01
      -4.0255897773077226e-01 1.0154536451193671e-02
      5.6762887854895427e-01 1.7342022953826633e-01
      1.5540754890896893e-01 -1.0244676849080756e+00
      -9.3637063572998558e-01 -9.6400722390787508e-02
      1.8603643149975854e-01 -4.1766865465000991e-01
      4.0482539483029067e-01 -8.3607509553239456e-01
      4.3173817250550522e-01 -6.7101236459952396e-01
      -2.3478973580996104e-01 4.3257803061277640e-02
      -8.3775287022121572e-02 3.7329353237304824e-02
      -1.3595054474135873e-01 1.8730979729988476e-01
      -3.6255073138000395e-02 6.1322473633348043e-02
      -2.6839754607381788e-01 2.1595218105841307e-01
      3.2904477934163678e-02 -1.1758856453130888e-01
      -3.1099413145520338e-01 7.2303636910394486e-01
      2.1037994299296070e-01 2.5490797966630275e-02
      -3.2506926467147715e-02 1.9304746947740764e-01
      5.0635362405101791e-01 -2.1268212210672616e-01
      1.3203150195362954e-02 -1.5059896549255461e-01
      1.5285584331218785e-01 -4.1733944946861423e-01
      2.5735053720779089e-01 9.2491537734770068e-01
      -8.2079276226004338e-01 8.7289804242689650e-01
      -6.3251737064626778e-02 7.3501211809330003e-02
      2.8342240534311469e-01 7.0420556730701578e-01
      1.3885904007763004e+00 -2.0063775846030327e-01
      -1.9592182487896811e-01 -8.0156423732856630e-01
      -3.6227190509342554e-02 -3.6595726701801695e-02
      2.5217907789386484e-01 3.0857604349482759e-02
      1.3278028061840224e+00 3.4869505902719738e-01
      -5.9289884452486130e-01 4.1832020638157058e-01
      -3.3800227013154027e-01 -7.6476503960400871e-02
      -1.9323260029705031e-01 -2.2425237223102565e-01
      4.8571589036077847e-02 4.0742425315562808e-01
      2.6658055671263314e-01 -1.0191313114589611e+00
      -6.9434473259456075e-01 -1.0917508382572597e-01
      1.9272168682983026e-01 2.8999929841188371e-01
      9.5215296189077869e-02 1.2968778011051604e-01
      3.1791669001788131e-01 2.5600724462539838e-02
      1.1415304494622369e-01 3.0363836522185755e-01
      -6.9956978130071901e-02 -6.5979473301786634e-02
      1.5290782834835903e-02 3.3194666967985198e-01
      -1.0460098659487026e-01 -3.1847426550682869e-03
      -4.1724782400707094e-01 2.9327941931406420e-01
      -3.6627374815140501e-01 -3.1208266379892341e-01
      8.4535286552518366e-02 1.3544074821200433e-01
      1.6222453744103613e-02 -1.5911241842606774e-01
      -1.0157242681600405e+00 1.5822931359811842e-02
      2.9716961816798609e-01 1.0245614761457258e+00
      -5.6660705120796162e-01 -9.4700444363984282e-02
      1.8505645005546939e-01 1.6231481922168470e-01
      -2.0997248845333200e-01 -1.1325278267733890e-01
      -1.7490952959140366e-01 1.4872272237594772e-01
      -1.5599048164899838e+00 -5.2539214675369128e-01
      -9.9461316309726999e-01 -4.2551027693411558e-01
      -3.3916274201326752e-01 3.7127834636100504e-01
      -3.9979210318511677e-01 4.5133351587899984e-01
      -2.7179784521727623e-01 -3.5132461490482136e-01
      -1.3399515656734989e-01 -5.5601590749621699e-01
      -1.3870872121664712e-01 -5.7350589546915542e-01
      -7.0171898792341883e-02 1.0215971214919421e-01
      -5.4939266449620738e-01 -2.6035875844235912e-01
      5.6507025030277924e-01 -7.3104601665534757e-02
      4.2947983264457845e-01 1.5634804593351348e-01
      1.6312691925481448e-01 -3.9657163902100895e-01
      -7.1321684840332487e-03 1.5346135815749165e+00
      -9.3010945166072001e-02 5.9289905161266421e-01
      -3.2363788139107791e-01 -1.4361040479029022e-01
      -9.9559998017421492e-02 8.2802072773760768e-02
      -6.9788982916741349e-02 -3.9742926035017623e-01
      -2.3815338004618064e-01 -8.9553991659658688e-02
      -7.4136313062135895e-01 -1.2278292876647252e+00
      3.9703085640026842e-01 1.2845636964675855e-01
      4.8118788575724158e-02 -4.3364434633212462e-01
      -2.0926943502494222e-01 4.4696600144939003e-01
      -8.8955515761688542e-01 4.3464255285285069e-01
      4.2545796503533573e-02 3.5307446508623425e-01
      -1.1028403504682750e-01 -3.1487474104786542e-02
      5.3900115385246125e-02 5.3833397870134005e-02
      -2.4156188775217638e-01 -5.7628185030601936e-02
      2.3904770321278057e-01 -2.3626708930326958e-03
      5.7192432132071724e-01 -1.6496230954618288e-01
      2.2422928558549515e-01 -1.5246646339488693e-01
      3.6895821586913097e-01 3.1891410425293018e-02
      3.7451026394645826e-01 -9.4822412878957929e-02
      2.3176163109171866e-01 -1.9347315887464897e-01
      1.9653328055690295e-01 3.2510534906360716e-01
      1.9815626261990998e-01 1.5593374666376195e-01
      2.1248124050242004e-01 -5.0381415698667276e-01
      -3.4702750817205343e-02 -4.6595996547286794e-01
      2.4537155161312171e-01 2.3598765287402071e-01
      2.9005170828514887e-01 2.8226800239172284e-01
      -2.3603773255258734e-01 2.0842847903412509e-01
      -4.1035020114925186e-01 -2.8476695916668954e-01
      9.3771979691686921e-02 -2.1890747787375733e-01
      -9.7928006595651262e-02 8.8937846274920920e-02
      1.4805606669851246e-01 -2.8455815556658692e-01
      -2.5473419093920657e-01 -3.5157262529930670e-02
      -2.0245172861206986e-01 -2.8151583846968681e-01
      -1.1123173140344454e-01 -2.0337078101552417e-01
      1.6071473179518719e-02 -1.2778468386126469e+00
      -1.0197609569840325e-01 3.0297685912715800e-02
      5.2737097862903337e-01 -9.7155087064566881e-02
      1.2669071781321393e+00 2.3406950426267201e-01
      1.0715232908737446e+00 -5.9561107202011798e-01
      4.7783516738740794e-01 6.6057272268491202e-02
      3.8366628133642616e-01 1.7856750357640888e-01
      3.1066741506818196e-01 -1.1483221058132415e-01
      7.3811444794908226e-02 3.2062695313935929e-01
      -4.8919537576165219e-02 9.9590824152210919e-02
      -9.6895821757825851e-02 3.1525658142340512e-01
      1.0807754944485687e-02 3.0929197461801128e-01
      2.5669585515576065e-01 -1.6610263545857010e-01
      -7.0776569786816707e-02 -4.4380074121516911e-03
      1.3209574719459519e-01 -2.6485213504476557e-01
      -2.6065241491447783e-01 4.8205396734889927e-01
      -3.9745225848167820e-01 -1.0816928326518561e-01
      -2.3039614683696821e-01 -3.5780772959028295e-01
      -1.7036723166240270e-01 -1.4202729307598142e-02
      -2.2281724015484219e-01 5.6415655251215713e-01
      2.0633312080362384e-01 -2.3743542642024485e-02
      8.1092345320369075e-02 -4.9600386990570877e-01
      2.1964865198130781e-01 2.6456406645134354e-02
      -4.6326464209189927e-02 6.7363181207367756e-02
      -1.0752770480200330e-01 -2.7223908643983302e-01
      -2.0804751957351572e-01 2.3589012402599083e-01
      1.3033864656599468e-02 -5.0214679128291639e-01
      9.3994190229333904e-02 1.3192091714039311e+00
      1.4017018553170691e-02 2.3257319598569554e-01
      -6.5530732769536293e-01 3.2857784996380857e-01
      1.8385941653724842e-03 3.4193821848581030e-01
      1.9144137214114582e-01 3.1454902607023782e-01
      3.5541488326283294e-01 -1.6287913975494714e-01
      -2.6768640865629606e-01 -1.1606856603837630e-01
      -1.4115535090568687e-01 -1.2174902968790463e-01
      -4.9739205861854797e-02 -1.5336150673017185e-01
      -1.7583620206218076e-01 1.6230853570049025e-01
      -1.5496935840375095e-01 8.0923503163909213e-02
      2.9797203290756191e-02 2.6624767013854916e-01
      -1.9744439273375619e-01 7.3644942843783562e-02
      -3.8286496761011202e-02 -3.2914824515781033e-01
      -6.0380392141654982e-01 2.9154016402499888e-01
      1.3873504405408535e-01 -1.2723386789052793e-01
      2.4960346443328993e-01 2.2932233933119117e-01
      1.1182150832814675e-01 -2.8680070529223928e-01
      -3.5757271491816306e-01 5.9999057017299340e-01
      9.9238496426304085e-02 2.9438145075940780e-01
      8.5958068106951913e-01 -5.8638090946466803e-01
      -5.9862481703480608e-01 -1.5455790694735945e-02
      -5.0554695905274533e-02 -1.7801732012950605e-01
      -5.4030222834289299e-01 -2.0946884373295596e-01
      3.3087504798368569e-02 -1.7282782412232972e-01
      -5.8004055867534399e-01 -2.5435371670635887e-01
      -3.3007494155727080e-01 -1.1249141853959489e-01
      3.6055508054616536e-01 5.2209406800997012e-02
      3.7959981910444013e-01 5.0090326442913995e-02
      -2.7481467167974203e-02 9.1431956025617211e-02
      2.0939178642373593e-01 5.9741144962063741e-01
      -2.6033084903758559e-02 5.4147484218644704e-01
      -1.3466825120155318e-01 1.2485370562676502e-01
      -1.7453197479132410e-01 -2.8702234644393759e-01
      3.9852850732352263e-01 2.4270424866552462e-01
      -1.1943808980707708e-01 7.0552748945782118e-01
      1.3189972783531395e-02 -3.0022258108259165e-02
      3.0939457406190146e-01 8.0240890742122728e-01
      1.1488616320233561e-01 -4.5317457201472261e-01
      1.6714843863312695e-01 -4.4974405330543160e-01
      2.0438154503823322e-01 -3.1350451666352963e-01
      6.1161728126442494e-02 6.1870004926356414e-02
      -9.7464764280024194e-02 6.5004267875781696e-01
      -1.9301848801729068e-01 -6.4040024559745314e-04
      -1.5623257032659846e-01 -7.7997382742559385e-01
      3.7433647962655686e-01 -5.9808597155494270e-01
      -1.8300137285685841e-01 -1.1347845594549884e-01
      -3.5491012340552019e-01 -4.4609778164899361e-01
      -5.6458912836271546e-01 -1.9441591116729109e-01
      1.0686383930733295e-01 -1.0207998949223283e-01
      1.6275284388471314e-01 -3.5215771140945312e-01
      5.3799293314257268e-01 2.3657279070620965e-01
      2.1345707427740224e-02 8.8951152637093786e-02
      9.2448113804052945e-01 -2.8178397845920389e-01
      1.0501873422121207e-04 -3.6161594662162150e-01
      -1.3135329411883465e-01 3.4090651334796867e-03
      4.1488641143836702e-01 6.6529191886365246e-02
      -3.1101043783379279e-01 -7.0668010513764395e-02
      -6.1634242792926473e-02 -2.3967271170920654e-01
      -1.2876659481235878e-02 1.9656701615844505e-01
      -8.2494584035731691e-02 1.8987805679874137e-01
      1.9294223864108054e-01 -1.4628841798045913e-01
      -3.2468315082003062e-02 -1.9433383982333846e-01
      -6.8934053922184907e-02 2.6812227721066301e-01
      2.1689020082142996e-01 3.7338320699931266e-01
      1.0959072410816174e-01 6.9548038820993197e-02
      -1.0967277375276006e-01 1.2500908115224665e-01
      2.2763698414073169e-01 -1.6380679333303175e-01
      6.8892339151907137e-02 -2.2740881885104214e-01
      -1.4593033457424319e-02 -5.2974594608155560e-02
      -9.2641676881247104e-01 -4.2522842676635658e-01
      -3.2694093135494234e-01 9.0029791567894546e-01
      -1.5891146476696927e-01 6.1455167390274006e-02
      -2.4633731870702424e-01 3.2105338049010651e-01
      -3.6992963754887608e-02 2.3411218287920244e-01
      1.8374349008599900e-01 1.7252397506170464e-01
      -4.6883650229875834e-01 2.9629843555382751e-01
      -3.4439188228694212e-01 5.3601286026096387e-02
      6.7004615434618298e-01 -4.1309845601295136e-02
      1.7187083226350075e-01 4.6720303169816096e-02
      1.8931071972969571e-01 3.8453015269298965e-02
      -8.9931757621924513e-02 2.6410862991703526e-01
      3.3873264230054961e-02 -2.4865294372011926e-01
      -7.3963873808452804e-02 -8.1049516462925575e-02
      -2.2768985744658402e-01 5.3267357925474226e-02
      -1.4804176990983131e-01 1.0688907484219889e-01
      2.1249545954836149e-01 5.3423259390048966e-02
      1.3924792015851251e-01 -2.0033421924602429e-01
      2.3555510681001585e-01 -2.9360149160794780e-01
      3.0642806607460464e-04 -1.9835879814553181e-01
      -1.8573421447014837e-01 -1.7166109896472059e-01
      -2.2212106229573955e-01 -1.1992410653509657e-01
      -6.4099612128928771e-02 5.4926195171862291e-01
      5.7012187827057727e-03 -1.9276939774576850e-02
      -4.9263858091283469e-01 -8.7431215708224108e-01
      7.3126340970174328e-02 2.5929562436851894e-01
      2.8799909528256645e-02 2.1736499033662612e-01
      -1.9101919763724243e-01 2.9343353159093078e-02
      2.2946875999585734e-01 7.3225745371685901e-03
      3.2333987256321067e-01 1.2722264420427129e-01
      9.5685959952466007e-04 2.1431683514599315e-01
      3.8860026971591133e-01 -1.6327226468336464e-01
      -1.2315339899487682e-01 9.0352603632537540e-02
      -5.8097971471935206e-01 -5.0740090430532542e-02
      6.1227750435086395e-02 3.1300462229523474e-01
      9.3503556700739676e-02 -3.7695421348913336e-02
      -2.2569630548470790e-01 -1.4132932255278852e-01
      -2.5517605891250389e-01 -1.0002821575885593e-01
      7.0510244936986086e-02 1.5445716180651022e-02
      1.8840307332644336e-02 -1.9216681261440766e-01
      3.1611229951215564e-01 1.3672791435393628e-01
      7.3001818983265861e-03 2.2773286843544494e-01
      -1.2321233882251961e-01 -5.1635709208393846e-02
      -2.9328732688770114e-02 -1.2510568297934085e-01
      2.2208058940793071e-01 2.8235803372166973e-01
      -3.3085504276095345e-01 -1.7623876361996449e-01
      -5.6521697003999283e-02 -6.6604239739923493e-02
      5.8463145043579821e-02 -6.1228456217636312e-02
      6.2746284713172992e-02 9.2700168956835458e-02
      -7.6865857811586558e-02 1.9987163749965894e-01
      2.9836343904793644e-01 2.2000895719115429e-01
      -1.4118617152502408e-01 -5.6050793926121734e-01
      -1.7419197884886919e-01 1.2226458547540675e-01
      4.9335196198241470e-02 -1.9924936250475991e-01
      1.3660311854579093e-02 3.9836165411867790e-02
      -2.9569483687577791e-01 -2.7084761059592995e-03
      2.7894764184785831e-02 7.6667561469639225e-02
      1.2489720834555791e-01 1.0369307171806261e-02
      -3.2678912891192458e-01 -2.4133790884165118e-02
      8.9148400584109846e-03 1.8848768688972073e-01
      8.7791188075029267e-02 -8.4532781142573579e-02
      -7.1416700935398272e-02 1.3925019317349213e-01
      1.8293719131336433e-01 9.7467487441945888e-01
      5.5233083341130043e-02 -2.6639855664090900e-01
      7.0356124457211192e-02 4.0427087244057566e-02
      -1.1793754325059096e-01 -2.3594269887803068e-01
      -1.6465428422591502e-01 7.7814158718116394e-02
      6.2331194967134226e-02 -8.4586561107094366e-02
      -5.6675224391870081e-02 -4.6518153678346857e-01
      -2.4171958794000561e-01 -1.9802795453647978e-02
      -1.0838756299891293e-01 -1.1520261977541674e-01
      3.1409200990002367e-01 5.3189920905470894e-02
      1.4721622214179828e-01 -7.5502684504276038e-02
      1.1163661488567711e-01 -5.0505809389777043e-02
      3.2779923927854765e-01 -4.8314514619515980e-01
      4.7520708146571312e-02 -2.6897991519484787e-01
      8.9823904097675225e-02 1.9049018281049098e-02
      2.7048973445617391e-01 -5.5327180436179527e-02
      9.4580023383213937e-05 -2.0771235231293286e-01
      1.3726959624289595e-01 3.5727278002354401e-01
      -7.5319910908421508e-02 8.0158077151872675e-02
      6.0268428752445979e-01 -9.9835838117724902e-03
      -2.1196550858503710e-01 -1.3126145668469102e-01
      1.2243787103889436e-02 -5.5353373004388057e-02
      1.3558180400352432e-01 2.2894139104966271e-01
      1.6824002069069824e-01 5.3871878975449344e-02
      1.1300653878450364e-02 -1.2925346907334019e-02
      -1.5794791097089162e-02 3.1060481433106313e-01
      3.1246181098152559e-01 3.4925537458381777e-02
      1.6877894969638306e-03 -2.2251913635556628e-01
      -1.1672792426681042e+00 3.8973494533771129e-02
      -8.5546483989407535e-02 -2.0238809381402370e-01
      -5.1124192045528601e-02 -8.6661143980658883e-02
      1.4152381759571456e-01 3.2939058770072283e-01
      1.6744035530608495e-01 -7.1424353689501507e-02
      2.7519339783397112e-01 2.4362074751531657e-01
      8.8798107482427432e-02 3.1284202040459941e-01
      1.7225793299401937e-01 -9.2557491585507565e-02
      2.2038699035357942e-01 -6.3567964521563228e-02
      6.4387433070236783e-02 -4.0960360725773061e-02
      -8.6251396276939196e-01 -7.5985070875819169e-02
      -3.2719691060984019e-01 -2.1249380728678896e-01
      3.4386384267736925e-01 -9.7324799049145996e-02
      1.4913588466191660e-02 -4.1126549037014470e-01
      -2.3800461674634274e-01 2.1119314727527880e-01
      3.7768670784069636e-01 -6.7532172229542008e-04
      1.0754899847252060e+00 1.6895696078832883e-02
      2.4516867773967432e-01 -9.4639935289173568e-02
      3.5946503325266860e-01 -8.8653321956045444e-02
      3.8871940160407521e-02 9.7035355648668817e-02
      -1.2373976698558715e-01 8.1210315473925029e-02
      -1.4611476318715108e-01 2.1016833544125901e-01
      -2.7157815449488632e-02 1.8757500528983909e-02
      -9.8607046373119477e-03 5.6765843912520604e-02
      3.0248975097264885e-02 1.1205035330468707e-01
      -3.8336631944007316e-01 -5.6683368468232964e-01
      7.1493618420878216e-02 -5.4094528032191586e-02
      2.3477123095616886e-01 1.6213289912685092e-01
      5.1919738790404409e-02 -1.5568737875958620e+00
      4.0445351172741939e-01 6.2440886288205398e-02
      5.7374283416991489e-01 1.9199072207065662e-01
      -1.0090677334621971e-01 -6.1630982986773675e-01
      5.4531448227261633e-03 2.0487689093427663e-01
      -3.6424274240950477e-01 -1.8858008841230331e-01
      -2.7242468669915154e-01 -8.3029823151922255e-01
      3.0690921741911792e-02 1.1763300080076670e-01
      2.5411441420967978e-01 1.1343975684873961e-01
      -1.1993173862273004e-01 -3.3250134233817612e-02
      3.3716650435851653e-01 1.1765077232540272e-01
      1.8708862441178942e-01 -1.1246555631046776e-01
      -5.3100685896659061e-02 4.9126563057114891e-01
      4.8846371456555980e-02 -3.5156912707006299e-02
      1.3815867973317197e-01 4.1503650587752183e-01
      -7.3280408852412515e-01 2.8701654319591252e-01
      1.2586059858834522e-01 -3.1151233680928599e-02
      -5.9913731861149533e-01 2.8351102094136049e-02
      -1.5959287159760230e-01 2.5284655921277555e-01
      -7.2969036926551108e-03 4.0920363522710795e-01
      -6.5451265161635341e-01 2.8569574246059253e-02
      -1.1289696653938096e-01 -7.5751908236149773e-02
      2.0555971327619946e-01 -1.9073268880182320e-01
      -1.3169483496002799e-02 -2.2644113259370252e-01
      5.2994460263377534e-03 -1.5184008529669532e-01
      -3.8182311787453252e-02 -2.6461002416712211e-02
      -6.0828732910238492e-01 -1.7493640867952687e-01
      8.8295205842447488e-02 2.3765697009169148e-01
      -2.8124204474407261e-01 6.0873292263030603e-03
      2.2881843509723576e-01 1.2057026984134168e-01
      1.1945548138740351e-01 2.3283727955669337e-01
      1.1515249670092668e-01 -4.1285404217595481e-02
      3.6847966228746043e-01 6.9065783168705486e-02
      7.0899538646148397e-02 5.1817361828649178e-01
      -3.6615615466206786e-02 3.5828609190445704e-01
      9.0152585126548085e-02 1.6568410926276175e-01
      -2.3419842668123986e-01 -1.6874669670498266e-02
      8.7698076434200606e-02 1.1148141363271335e-02
      -2.7166588505921874e-01 1.2210260442457972e-01
      -1.6216969246389581e-01 4.7049466740024110e-02
      1.7265613246109609e-03 1.6873600370379890e-01
      7.4354845257860847e-02 1.2829144334974643e-01
      1.2035363100117781e-01 -4.9554720915737099e-01
      1.9531978014150431e-01 1.7953530091943570e-01
      -2.2508425255525245e-02 -1.8661631302559792e-01
      5.2113115535013591e-02 -1.3771952896344899e-01
      -1.2602655911712304e-01 1.3096305544459061e-01
      3.8944140369092071e-02 -1.8873083866253165e-01
      -1.7699733851397192e-01 6.5732329439684170e-02
      -4.6603035100386096e-03 1.5802646941376594e-01
      -1.5895815863644069e-01 -2.0432020032151385e-01
      -3.1266415630399530e-01 -1.7888186666572062e-02
      -9.8713036476873600e-02 -6.4366552182008388e-02
      -1.7612354688121329e-01 -1.9087258498982648e-01
      3.5919390253878769e-01 -1.3567664740795382e-01
      6.2912812886910113e-02 -2.6397483403989513e-01
      1.5566468838114792e-03 -2.4155205880919661e-01
      -6.9609835845010501e-02 8.5831228090650150e-02
      -8.3554888477802861e-02 2.1916284093117996e-01
      5.7685653581598294e-02 2.4686046138112683e-01
      3.3603689843047679e-01 -6.6483833315883450e-02
      2.5859705552753320e-01 -2.4083538095016546e-01
      -1.5170697157485996e-01 1.4951362374377952e-01
      2.8154135798330943e-01 -1.5542925141184685e-01
      1.1619178541983742e-01 2.1971836990598753e-01
      -5.3044165907764818e-01 2.1468070641370368e-01
      3.4868849726539135e-02 1.3843416751375789e-01
      2.5269976161200202e-02 -1.6902019468017357e-01
      5.9169215470215045e-02 -1.3697900255267353e-01
      4.8374622357830160e-02 -5.2669540349674304e-01
      -2.2754087988695031e-02 -1.1085268397919300e-01
      -6.3794793503969827e-02 -3.4857022682061289e-01
      4.9174527962201606e-02 2.9127098272303192e-01
      2.6188643895609565e-01 -4.0484097589041013e-01
      5.0761288011211728e-02 -4.6178590685488591e-01
      3.2628475844418153e-01 2.3937346663657560e-01
      1.4236966114128780e+00 1.4451277486982184e-02
      -2.2006081137799011e-01 5.0031374043772414e-01
      -5.7906091919222336e-01 1.7218536548831331e-01
      2.4091362770949207e-01 -2.0394178651321521e-01
      1.3237816282231458e-02 -7.6873620478487462e-02
      6.7097419343012277e-01 -4.9862023964994434e-01
      -3.4848211269537843e-01 -4.9893182070288022e-01
      -6.1958956708256296e-01 -1.5162669579612742e-01
      -1.9651730798782258e-01 1.9559419543984077e-01
      3.2825306491435030e-02 -5.2756742212551611e-01
      -2.0023075764090961e-01 1.3742183693543294e-01
      3.2224568568122225e-01 -7.9639722516186423e-02
      1.2044285538124582e+00 5.8110506757623226e-01
      -2.3997670503106724e-01 -3.0047902938155180e-01
      1.2378177195922655e+00 -1.2337411850564954e-01
      7.2773425566729888e-01 1.0100153681129297e-01
      2.4511250188390565e-01 -2.0291331573369726e-02
      -5.7388543992628438e-02 -9.9308776279170341e-02
      -1.3825979853530367e-02 -2.5845335669962066e-01
      -2.2364861693102916e-01 6.9934518625991940e-02
      -2.3045875352258463e-01 5.5964261984645169e-01
      3.8365446930856845e-01 -1.2986975760366215e+00
      1.0338026538771240e-01 5.2658489928847439e-02
      -7.3681153567925164e-02 -1.0167219506416199e+00
      -2.6249838228662048e-01 -8.6574165351251875e-01
      -4.9697897231983429e-01 -2.2723251176673778e-01
      1.5285471919182256e-01 -5.4166184993274658e-01
      -1.4524390227692137e+00 -4.3662109665596749e-01
      -1.7100597563406567e-01 8.0882279544870106e-01
      -2.6217055258416912e-02 -2.3245115298480123e-01
      -5.4505759465342352e-01 -1.6663127158094644e+00
      4.0556155375786385e-01 8.1526975539836444e-01
      -2.4674773523263865e-01 1.8477034474811052e-01
      -5.6169312406897931e-01 2.4441604379432344e-01
      -5.9858676739233015e-03 4.5731485144070966e-02
      2.8662510514486739e-01 -1.5081005370516709e-01
      -1.0937559746197795e-01 -1.0150346643141268e+00
      1.3299385349354584e-01 3.2055947315606326e-01
      -5.7541790632672452e-01 2.9530032536485723e-01
      -4.7128618577206483e-01 1.0382335678195465e-01
      4.7170934156722238e-01 3.0876448164969689e-01
      3.2500101925407421e-01 -5.1044601648031707e-01
      -4.8680944304701518e-01 -2.3271250665636584e-01
      2.8808512156296323e-01 2.3244321345319067e-02
      -1.7171407985182845e-02 -1.9817318426285691e-01
      -3.9650707199716906e-01 -2.4107619913061348e-01
      3.7527694399577649e-01 -9.2888581754808602e-02
      3.5248311055036306e-02 -1.0555946547262227e+00
      5.2229885323340150e-02 -3.0957875783576660e-01
      1.5993216073606670e-01 2.7184849727249916e-01
      1.8275918025676144e-01 -1.1329838872747619e-01
      -3.0968748146536784e-01 4.3839644861963245e-01
      -3.7294511754758813e-01 1.7733675655937456e-01
      2.4897301826002219e-01 3.1823224009921672e-02
      8.6668356120684159e-02 -6.4453103891453478e-01
      5.9592998446602830e-01 -3.7681924540578116e-01
      -5.6185494225793564e-01 7.1423648436786712e-03
      -1.0814045039179192e-01 3.7703224406598451e-01
      1.8348015949274682e-01 3.2080843911035761e-01
      5.9858939177661041e-01 -2.8806942156716464e-01
      -6.2228982192444704e-01 2.4113776479256288e-01
      6.0666479885209301e-01 9.7611008846107530e-02
      5.2369824292547362e-01 6.6958409292947341e-01
      -3.0938055620999011e-01 -1.5274310446855879e+00
      7.7998728584562815e-01 6.3514630351023157e-02
      6.7169457176172487e-01 -3.2066785827326549e-01
      7.6052416949892704e-02 -9.8401932359717326e-01
      5.4367400753396566e-01 -7.0119938255993619e-01
      -3.0611330843802920e-01 -1.1406943175070832e+00
      -2.5983262163045034e-01 4.7025788306438575e-02
      -2.2220623610252530e-01 1.9105177161863890e-01
      5.4369169960434915e-01 -1.3329552156426350e+00
      4.3941133956454820e-01 -8.4537112990926450e-02
      -2.6920289900821759e-01 -7.1830640352145680e-01
      -2.9733155718333043e-01 -8.8456877664015743e-01
      -9.2110059284690637e-01 -3.3389614189301070e-01
      -1.7792609907608670e-01 -6.7538545498376024e-01
      -3.4989743331657397e-01 -5.4041464281776286e-01
      -1.4821192606738209e-01 3.7984214969556390e-01
      4.2154196018995671e-01 -3.1821987420738562e-01
      2.5777094517660859e-01 -6.5262762796386309e-01
      1.6658314860494217e-01 9.1801913615728292e-01
      -8.6394430258730767e-02 2.7413513833895681e-01
      3.1450729228719781e-01 4.5666379520970646e-01
      6.3655404994731823e-01 3.8575105084828809e-01
      3.9756801145448817e-01 -5.6618013242147314e-01
      -1.4683838991419552e-02 -3.1585969254403495e-01
      -2.4202484765363816e-01 2.9860082562558293e-01
      -3.4947935217072290e-02 3.3529347396199793e-01
      -9.0139785270023132e-01 2.5227180130239368e-01
      9.4014669680584126e-02 3.8595172472223116e-01
      2.2225569488326011e-01 -3.5198409784895951e-01
      -5.0816575909646833e-01 -1.2448330775872635e-01
      -1.2636265030873944e-01 -7.0837914315856088e-01
      -3.0830055267982670e-01 2.8576096761399643e-02
      2.0103696949743528e-02 -1.0840946512094047e+00
      -4.3181887589464768e-01 -2.2851095844540301e-02
      1.1485372915026532e-01 4.0631661405664932e-02
      -1.1529815430435061e-02 -2.9853008171768891e-01
      1.9201765378646413e-01 1.0103931100233632e-02
      1.1679153910269842e+00 4.3472408290969017e-02
      -2.7282473857239777e-02 4.0529382250797513e-01
      2.2983853026631484e-01 -4.4278087328520210e-01
      -4.2389209845536319e-01 6.2741144015074253e-03
      2.8805095781479878e-01 8.8203091497251640e-02
      7.9630645720631027e-02 -1.7651486407095238e-01
      -9.8821659573322473e-01 -2.3589002828580405e-01
      -2.0950091522482736e-01 3.6838231446953651e-01
      -1.0549209125376108e-01 -1.1146811458711324e-01
      -1.4631388798808245e-01 1.5746557573374062e-01
      -7.9092417988462027e-01 -1.4079639955002490e-01
      -7.5323663905617166e-01 -1.5654903730038128e-02
      -7.2778592390871832e-01 2.7280879694136223e-01
      7.7508012893209355e-01 8.5679904913522598e-01
      1.3342835942662720e-02 1.4768071274642905e-01
      4.2248748084171582e-02 5.5957856217570698e-02
      -6.7688216710551002e-02 8.9844365360842240e-02
      1.3316102812157651e-01 -2.7212223932681201e-01
      -2.3402792709828563e-01 1.9456569724746700e-01
      6.7244369951404120e-02 -9.4857748941994127e-02
      1.8598912444280830e-01 1.0161037604760428e-01
      9.4547540643941080e-02 8.8751432912962713e-01
      1.7284842261763617e-01 -2.5189749999720179e-01
      4.3941144231327744e-01 2.2086275870017458e-01
      2.0441508182517418e-01 3.5473962704540424e-01
      1.6228566166888367e-01 8.1503932745520688e-02
      2.3323891850727207e-01 -4.2989784545238319e-01
      7.1201362812704949e-01 4.9914215583199839e-01
      -6.1135468875924019e-02 5.5585473856910939e-01
      3.5581757074528889e-02 -2.6334516474219660e-01
      -1.8009248565655431e-01 5.3386194799651621e-02
      -5.2829276912363732e-01 -1.0185136760872429e-01
      -9.2257557612158356e-02 9.3158965930553506e-02
      -3.1436238771374880e-01 3.8550741708696191e-02
      -1.6069292569460976e-03 -2.1633952064444482e-02
      4.8001900906246014e-01 -5.0040877573920473e-01
      7.2626543460672779e-02 1.3110895575839658e+00
      1.6464261637479000e-01 -7.7360600569226584e-02
      -1.9104637406046271e-01 1.1876400516939863e-01
      -4.2762633998986513e-02 4.0942047995915221e-01
      2.7756496592914806e-02 -3.7628405155184919e-01
      -2.5040929595241990e-01 2.8845055976290135e-01
      2.5898883530428762e-01 -1.9514905406551927e-01
      -5.1081530299819866e-01 -5.2721961661707550e-01
      1.0269396510345409e-01 -2.5872550198953920e-01
      2.2181276506964251e-01 1.8267119667057805e-01
      7.8104310641853525e-01 9.5925244082468747e-02
      1.4449764151050931e-01 5.7617811946931816e-02
      2.1840903559542883e-02 1.2278249105811348e-01
      -1.7850175473037391e-01 1.5627993973076754e-01
      -3.3712585528883726e-01 3.6340649366887323e-01
      -3.4160365943350435e-01 -5.9806200752612728e-03
      -3.2616549455260507e-01 2.9792982932113138e-01
      -1.3402156524141579e-01 1.1488666499985946e-01
      -2.5093205749346918e-02 4.6416119309503567e-01
      2.0869021127464485e-01 -4.4109507915443276e-02
      -1.8307129165545140e+00 1.7118797343787370e-01
      3.5067360983598933e-01 3.9781840058617507e-01
      1.2071409845577818e-01 3.4867899348951753e-01
      2.4967346912675539e-01 -4.6901065991980345e-01
      2.2447744822434824e-02 1.1338753216579305e-01
      6.7340690178087592e-01 3.0496064942360201e-01
      1.2682196531690808e+00 -1.4559840934326820e-01
      -4.6982181118902439e-01 1.0299477846131376e-01
      7.2382756245920013e-02 5.2575321414431865e-02
      2.3558093398930416e-01 8.7026878971247626e-02
      -5.6102793955556882e-02 -4.4154881307185923e-01
      2.7598816891379324e-01 9.7276481976300219e-03
      -2.3797652155325174e-04 -1.2411471291816731e+00
      -1.9841931330531970e-01 1.4006278138780809e-01
      -2.3444443287087519e-01 -4.4751316414588849e-01
      2.5625994373053540e-01 -2.9984105973523929e-02
      5.2799278631941449e-01 -6.4204033295765531e-02
      -3.1329700071879585e-01 -1.2543172772793975e-02
      -2.7745752720516548e-01 -4.5931319312415797e-01
      -3.9031997749292252e-01 2.7012886956988014e-01
      7.7053987520085993e-02 1.2572141167010822e-01
      -7.3265934624762463e-01 6.4622448853705841e-02
      -4.5296682901714957e-02 -4.1180835780516012e-01
      1.9867840941939566e-01 2.2692861349703025e-01
      1.7686434499487560e-02 -7.5401983928674132e-01
      1.2184349749402110e-01 -8.1792632360381604e-02
      -1.4934281925359200e-01 1.1011646592556520e-01
      -3.8651435951202261e-02 1.4257141788037825e-01
      1.4234228626183476e-01 2.8370678648377962e-01
      2.0085741401612564e-01 -2.3660680657727520e-01
      -2.3450544663529752e-01 9.3628072019621436e-02
      -8.6384523365232924e-01 5.4768171024735454e-02
      -2.3932315205153670e-01 1.5656976363799621e-01
      -5.8205477248909632e-01 1.4815081287360254e-01
      1.8943536374725342e-01 1.2626335290441138e-03
      5.3395909355072324e-01 -9.8888149091598085e-02
      -1.3761987410588111e-01 -7.6089319478517391e-03
      2.9126779671132730e-01 3.0949984751157195e-01
      2.0643915558083423e-01 -2.9275287890727031e-02
      1.3481101321710245e-01 3.3389718298259263e-01
      -7.6942568953279711e-01 -1.6752708984643194e-01
      1.2474518390662825e-01 7.1280000099840382e-02
      6.8029575225204655e-02 -1.5519165169039845e-01
      1.8242798909674876e-01 2.6123856744965690e-01
      2.2296567129517819e-01 -2.0154858451547675e-01
      1.2547079800520017e-01 2.2715539939206414e-01
      -1.1446698165486116e-02 -9.3983735380791286e-02
      1.5462401242550586e-01 8.9289974055885499e-02
      3.1039890124841057e-01 -1.5614541154237477e-01
      -7.8353633168569151e-02 -1.7123137054089874e-01
      -4.8348994501849341e-01 2.6169510559502895e-01
      2.7514722921950835e-01 2.5769916764369211e-01
      1.4308346054847185e-01 4.3689921241747108e-02
      2.2193181614960442e-01 1.6303569224759250e-02
      -3.1753863700654211e-01 9.2510086424069993e-02
      -2.8994271789999532e-01 2.3947239010833121e-01
      -1.1817682809256062e-01 2.5942610121240567e-01
      -3.2785881015145701e-01 -1.4643325769499957e-01
      3.1986092221196927e-01 4.8002364899215558e-03
      2.8134397568691788e-01 -2.3594080743890899e-01
      1.4170575880534350e-01 -4.2170568743811992e-01
      -2.7383278617795281e-01 -2.6624349126673669e-01
      -8.7148465203337827e-02 2.1440977459284699e-01
      2.2265468052712006e-01 -1.1691196020336464e-01
      4.4143642029555569e-01 3.5414158172978653e-02
      -4.5041523871526190e-01 -2.0380898254181729e-01
      -4.7059853386484995e-02 1.5849500693225779e-01
      1.6968755248615455e-01 -1.7460871557636057e-01
      1.7825504572129808e-01 -1.2691087369241197e-01
      5.7565126771359965e-01 1.8854243124895848e-01
      3.0773007775904498e-01 2.6151474999540636e-01
      -2.0170490868069840e-01 -4.0101775526349137e-01
      -7.2026987316187188e-02 4.6956381355521644e-03
      -2.1990836368589614e-01 -3.1788268155101340e-01
      -8.5685683005971819e-02 6.4036762241420145e-02
      2.0245667157201050e-01 8.3131564773415567e-01
      3.7332117431455047e-01 -2.0035735387136372e-01
      -7.2454473615260792e-02 1.0190886870174704e-01
      4.8741522527380832e-01 2.6937612163364288e-01
      -3.2452546576320462e-01 -4.6075478655859387e-01
      -5.0483181856536941e-02 3.1012658604598498e-01
      -3.3279698608324032e-01 -7.9737016244649794e-02
      1.0100232615006897e+00 1.4350009109594725e-01
      -5.8669885509288922e-01 2.3333452152185227e-01
      -9.7590019937842110e-02 1.2998341056939972e-01
      -9.5651216266251415e-01 4.3607647983829295e-01
      1.0627380481702911e-01 1.3549417807870009e-01
      4.2532921827253156e-01 -1.3614839043997712e-01
      -9.5713067199916291e-01 3.3487696362805859e-02
      -1.8865625894892141e-01 -2.4196037666590761e-01
      -8.9475857443904083e-01 2.1106905330688361e-02
      -4.2112766310790348e-02 7.1492894058693386e-03
      -2.2194468667883363e-01 -4.9373347797226952e-01
      2.3157654882715351e-01 1.0928677468475684e-01
      -6.2499391051363140e-01 -2.9804068305063103e-01
      5.1911724645228741e-01 -1.6182414806939258e-02
      2.7095841583166724e-04 2.1345174743413593e-02
      -5.3378388392259213e-01 2.4073092760201253e-01
      -3.0799203740402381e-01 -1.8617985757743696e-01
      2.7783282977214507e-02 -4.6812853646102735e-02
      -1.1507470090842054e+00 -5.4706333316093710e-02
      -5.0403374279851143e-01 1.2328825750833388e+00
      1.9916949334317849e-01 -1.0260625624215264e-01
      1.1941315399190788e-01 1.8358120877541910e+00
      1.1321157583435267e-01 1.4650618135413332e-01
      -2.1006737712934692e-01 -2.8948020688554504e-01
      8.2378890021893136e-01 1.4006915704257844e-01
      -2.4352630218414273e-01 2.0834568969495651e-01
      4.3170000666492364e-01 -6.4037036625498714e-02
      2.8807529410790200e-01 -3.6489688465795778e-01
      1.5700519881553132e-01 -6.8787454985098848e-02
      -2.7063605529237755e-01 -9.8880072396088908e-03
      -5.3110780087325157e-02 -6.8498741985219394e-02
      1.1057172701863964e-01 1.0594021010459812e-02
      1.0548021144944267e-01 2.0325410862417642e-01
      -5.9701153377366944e-01 1.1502177578588245e-01
      8.4848422388790427e-03 1.7061248060351938e-01
      2.5723398910476236e-01 -2.9792046344027673e-01
      5.4858555284114825e-02 -9.6229323666556593e-02
      4.4842882087285563e-01 -4.7380444382011699e-01
      -2.8189063619798584e-02 -1.5831642297089162e-02
      -1.1084542800910870e-01 -2.5859669608043911e-01
      2.6960599856644862e-01 7.5013274747013636e-01
      5.4575980369405190e-02 -3.0294214507012557e-01
      -5.9976487673039958e-01 -9.3386076664430373e-01
      2.3439763938479660e-01 -7.2734588532602962e-01
      3.8135281889037621e-02 3.4300811753188121e-01
      -3.1078715601068940e-01 4.3218186155345095e-01
      4.4008822839671874e-01 -1.7531419938649365e-01
      1.0703219105681552e-01 -4.9723497086211133e-01
      1.0332191456127936e-01 -1.5988914408461222e-01
      5.1290319668450013e-01 2.0590381181253867e-01
      6.9930539349348853e-01 -2.0391683452776205e-01
      -4.2237984173407461e-01 -1.8528265704541086e-01
      -4.6284429814009043e-01 7.6690612784807005e-04
      -6.0528363302137078e-01 -2.2213189485563262e-01
      -6.3057489912704393e-02 2.6586330078065077e-03
      3.2054947814723772e-01 1.5202200516939227e-01
      -1.6636467270258382e-01 -1.4144174135231627e-01
      -4.4781730975373857e-02 -2.7478525561732620e-01
      -1.3478541007615803e+00 -2.8810749244345918e-01
      -2.4218121617019941e-01 3.2418298020952752e-02
      9.9135860017764504e-02 -1.3079995602048342e-01
      -7.4832715742144092e-03 -6.7679349653576096e-02
      -8.7583559829334134e-01 -1.5137265173424197e-01
      1.0128466129174625e+00 1.0526140448852184e-01
      7.8923305020169310e-01 -2.7380192147912558e-01
      8.9508656510504964e-02 2.3936622092059168e-01
      -7.2308523719018438e-03 -5.7612678213517197e-02
      -9.6653081009137456e-02 3.9634890474752653e-02
      -3.2624427230203507e-01 3.6930711600214744e-02
      7.5913783387142626e-03 4.1967452111611464e-01
      1.1693575109074010e-01 1.1923465820164883e-01
      6.1681111326517046e-02 1.1201864285290832e+00
      6.3925099836602203e-02 -4.8984853989433225e-02
      -5.7758279693865461e-02 6.5217507557182594e-03
      7.1105301931270593e-01 -1.6944095236551010e-01
      1.1101474293029047e-01 -6.2524276648365729e-01
      -3.5464414868211502e-01 1.3869047761620731e-01
      -2.5517363237128332e-01 -2.1924509244003365e-01
      1.7362982966127025e-01 -2.2320238702394163e-01
      -1.5619610122767866e-01 2.3815849828935082e-01
      -1.4445687881718555e-01 1.3830398864756701e+00
      1.9096242128086957e-01 -3.3061109412232492e-01
      4.1728347290344255e-02 -2.3001955980283414e-01
      -7.4083100612794872e-01 9.0096848231475746e-01
      -4.0283271946656218e-01 -1.9990146933224803e-02
      -7.9094509757678469e-03 3.2165885248570369e-01
      1.1527181104826230e-01 -2.5301844644736010e-01
      6.4916497667836348e-01 1.4702705271345184e-01
      -4.3288803905167018e-02 5.8222335366368461e-01
      6.3965794150704869e-01 -1.3803171642153433e-01
      4.7663010877049605e-01 -3.3407254123845709e-01
      1.0714093971153917e-01 -1.5093021878413959e-01
      1.7814026368715147e-01 1.7432683845292694e+00
      -3.3904809057314950e-01 -2.9601873060048023e-02
      3.1493238722695305e-01 1.2822532301504555e-01
      6.4781085121334375e-02 1.1142642024811933e-02
      8.0367430214518809e-01 -1.6557732377863363e-01
      -1.7740466413567560e-01 -6.7187741668824164e-01
      2.1403331235134679e-01 8.7370832173956225e-01
      -2.5328451681948477e-01 1.9211666265911204e-01
      1.1700861640623874e+00 2.0946519491564727e-01
      -6.6841351414921224e-01 2.1321777660890082e-01
      -4.2324888011485035e-01 2.4645968953082808e-02
      -8.1488394814670284e-01 7.1528886273303546e-02
      8.3640696070401310e-02 5.7398360087174760e-01
      -2.6523212586906109e-01 1.3004519926406499e-01
      -5.3594696018170906e-01 -1.9127938391155133e-01
      -1.0235577944901429e-01 -3.4880456484757953e-02
      -5.0814173282104147e-01 -5.3730909412042838e-02
      -1.8915518179481200e-01 3.1553559422975841e-01
      9.5840382446353484e-02 1.0793345070162091e-01
      -5.8322148694789654e-02 -5.8238307138522827e-01
      -5.4859886488368059e-01 -2.0125419852446336e-01
      -6.7546581083725868e-02 -2.0464332441314476e-01
      2.4205042180799258e-01 -1.8102488299587666e-01
      -2.2101292130151920e-01 -1.0818389577294570e-01
      1.9433057711872798e-01 3.3735920952339871e-01
      -9.6076093964499426e-02 2.8796397502651699e-01
      1.2900341010794920e+00 -6.6376310593024701e-01
      -2.7156236317941529e-01 4.9227205281029224e-01
      -4.3289807793731944e-01 -3.0656090700582805e-01
      -4.2243890161696013e-01 5.7654235882485383e-01
      3.6636758025488775e-01 -1.2172554321419170e-01
      -2.9593475120239571e-01 -3.5093594383971949e-01
      -1.5172443611210140e+00 -4.9968891372257782e-02
      -3.9207677619405179e-01 7.2194983588960449e-01
      -4.8569637836005058e-01 -1.1715268718893996e-02
      -3.9040929925012208e-02 7.8615221444858496e-02
      -1.7736483963993560e-01 5.7591606223615921e-01
      9.6351036527103903e-02 3.4722538904410666e-01
      2.0812896619295251e-01 -3.2989673696311783e-01
      1.6554494068253220e-01 -2.4580283718442786e-01
      -5.9189562969448120e-02 1.0143021075947061e-02
      -8.5539474299280133e-02 -1.9372775772275053e-01
      -3.7929282151270860e-01 -1.1083714654107343e-01
      2.6864846585272308e-02 1.1104108703540518e+00
      2.2829978800277199e-02 8.0628592286508496e-02
      -1.8487677148566811e-01 -5.8902741670039827e-01
      9.7051081004440529e-02 -1.8601258659762671e-01
      1.0266462138607972e+00 5.8082042026653602e-01
      1.0570831683320304e-01 1.8790740887838411e-02
      1.3356570946594321e-01 4.2528726463839227e-02
      -2.7368226675830581e-01 7.8933737264121229e-01
      -4.8657754126733377e-01 -1.0056373031468069e+00
      -9.5322384720694903e-02 3.7386708051139306e-02
      2.2288950329798572e-02 -2.0352620886011766e-01
      -2.5658962112216666e-01 -2.3736827724130778e-02
      1.8342332223556738e-02 -5.6037439968415849e-02
      -6.6215567768781514e-02 1.4009729331307088e-02
      1.5514016679562682e-02 -1.6927605124560238e-01
      1.4227814884321299e-01 -1.8814451752296943e-01
      5.8748519531462595e-01 7.4612946739212403e-03
      1.9717861218679580e-01 -1.6517575584245817e-01
      1.7640370704665903e-01 -7.4430886804287222e-02
      3.7872617398455943e-01 -2.1565130737318536e-01
      -3.0993241115476788e-01 -2.7506197202038596e-01
      5.7160276274194199e-01 -1.9396046366661970e-01
      3.6091528983539650e-01 -4.6934317728144458e-02
      -1.2105953081440015e+00 -9.1294470356459392e-02
      -1.2269248415168006e-01 3.3121389223480813e-01
      2.8949177775584101e-01 -2.1565351544969674e-01
      -6.7587166853612296e-02 -4.1990905263767003e-01
      -9.8580817532610476e-01 8.3473946374986882e-02
      1.7502533584574906e-01 -1.1810227302093758e-01
      1.0278508444736612e-01 1.2347034970628869e-01
      -1.4561572134654494e-01 2.8036579624369051e-01
      -7.7100734650471459e-02 2.8909244784288174e-01
      -8.6622161353451826e-02 1.8834022400521067e-01
      -2.1636939124323684e-01 2.1301595428621402e-02
      -5.8886337819799385e-02 -1.1397161375831796e-02
      1.7136445912930340e-01 4.9356520415295646e-02
      2.5275745453735698e-01 7.9118305468219274e-01
      2.9201992413446648e-01 6.5442153147199115e-03
      -3.2480589769483914e-01 -1.2341094446021096e-01
      7.0391648722505806e-02 -8.6592745805197727e-03
      4.8186483500755634e-01 1.2595087818826162e-01
      1.7688265392543237e-01 -8.1819287395503801e-02
      -1.1191759116553533e-01 -2.4737354174752407e-01
      -1.3999230624230932e-01 -1.3975161751303995e-02
      -1.1661030553681929e-01 2.1446957451435950e-01
      -2.3030265431929247e-02 7.7618475090368322e-01
      -2.8149190133205857e-02 -2.0381186810202959e-01
      -1.6537697297277838e-02 -1.0426178379049572e-01
      -1.8209044455992998e-01 1.9200616394568645e-01
      1.1247599811849850e-01 1.6601467971011399e-01
      -3.3460640668661917e-02 5.2576094961305919e-01
      -1.0388002118942467e-02 -3.4676830740511660e-01
      1.6701227426036244e-01 -7.1785449796620091e-02
      -2.5675595693676750e-01 9.1730660027550398e-02
      6.1403679413811096e-01 -1.5123824178128051e-01
      2.4651886487996270e-02 1.2102836277164178e-01
      -1.2638323770892049e-01 -9.6135331271222507e-02
      -6.1148887600323616e-02 -2.4868632682276501e-01
      -4.1084069386780425e-01 -8.3885890202608082e-01
      1.6853886379169775e-01 3.6660922770830946e-02
      -6.2728053634150613e-02 8.7045584025933938e-03
      4.3502616388747350e-01 8.1011772340935206e-02
      -1.1335759095047804e-01 -2.1154827399255488e-01
      3.2599856817975684e-02 4.2686522731247017e-01
      3.4381689338081012e-01 -3.2270151116146138e-02
      1.0752652157285908e-01 1.2361898852957291e-01
      7.4211047569549618e-02 1.6051029233552666e-01
      -4.3411071002634374e-02 5.8516350643520586e-02
      -4.9823868026808188e-02 7.3140728236946381e-02
      1.2349996633385865e-01 -7.9661571771783124e-02
      -3.9771986449178745e-02 6.7919031609585692e-02
      8.6958669011622126e-03 -1.4311224369348016e-01
      6.1068171055006337e-02 -2.5267449091886768e-01
      -1.0449154077968097e+00 -5.3737901741676822e-02
      9.7094652269252193e-02 -7.9670071020057143e-01
      -7.8799676423609910e-02 -3.1441862989239433e-01
      5.0690065260964823e-01 4.3945347057031947e-01
      9.1360487124302803e-01 -5.4696196900285059e-03
      -1.8928371260109841e-01 5.7175931622354170e-01
      -4.2600228289452369e-01 3.3009994529510600e-01
      5.1812185025335211e-01 -6.1127938638425250e-02
      3.7111053654285331e-01 -6.3357308934577150e-01
      2.7920675411537166e-01 -2.7268483993190162e-01
      -6.9635023066091428e-01 -2.2902004842589962e-01
      -4.2973103605696444e-01 6.9989673515233064e-01
      2.3211337042383279e-01 -5.4612374601664612e-02
      -1.8402839012760736e-01 -4.6228215010612012e-01
      -6.8420631238245211e-01 2.3945351159185330e-01
      5.5098872381662067e-01 -8.4434255311981787e-02
      1.9268251986230021e+00 4.7477080859252291e-01
      -2.1757837267891253e-01 -4.8765742877936430e-01
      1.0073306856478403e+00 9.4816063101317252e-02
      9.8263969998071332e-01 -1.4271577910568539e-01
      -4.0123874107123481e-02 -1.2058065925082948e-01
      1.7428587656376418e-01 4.3870029349037831e-01
      -3.1111569897196889e-01 -1.9263900623558231e-01
      3.9024272841036437e-04 -7.9568638013427992e-02
      1.0266167774813975e-01 2.7809781673092454e-01
      -2.2227184641467078e-02 -1.1925511518262479e+00
      -1.9187686690243358e-01 -3.3005648088746176e-02
      5.4351063074558370e-01 -9.5968855120243479e-01
      2.4812575105602188e-03 -7.3694936298292824e-01
      -1.6681638420967319e-02 -6.2674299765369579e-01
      3.3195154507468172e-01 -3.6401718033902097e-01
      -1.5939627161643060e+00 -7.4378198750726954e-01
      -2.2914040302559435e-01 8.5211392659237128e-01
      -7.8676698944300363e-02 -2.5191513401808524e-01
      -3.5133027586525867e-01 -6.6347854784646565e-01
      1.6762886722822676e-01 -1.6212702279556394e-02
      7.5202014040419665e-02 2.2433986512866325e-01
      -6.7038973585616928e-03 1.4307596693881497e-01
      3.3377328398105677e-01 1.1264642605506142e-01
      3.0161992643465219e-01 -3.8375282323315912e-01
      -4.7412147759594570e-02 -4.9207104659038992e-01
      -1.3250750389521242e-02 6.8402481196396386e-02
      -4.4177217915531475e-01 3.6774200170406163e-01
      -9.8434604305494455e-01 2.9133702381022586e-01
      3.4412576647633066e-02 3.3309841678367302e-01
      -1.0128967840069010e+00 3.3954081945066820e-02
      -3.8703615647042711e-01 -2.3699343644356152e-01
      -1.3498164806240609e-01 -4.9164977484088446e-01
      -3.7085915689843146e-01 -1.4502908535763553e-02
      2.2767450031153272e-01 -6.2521936952669022e-01
      1.1839423909238773e+00 2.1613707956974237e-01
      2.2713709143359070e-01 -3.8087173470201202e-01
      1.5748330887680598e-01 -4.7351855409305971e-01
      2.9651746884089503e-01 4.0859548524443362e-01
      3.1041524316800718e-02 2.1015376726432033e-01
      -6.3740801941028857e-01 5.7737944052962764e-01
      -6.3754655650181347e-01 5.4838124329055760e-01
      1.4248538410025940e-01 -1.5129565437563300e-01
      -2.5573345480850600e-02 -3.9246055264012536e-01
      3.1496298633729697e-01 -1.7530525813274278e-01
      3.3486244094509876e-03 -2.5024446634274999e-02
      8.1247917381064488e-02 4.9515670652543059e-01
      5.2066034051229275e-02 2.8130857930653824e-01
      6.4561941985273222e-02 -1.1620045100120959e+00
      -6.3409875401537452e-01 -3.5327766044832593e-02
      6.7334138053736814e-01 4.2400932655043116e-01
      1.2883974015233530e+00 4.2012885405659645e-01
      9.1333205485936853e-01 -4.0241700092874388e-01
      3.5899899812258435e-01 1.2039654348070725e-02
      4.0767885459354830e-01 -2.1242943137645723e-01
      -2.4760843687728584e-02 -6.7234275568795276e-01
      3.4607171527199238e-01 -4.7249862922468588e-01
      -2.6639935317143587e-01 -4.0631040223065124e-01
      -4.2115900461091349e-01 1.8679825192215110e-01
      -4.4820699619976639e-01 -2.1463413219775102e-01
      5.3593444480771613e-01 -9.4186895741682500e-02
      -4.3402260124030888e-02 1.1096475524198661e-01
      -9.7715773563807826e-02 -5.5207621960021858e-01
      4.3966986612373256e-02 -8.6286069226616335e-01
      -6.1625095625870030e-01 9.6833988492087034e-02
      -2.0371499601460324e-02 -4.7832994542986118e-01
      -6.2367085097959907e-01 3.7603154726073224e-01
      -2.3428884673438597e-02 5.1768820377039404e-01
      2.0681934978669653e-01 -2.3764549137302843e-01
      -2.5747738048375396e-01 -1.9811693562910775e+00
      1.7437184755407512e-01 1.3379553841554753e-01
      -7.7582376586235527e-02 -2.2597433271856891e-02
      4.9048184552040942e-02 4.0701032153471561e-01
      3.6871014855849432e-01 1.7883147870102112e-01
      2.1880673605422718e-01 -2.5046794214515511e-01
      -1.9017662742322142e-01 9.9784616782859292e-01
      -8.8142867936049318e-01 8.8645570353244371e-02
      -1.1837614748226180e+00 3.4100615330575107e-01
      -4.1306441044946884e-01 3.9283445364692376e-01
      9.9685733671520449e-02 2.1451725553157805e-01
      4.5868778054313813e-01 5.5404832319312876e-02
      -1.7064095542781896e-01 -2.1659793362786181e-01
      -3.2340116489365656e-01 6.0094238384319681e-02
      5.3836184397899105e-02 3.9578177034583967e-01
      4.8049920426728523e-02 -1.3175580358085054e-01
      -1.6876458106799843e+00 1.1776341124278311e-01
      1.7613502627577191e-01 5.2328190274127481e-02
      1.5993714464288786e-01 -5.4336965131218506e-01
      3.5054165389981484e-01 6.7472993550679053e-02
      3.9757664234788376e-01 1.0891318406023057e-01
      -1.4843258795802160e-02 2.8354788004930476e-01
      8.0087024410076292e-03 2.4632643421448960e-01
      8.4356195572350676e-02 6.4626308394300641e-02
      -1.0860674762287550e-01 -4.8774560023931109e-02
      2.0451820195816126e-01 3.4969298563421486e-02
      -8.5880353335718496e-01 -3.3161162487051871e-01
      -7.2534074897257950e-01 -4.4595284693230847e-02
      1.6325479588786582e-01 -2.8803201527866157e-01
      -4.1017182910819426e-02 -3.1917778214710313e-01
      -1.2758589498825063e-01 1.4471184912669596e-01
      1.1555365671675770e-01 -3.3304464016693625e-01
      3.7625261272250482e-01 4.3384235556770073e-01
      7.1097175182201788e-01 9.3623791298267001e-01
      8.3685106285815547e-01 -2.0717172962691990e-01
      8.0673802845237297e-01 -2.9557685383488769e-01
      -8.9159564912354314e-02 2.0439657178747492e-01
      -6.2383367088081364e-02 1.0460828766661437e-01
      -6.7453320870926023e-02 -1.2403007346874290e-01
      6.9123697339352363e-02 5.6686123145243468e-02
      -2.1423299995922024e-01 5.0681446112600115e-01
      -3.0677381752148175e-01 2.3546277047999550e-02
      -3.8312583861312394e-02 -7.8997321351095329e-02
      3.8281888306512640e-01 -1.4149208822791814e-01
      2.1069837177040149e-01 -2.3979324118609053e+00
      2.5394049089872461e-01 -4.8289492456678013e-01
      -1.2653503201828079e-01 -5.1817093866124320e-01
      -7.5716659898782968e-01 -3.5905760660343994e-01
      9.0809556511847189e-02 1.2163613010904359e+00
      2.0863796567448165e-01 -3.5884951872979692e-01
      -5.1651601542032455e-01 -1.9808862998929802e-01
      -5.0746565504613456e-02 -4.1833646011811033e-02
      6.5048684749697896e-02 1.2148454207967715e-01
      -2.0635771258079774e-01 1.1723562209811828e-01
      4.6374637204946034e-01 -1.0000608672551037e-01
      4.8433170393238040e-01 -1.6794705966161380e-01
      -3.2474235644917943e-02 2.7187645213270517e-01
      -3.6053485733989471e-01 3.0360264937762499e-01
      -5.5168013306764863e-01 1.3799427441787562e-01
      -4.1398478706243802e-01 4.5899312446675927e-01
      -2.5455011928580557e-01 4.0565759581313582e-01
      -2.9018917943938605e-01 -1.3269407524066423e-01
      -2.4863851588280750e-01 -1.1242288238219438e-01
      -5.9577386705393509e-01 -2.4730420978774290e-01
      3.0647658124763513e-02 -5.8126796693150073e-02
      2.0191993921301912e-01 -3.4905251117827313e-01
      1.0106797454602428e+00 5.0713520340972629e-01
      -2.2683094424790384e-01 6.8695585037542459e-02
      -9.8379169693561710e-02 2.3582298592005532e-01
      -3.2551309082069702e-01 1.7018041138258128e-01
      4.7336883533276322e-02 -1.7898033100379067e-02
      -1.5594465052190423e-01 -2.7639293842226675e-01
      -4.1030590864019362e-01 -7.5708145977045810e-02
      -4.4761520576619201e-01 1.0276845531968438e-01
      5.7194135405124663e-02 2.0700151675883896e-01
      -1.1941316950059404e-01 -4.4058147141599890e-02
      -2.3418249463200172e-01 3.6693786155271485e-01
      7.5758379811021059e-01 3.2460790204358364e-01
      1.7915098597384400e-02 2.4875054158378807e-01
      -9.6922486238184710e-02 9.1339797220890906e-01
      2.3982841267205418e-01 -1.9764924856685115e-01
      4.6910747628593891e-01 2.9346637894713745e-01
      1.5250006277776754e-01 -3.8039955556803412e-01
      2.3808042277231278e-01 3.2108164880317780e-01
      -4.4790827020990331e-01 3.3098098344899823e-01
      -1.9664250148673698e-01 -8.1613630458554562e-02
      -3.5891460959949367e-01 -4.6678043267891406e-01
      1.7532794226881984e-01 -4.9537195367135084e-01
      8.2021414019701228e-02 3.2798985521906682e-01
      -6.3042116420455901e-02 1.0966169811033780e-01
      -1.4706441695491021e-01 -5.0921307012597750e-01
      2.9730023372029352e-01 5.0938431186417310e-01
      4.5545628030121693e-01 5.5453014958579967e-02
      -2.1355127298556584e-01 -2.2184922997371093e-01
      5.2641698957543233e-02 4.4798112131310103e-01
      -1.4268215454030067e-01 3.3826130789857817e-01
      -2.1097740600810438e-01 2.5566386903775551e-01
      -2.6321559920532062e-01 -6.0715590850166446e-03
      9.4131492677307999e-02 -7.6229651481320526e-01
      4.4628335102502431e-01 2.8768525384022642e-01
      5.5304168563269085e-01 -2.1882806152447407e-01
      -3.0044915659981773e-02 4.4820716781496531e-02
      -3.9139342965375058e-02 -2.0970663624851357e-01
      -2.0463771467562336e-01 3.1586554680729539e-01
      -2.4444210085527651e-01 2.0042510307249758e-01
      -2.0006120867536770e-02 7.6034386216580999e-02
      1.5265623157320571e-01 2.4723941873545491e-01
      1.3870806358209939e-01 -9.8045422983808403e-03
      2.3573496758142712e-01 -9.1836075374050724e-02
      -7.7967266437191901e-02 9.0795219645134317e-02
      -6.2001055677453031e-02 -1.3692749986369179e-01
      5.7868075965370225e-01 2.6694837195531612e-01
      -2.7201791711167083e-02 1.9560957549886021e-01
      4.7653995834588392e-01 -4.1717237012118352e-02
      1.6960019471057702e-01 3.6094203081934097e-02
      -4.2721171370600115e-02 2.4513425116594170e-01
      1.7422238926372155e-01 9.4725281537645922e-02
      1.6360529493304782e-01 3.5082784490811919e-01
      1.8882230452188076e-01 -7.7391260232840542e-01
      -9.1941317884553841e-02 -2.2591625484513009e-01
      -1.3007028340791862e+00 -9.9494801721646486e-02
      1.6005030586493693e-01 2.2764942653909095e-01
      2.9091902370146616e-01 9.1902525605492835e-02
      -2.2534601399096651e-01 1.6965722065653221e-01
      -1.4975743785228018e-01 7.1014495954667176e-02
      2.1796444716017990e-01 1.6430889279403890e-01
      1.9733765089553619e+00 -6.0040735767586936e-02
      2.2297906982875451e-01 4.0348921049925313e-01
      -1.2369042562479540e-01 2.0319605325427861e-01
      5.8210859189406694e-03 4.4667544364945938e-01
      4.0725402798557203e-01 -2.1865721337723720e-01
      -2.2762169097503455e-02 -3.8928573446525248e-02
      9.4921428772072058e-01 4.5622130952793211e-01
      9.8969768661496902e-03 2.3932111992049279e-01
      -8.5357625789165448e-01 -6.3778538702811013e-02
      -1.8674572684086588e-01 -2.1511985755999305e-01
      7.5495637187171935e-02 -2.4661865101319139e-01
      5.1521824448176677e-02 1.8832539391388900e-01
      -5.0148632207450087e-03 -3.5826033246338096e-02
      2.2867195200375542e-01 7.2024699171017274e-03
      -1.5633079426205756e-02 4.7013670495934262e-01
      4.4290846565040831e-01 6.6054105410602282e-01
      -5.4267641613421280e-01 2.2160210357064378e-01
      3.3379828955724077e-02 4.2772577168405151e-01
      -2.2776024104342002e-01 -1.1892662204178982e-01
      -2.4040783828475779e-01 2.5865642101093117e-01
      -1.2136785054497642e-01 -1.3879418920228392e-01
      1.2122501306421321e+00 4.3737979406528527e-01
      2.5479991600724000e-01 -1.2250745472713974e-01
      -1.2818036411602798e-01 -7.3820955542560310e-02
      3.1302318428644615e-01 7.7253168178017495e-01
      -1.1624128395101371e-01 4.0688165834319684e-01
      2.4547594304013456e-02 -3.1554243379332758e-01
      1.0570157460329416e-01 2.4764673234685564e-02
      3.2703113213954832e-01 1.5307456661573383e-04
      1.7657355904214439e-02 -6.1134866717945446e-01
      -1.5727257076379586e-01 -7.3426426054961635e-01
      -2.6510062075279839e-01 9.8492673141898260e-02
      -7.8164698742174202e-02 9.9002410907442565e-02
      4.2343178949003452e-01 2.4953435664314186e-02
      5.4285817912460697e-02 6.3439991177098462e-02
      5.4383812153887254e-02 -1.3882224524876863e-01
      1.9612686434338769e-01 1.0802121671804446e-01
      6.3931317951486144e-01 1.1076907297625672e-01
      -2.6774541118452216e-01 -2.0678900467813455e-01
      8.7524733108095470e-02 1.5871902623641576e-01
      1.1945756399227885e-02 3.4741974195361701e-02
      -1.5881288232333279e-01 1.9682869038055512e-01
      1.8469898570334814e-01 -2.7132859202477327e-01
      2.4434224341884700e-01 2.8474336063726163e-02
      -2.2723317909962304e-01 1.0949716510848553e-01
      -4.7004015157504986e-03 1.8122992749384617e-01
      2.3358248158998349e-01 4.2130187875421982e-01
      3.5619809773863642e-01 3.4329586354729713e-02
      -1.2895598726538543e-01 1.1366497186520663e-01
      1.4671889360735280e-01 1.0141947308334112e-01
      -7.4685960215110370e-01 -6.4191955898237219e-03
      -1.6064897207186381e-02 1.0103602919487482e-01
      3.6485867791787935e-01 1.2167974591994771e-02
      -1.6604442780568737e-01 -9.9655315365998018e-02
      -3.2010657079353755e-01 -1.1221750570994904e-01
      -1.7762346545652669e-01 9.8076818974156252e-02
      -2.1275954412510056e-01 2.0302601402950524e-01
      1.7683305827747933e+00 5.5978705273881946e-01
      1.8412567904234792e-01 -2.5350635808977482e-02
      1.1686347947834139e-01 -7.0323484438214567e-02
      7.6581704895449538e-03 -1.5747716129229503e-01
      9.9046456948026926e-02 1.3692556579839121e-01
      -6.9853175786210128e-02 1.2365416880861257e-01
      2.7987282205050013e-01 -2.3526517389619461e-01
      2.2111023814336983e-01 -1.0054149830019850e-02
      -1.6869693793457088e-01 -9.5661646573079728e-01
      3.4392024299498386e-01 -6.1822185650028422e-02
      1.0864811245849609e-01 1.4589419723358202e-01
      -1.5729592569820226e-02 1.2435605631257314e-01
      -1.9254337565448967e-03 9.4504090031071353e-02
      1.7499840459344268e-01 -1.3016280066190161e-01
      5.1992167883538742e-01 3.5437314333926229e-01
      6.9757019936247625e-02 4.7166403579419908e-01
      9.4471939699552254e-02 -5.2425973170275898e-02
      1.8015072228595237e-02 -1.3130020434332321e+00
      -1.0098939891776376e-01 -7.4143522996004529e-01
      -1.8369855420036837e-01 -7.1296025203896357e-02
      -1.5429571353356686e-01 -3.7329512066903731e-01
      4.2972727294083274e-01 -2.0884844437140118e-01
      -6.4424891577467142e-02 -2.3378751799446384e-01
      9.1412588750343818e-02 7.7357140887256159e-01
      1.1601818153751269e-01 3.8900094005943431e-01
      -6.3839040110458350e-02 -1.1054078395750598e-01
      1.0207163828130439e-01 9.1141404135470006e-02
      -1.2246715407395960e-01 -2.0176767215478811e-01
      -3.7459168066428808e-02 2.3122393679574457e-01
