<?xml version="1.0"?>
<opencv_storage>
<DigitOCR type_id="opencv-ml-ann-mlp">
  <layer_sizes type_id="opencv-matrix">
    <rows>1</rows>
    <cols>3</cols>
    <dt>i</dt>
    <data>
      118 100 6</data></layer_sizes>
  <activation_function>SIGMOID_SYM</activation_function>
  <f_param1>5.9999999999999998e-01</f_param1>
  <f_param2>1.</f_param2>
  <min_val>-9.4999999999999996e-01</min_val>
  <max_val>9.4999999999999996e-01</max_val>
  <min_val1>-9.7999999999999998e-01</min_val1>
  <max_val1>9.7999999999999998e-01</max_val1>
  <training_params>
    <train_method>BACKPROP</train_method>
    <dw_scale>1.0000000000000001e-01</dw_scale>
    <moment_scale>1.0000000000000001e-01</moment_scale>
    <term_criteria><epsilon>9.9999999747524271e-07</epsilon>
      <iterations>1000</iterations></term_criteria></training_params>
  <input_scale>
    1.7181605900149546e-01 1.6338609459990381e+00 6.2098861368305336e-01
    3.4152336916627801e+00 6.7751435203435451e-01 7.6309232480758626e-01
    1.0050916681407203e+00 -5.5070756852599843e+00
    1.0611766914892262e+00 3.6050466317607449e-01 1.2324749180499370e+00
    2.2213733181049027e+00 1.2357555232038386e+00
    -1.1390418716442969e+00 1.3113529195623497e+00
    3.4590808937462736e+00 1.3886127608693195e+00
    -2.6836881931877987e-01 1.4436879231280402e+00
    2.1244568408324396e+00 1.4721095018734096e+00
    -1.5861909153019451e+00 1.6470148383465690e+00
    -3.4260808513953274e+00 1.6836164293999720e+00
    -9.3120656760579001e-01 1.7805922168831567e+00
    -1.6470881703543316e+00 1.8780750709242147e+00
    1.9405587523050360e+00 1.9039117352526054e+00 1.2148947751138117e+00
    1.9882832555258989e+00 2.9365249835165792e+00 2.0286845893207945e+00
    1.2145620813041196e+00 2.0671231763201718e+00
    -2.0023309270365282e+00 2.1132988215547961e+00
    7.1769611529057065e-01 2.1149337693492996e+00 1.7007035507553961e-01
    2.1769059883858572e+00 -4.3065002337509994e-01
    2.2481575813886301e+00 -2.1589017090350882e+00
    2.2902441698091733e+00 2.5994805394052114e+00 2.3095823961524142e+00
    -2.2495994752824804e+00 2.3654455047300527e+00
    -1.3796940880584214e+00 2.4385448689651437e+00
    -7.8640650553670211e-01 2.4866116866052215e+00
    6.3987530686559413e-01 2.4964780071268349e+00
    -1.0015127676950892e+00 2.5235124934479014e+00
    -7.0714076892760180e-01 2.5695060291333061e+00
    -1.2464558529666827e+00 2.6046050683017614e+00
    -1.9198982071690787e+00 2.6519877003449475e+00
    3.7627107068607607e-01 2.7308318506518514e+00 3.4831135576089878e+00
    2.8042937137309258e+00 1.0617382244261303e-01 2.8585768152482069e+00
    -3.0944549917741626e+00 2.8538851237671650e+00
    1.9855581426366222e+00 2.8899190042367233e+00
    -4.3002597132853931e-01 2.9603763177981985e+00
    -2.1409079100412907e+00 2.9603412412504935e+00
    -1.0021764164665004e+00 3.0298507408239814e+00
    -1.5596371353345682e+00 3.0705822876232554e+00
    4.7063664695463530e+00 3.1205623358683767e+00
    -1.7729186309562310e+00 3.1591411712993600e+00
    -4.1525849028782252e-01 3.2405912017288672e+00
    6.7938697117707179e+00 3.2660204442951337e+00 4.0848462587910328e+00
    3.3037562783378336e+00 -3.3739527414624928e+00
    3.3858208752795220e+00 -5.9375966307905470e+00
    3.4179304556329533e+00 -2.3525967154871841e-01
    3.4593045133912916e+00 -2.6661920848034284e+00
    3.5190131021490041e+00 6.5294248293459347e+00 3.6052334313981000e+00
    -7.6004945095670360e+00 3.6307587225882703e+00
    6.0222749562191291e-01 3.6839484909307298e+00
    -5.2304939593673705e-01 3.7163372160374917e+00
    -2.4326465303432390e-01 3.8175225998968076e+00
    2.6060193104446010e+00 3.8569861982658722e+00
    -1.0870348908293184e+00 3.9313539740853591e+00
    3.4844833557903238e-01 3.9252161258914824e+00
    -8.3701039689264123e-01 4.0236388299067620e+00
    -1.0270720965488132e+00 4.0393286344681965e+00
    2.3548727212043543e+00 4.0532009906414324e+00
    -1.5369668241165866e+00 4.0896198805001909e+00
    -1.0634242796562410e+00 4.1889628724920485e+00
    -7.1460814108896986e-01 4.2718757977225410e+00
    -3.0737147925718122e-01 4.2526692419905983e+00
    1.7324865914732319e+00 4.3503307012870609e+00
    -3.6025605881049523e+00 4.3831682609203106e+00
    3.0098109146804215e+00 4.4660387455843420e+00
    -1.6242949890488856e+00 4.5373140354627646e+00
    -6.7969238491623096e-01 4.5375555868651656e+00
    3.7285942313665071e-01 4.5714268563114846e+00 2.8185929427214662e-01
    4.6476625282272179e+00 5.0840336864773512e+00 4.6944021000266511e+00
    2.0494502724747066e+00 4.7374982930297520e+00
    -4.4553127656243036e-01 4.7250287124904302e+00
    -2.1293121157808583e+00 4.8063603386328406e+00
    3.2233055424458170e+00 4.9094539315524326e+00 1.5665154303399051e+00
    4.8909909417954056e+00 4.3942989250091724e+00 4.9834657000654650e+00
    1.4057455424272333e-01 5.0548991586044236e+00 6.1022871837485748e-01
    5.0671492274830081e+00 -1.9095508655672757e+00
    5.0867872123107940e+00 -9.9788347428134794e-01
    5.1462079453670091e+00 -1.6858954228045606e-01
    5.2290621252000431e+00 2.2101734140928442e+00 5.2454022459477372e+00
    -2.2686053996825941e+00 5.3422394249144736e+00
    -2.4898440501320307e+00 5.3511000986811394e+00
    -9.6226440848398476e-01 5.3763904651053602e+00
    -9.2940419466207524e-01 5.4364631248825068e+00
    -5.2515175865956953e+00 5.4878330102047350e+00
    -7.8369395277792586e-01 5.5107924119104776e+00
    1.3987903239210753e+00 5.6212878889562043e+00
    -3.0175672872675330e+00 5.6944901974442335e+00
    -5.2961155635567136e+00 5.7137547902934731e+00
    -6.4642055183166125e+00 5.7204587969011715e+00
    3.1481599796185571e+00 5.7544426170808620e+00
    -9.7433008545443678e-01 5.8234015069358316e+00
    -7.2836376128220861e+00 5.8520063856303528e+00
    1.7149459670804863e+00 5.9363154421721696e+00 9.8277165551997558e-02
    5.9722130528753077e+00 1.5513130836896096e+00 6.0013242542593446e+00
    -3.5456009361808429e+00 6.0490480148208423e+00
    -3.0701778839567568e+00 6.1435752572688154e+00
    3.3689246571162994e+00 6.1558353282050753e+00
    -2.9075663887374779e+00 6.1784620887048112e+00
    -4.6962391018529193e+00 6.2541319144934802e+00
    4.8538406939256804e+00 6.3211791566301505e+00
    -4.9247959369298888e+00 6.2685323165705169e+00
    2.2509320407211297e+00 6.4109941289703842e+00
    -8.8039510490740032e+00 6.5150603079436991e+00
    1.3885716527364669e+00 6.5228791675907969e+00 4.6707861674558393e-01
    6.7133075481479851e+00 2.0983001754144692e+00 6.7954683072147786e+00
    -5.2915728522603296e-02 6.8844206025925674e+00
    -8.5060070630076567e-01 6.8679668522590900e+00
    -1.0203865562493422e+00 6.9792701533471746e+00
    6.6901560014506787e+00 7.0232488766181813e+00 7.7691666155243666e-01</input_scale>
  <output_scale>
    5.2631578947368418e-01 4.9999999999999994e-01 9.6391222062247160e+24
    9.1571660959134799e+24 9.6394456310467970e+24 9.1574733494944566e+24
    5.2631578947368418e-01 4.9999999999999994e-01 9.3178536558637466e+30
    8.8519609730705591e+30 3.6719570981388017e+22 3.4883592432318616e+22</output_scale>
  <inv_output_scale>
    1.8999999999999999e+00 -9.4999999999999996e-01
    1.0374388648732181e-25 -9.4999999999999996e-01
    1.0374040564938638e-25 -9.4999999999999996e-01
    1.8999999999999999e+00 -9.4999999999999996e-01
    1.0732085273422359e-31 -9.4999999999999996e-01
    2.7233433650596521e-23 -9.4999999999999996e-01</inv_output_scale>
  <weights>
    <_>
      -4.2371761104220305e+00 -8.6304288142911212e-01
      1.6820126228299133e+00 7.6303715204085742e-02
      -2.2781887317320964e+00 -1.1775971939021797e+00
      2.8378531388843203e-01 8.7902689426150382e-01
      -1.0851421316789061e+00 8.0033656281748633e-01
      -2.1018241749616129e+00 1.0762437623621692e+00
      -4.5848272016645242e-01 -1.6899588168052893e+00
      -1.6170579363529902e+00 1.7602628718614119e+00
      9.4867903891651473e-01 6.2367199707518295e-01
      -2.5086901735993828e-03 7.5277379259688831e-02
      2.0880402521737673e-01 9.0946359486607536e-02
      7.2445699711212630e-01 -2.1991288165005707e-01
      -2.4468552619023953e-01 -2.0158759186059902e+00
      2.9317503922618326e-01 2.4897849009460779e-02
      -8.2793564181735790e-01 -4.9972200766972130e-01
      -9.1012578181384174e-01 -8.5465308648010030e-01
      -8.9657281509444109e-01 -4.0755686012428294e-01
      -6.2300344331071045e-01 1.1305983005308902e+00
      5.6370519395044572e-01 -9.0985265490551381e-01
      5.4396157499361919e-01 1.3088317321628848e-01
      -8.7675645376443279e-01 3.2352961665436830e-01
      -9.4698986411894504e-01 9.2230866734411909e-01
      -7.6273158007862851e-01 6.3658434436300515e-01
      -5.6228069179151602e-02 5.6438360118549791e-01
      8.7434990880220842e-01 5.8770149161223861e-01
      -6.4990535019157958e-01 -2.4873891221738456e-01
      -8.7289381302527291e-01 6.1475929844999300e-01
      9.7838801648365736e-01 -1.0286519820617244e+00
      -2.2922055136987235e-01 -4.2942687765499754e-01
      -9.3951108733891908e-01 5.4770505031362404e-01
      6.9953100500996379e-01 -3.8474787930660037e-01
      -8.8979240024374739e-01 9.7828600829656676e-01
      1.4043708207996863e+00 3.5125538718967148e-01
      -1.3483546737766341e+00 6.9979364541822631e-01
      2.6162829931054699e+00 1.4847294342641535e+00
      -4.2612327323740540e-02 5.8140050698647183e-01
      -5.8636302978486654e-01 6.5172587379462854e-02
      -4.0146043310042434e-01 -1.5334397761676490e+00
      -1.5404219194401896e+00 2.9457894176822269e-01
      -8.4637018826677485e-02 -2.6472373591924842e-01
      -4.6420751601915433e-01 4.9312022413485901e-01
      1.3042983405099575e+00 -7.1996969493700824e-01
      1.0835731617791502e+00 4.7775131298670687e-01
      5.5931293253320347e-01 -2.2539520167363555e-01
      1.2123937128365525e+00 -8.0816695625980284e-01
      1.1949867873018453e-01 -4.0643330555137563e-01
      1.1727859692204432e+00 8.8871192761186835e-01
      -1.1567494231963029e+00 -5.5562382424247651e-02
      6.2485407212247801e-01 -6.1278332604318131e-01
      1.9929370835610855e-01 -1.1833088071207212e+00
      -1.0830718497344947e+00 -7.7276702681253154e-02
      4.7365697855829936e-01 -2.2391981772884062e-01
      -1.1558854797031690e+00 -1.0489337659120541e-01
      2.9730665193002154e-01 3.2604221115502752e-01
      -2.2343376967101011e-01 2.8034704279375661e-01
      -8.3387891006485804e-01 5.9255253425106623e-03
      -3.2777616552288402e-01 -5.7132530169352524e-01
      -2.7431511463925307e-01 4.3819994640549437e-01
      2.6443563825919775e-01 1.0297079982685464e-01
      -3.1095331357776021e-02 -1.9512532305420510e-01
      -6.7499102579539685e-02 1.8830529466908275e-01
      1.1880027117945102e-01 -3.1717277089807988e-01
      1.7473674253107998e-02 -8.0696084379409416e-01
      1.0797707961062127e-01 8.4939116465549483e-02
      -5.5834727557968623e-02 -2.5737135973055680e-01
      -2.7113007609206780e-01 1.6527929611007661e-02
      -3.1294846480691463e-01 -3.4908801078920054e-01
      -3.3224432612575977e-01 5.4779796063158193e-01
      2.2319614386917500e-01 -3.1727088898948064e-01
      3.1352783237659547e-02 3.0244407296528436e-01
      -6.1369913885137262e-01 2.4947988995439946e-01
      -2.2482034050594266e-01 7.0120443650231068e-01
      -3.6079468460162195e-01 3.1075320155625624e-01
      3.7952298575297444e-01 9.6805825264117240e-02
      8.5515422702561322e-02 2.0161084152013073e-01
      -9.6019581687577751e-02 -6.0938026735126896e-02
      -3.4333849701316027e-01 6.2017650231007582e-02
      1.9555974242537572e-01 -1.8577881754822018e-01
      -3.1870146577575698e-01 -3.9516664833868781e-01
      -2.0494129664318808e-01 2.4468091889167792e-01
      3.9983219660685282e-01 -3.6277721353938523e-02
      -4.0821846151278468e-01 1.9490061083558730e-01
      3.8995666483790425e-01 6.9279068067866012e-03
      -3.3996823871863185e-01 1.0133654691929573e-02
      6.1583977242767818e-01 3.7364901547228035e-01
      1.6198873374114844e-01 1.6413657593627576e-01
      -3.1009240514821029e-01 -2.1226153487777144e-01
      2.3015697531934676e-01 -4.6921911686606216e-01
      -3.1217524244038292e-01 2.4290679720625627e-01
      1.6113982256235970e-01 1.4170011088291133e-02
      -2.0736145175364831e-02 1.5190571336261621e-02
      6.8409475780602425e-01 -5.7210746135553714e-01
      4.0176212003003436e-01 9.1292144119277621e-02
      -2.0005492024782464e-02 -2.1790818766916942e-01
      4.2350717104268298e-01 -1.9989188465357066e-01
      2.8719492601937146e-03 -3.6834621614450952e-01
      5.9243372620967671e-01 2.7094218560826616e-01
      -3.3447821935592087e-01 -1.5345357769347620e-01
      9.6909111274062029e-02 -1.9110995875109521e-01
      -2.0391352124640530e-01 -4.6938879512333154e-01
      -1.7902278388155046e+00 7.1194846961789418e-02
      7.7227550713946225e-01 -7.3074051771702120e-01
      -9.5781959704459740e-01 -2.5807825297567671e-01
      8.7550937996285016e-01 4.6163830881130868e-01
      -1.2148606010186913e-01 5.5920701573193565e-01
      -5.6171941876246290e-01 -2.8142450624213583e-01
      -9.3951341565303492e-01 -1.3923833657458498e+00
      -1.4490631415943925e-01 8.2454907233569530e-01
      1.9809434217813804e-01 9.5711339020948111e-02
      -3.1528351836020298e-02 2.3136350503845667e-02
      -4.0236995095114220e-01 4.3369035645774096e-01
      1.5236978499182607e-01 -1.0830566966489894e+00
      1.8635613411578669e-01 -9.2586347974347860e-01
      3.7191258336626992e-01 1.5814011337034495e-01
      1.2179715630190162e-01 -4.0809114278762226e-01
      -4.7022858916689370e-01 2.8979030356419716e-01
      -6.1265674606748122e-01 -8.1595809578731460e-01
      -4.2423971701125923e-01 1.1261481400817988e+00
      3.6939880720296459e-01 -7.0274226735041734e-01
      -1.3028350578048525e-01 5.8722148943606312e-01
      -1.5147734026683604e+00 6.8688942903885541e-01
      -1.9163243396049506e-01 1.3564988105373443e+00
      -6.5010061434470290e-01 7.5716709642923896e-01
      1.1736926751314301e+00 1.0057602361382256e-01
      -1.0365275145841250e-01 3.7633575755766396e-01
      -8.3788441181886197e-01 -2.5426793842950157e-01
      -5.3963227883668818e-01 -5.5315344948288103e-02
      1.3630056724996123e-01 -4.4429826041964732e-01
      1.0514346678395250e+00 -9.4940526711194195e-01
      -9.7827029860970208e-02 9.2328322001336516e-01
      9.0553668134949261e-01 -8.7981498750240927e-01
      -9.2280366698593119e-01 3.7720915410515654e-01
      6.2825829362977959e-01 -1.0343777081292986e-01
      -2.2212550604203743e-01 -2.3317944062823578e-01
      1.1051891291458971e+00 1.2679498443024151e+00
      8.5144712783333998e-01 3.4782115409487652e-01
      -8.9468585409109547e-01 -8.3819861055242395e-01
      3.0635253398350143e-01 -1.1893357607781168e+00
      -9.5374923732323225e-01 7.3390354613148490e-01
      7.9034539920726732e-01 3.7165928875702664e-01
      1.1730771463882275e-01 -4.1506950226577372e-01
      1.3773237269236909e+00 -1.4223208382134178e+00
      7.4727829188035888e-01 4.8082932834252960e-02
      4.2584342829754390e-01 -5.8042406332175678e-01
      7.9640539150597833e-01 -1.8114452882304330e-01
      -1.4525495316756956e-01 -8.6771478372615374e-01
      9.7973356035816150e-01 6.4378526237486189e-01
      -6.2514314379564184e-01 -1.1802765601531846e+00
      2.4652492382746947e-02 -3.2526854341534400e-01
      -6.6077298535231743e-01 -6.4022924478321230e-01
      -2.2792809982490065e+00 -8.0168186457201118e-01
      8.6600488521448604e-01 5.1958566572833786e-01
      -3.3976231991378764e-01 -1.1357822324866249e+00
      -4.5423701742823919e-01 3.8675308642141609e-01
      -6.8016913969152015e-01 3.0747316023776949e-01
      -6.5838414418375901e-01 9.2994876025358264e-01
      3.4265656150323454e-01 -5.4285525688919256e-01
      -1.1494198152486368e+00 4.1830253375871862e-01
      6.2199834978901947e-01 5.2649106763350517e-01
      -5.6410326720124943e-02 3.4906964348837993e-01
      4.2565090437467296e-01 -1.8100763392592953e-01
      3.9845114038393720e-01 4.9792792460924334e-01
      -3.2453924162468550e-01 -1.2775188741267818e+00
      7.3729431627585322e-03 -1.2562881243531859e-01
      -7.4614511202427636e-01 -1.4032532671496417e-01
      -4.1601946066654610e-01 -8.2740990405673109e-01
      -4.2622249543130936e-01 3.9557491509522806e-02
      -3.6882867356536414e-01 9.8457578568035969e-02
      2.2409530733827282e-01 -2.7478717892599208e-01
      5.4829435796715953e-01 -3.7807911465387017e-01
      3.5984655687898598e-01 -1.5505531965001296e-01
      -5.9613416092218341e-01 -3.6233396242751575e-01
      -9.6159308985065944e-02 6.6683541444273298e-02
      -8.3217731328485467e-01 4.1094243895459714e-01
      7.2793359476291575e-01 2.4081205476971421e-01
      1.5344890498754329e-01 1.0916273946725244e-01
      -4.1614296208864610e-01 6.0233978499909091e-01
      5.9888105248736678e-01 -6.2853304506472762e-01
      -4.6889546039882007e-01 3.0847965610855732e-01
      -5.3354873584044171e-01 -2.6772848213583444e-01
      -4.5469318114688635e-02 8.8812872209642832e-02
      -2.8304289080273509e-01 5.5416076716248319e-01
      5.3602802999272892e-01 4.1811686664882702e-01
      -8.4440812481366490e-01 6.4951990112563507e-01
      9.2491313397985331e-01 5.6852667540801183e-01
      -6.6583874741320614e-01 2.9977103241599096e-01
      2.9048906869002222e-01 5.1237290906561617e-01
      -7.4886714738239579e-01 -4.6259065259287013e-01
      -5.2792287878747213e-01 -1.8995610257504264e-01
      -5.9003032723062621e-01 -5.6299995917674250e-01
      -4.4449633645465536e-01 7.1936736560441605e-01
      3.1406853545768088e-01 5.0955746279306280e-01
      4.2305548675218968e-01 3.8722539543573220e-01
      3.2312165973507501e-02 2.0890398053128850e-01
      4.7560054757093706e-01 -4.4685633350090903e-01
      2.0037744386765713e-01 2.5197564473980533e-01
      2.7635738446131747e-01 3.7671486836145252e-01
      -5.5168192123678050e-01 9.1342409373533218e-01
      5.0132239425425773e-01 -3.6048980716593881e-01
      6.0063319383272329e-01 -4.8155473404205118e-01
      2.0604717631522527e+00 5.7913515861249165e-01
      -8.0145157311122539e-01 -3.8167522673902393e-01
      7.0596999469723731e-01 6.6246654918837078e-01
      2.5609238224279579e-01 -4.0513689228618194e-01
      5.2350993339953555e-01 -3.1090501747116872e-01
      1.1414432250883775e+00 -7.9579299420576366e-01
      -8.8831489987888673e-02 4.4564116156838346e-01
      7.4420656609713776e-01 -4.8385490486492372e-01
      -5.3234645508169509e-01 -4.0331400018691022e-01
      -5.3237397361486985e-02 3.6057204788183597e-02
      -2.4971295438941934e-01 1.2828807237479919e-01
      -3.8790046738668743e-01 -3.2311751570158076e-01
      2.4990348854223363e-01 6.8807775299114626e-01
      -4.5526338622928555e-02 5.2703267857539558e-02
      5.7944319046274151e-01 2.3606001242636471e-01
      4.0051967100008429e-01 6.5211304842368167e-01
      4.5516536874552938e-01 8.5195596544889278e-03
      3.4019468655140556e-01 -3.3891518778289809e-01
      -1.8421226983971561e-01 3.5168609645689042e-01
      -4.2794261328759309e-01 3.2854497245273567e-01
      -7.6167171063947894e-02 4.2893878606208719e-02
      5.4732020167722251e-01 4.4322575541707904e-02
      1.9633190095168257e-01 -1.2105277007070749e-01
      6.3409559334524179e-01 -3.3946561047525758e-01
      -6.4868079532144762e-01 -2.9906904311690369e-01
      1.4743225518769135e-01 6.8997349252060289e-02
      4.7618467456723707e-01 -5.0272737898301434e-01
      -5.3995084365526713e-01 4.9308152540641620e-01
      4.6979719897481492e-01 -1.9256881713944726e-01
      5.9016176708053569e-01 -9.6911555416053730e-02
      -1.0772628204159365e-01 1.9796241464835015e-01
      2.0094265545885096e-01 -4.8223308430529571e-01
      -5.9054747420926612e-01 -2.9355800436934670e-01
      6.4629200894072703e-01 -5.5845716648889865e-01
      -5.3167348448921103e-01 -3.5884209770231884e-01
      3.4641001640625363e-01 -2.6660306300751874e-01
      2.2875347999496612e-01 -3.8765826429944067e-01
      8.0791548674857583e-01 4.3254254889427107e-01
      4.3125047190984084e-01 3.3506896305240737e-02
      4.4276666570544260e-01 2.5140782023415581e-01
      3.5279258209706660e-01 -5.4074093311499316e-01
      2.0829735746768253e-02 -3.3031743120637620e-02
      -4.1499554984114012e-01 -2.9724290671021181e-01
      -2.2565138502540674e-01 -4.7394177608365888e-02
      -4.6026335232392790e-01 4.4226082177635812e-01
      -1.3744579826076334e-01 -1.2853929842855172e-01
      -1.2555949126879382e-01 -3.3724655741958048e-01
      4.4616834290827323e-01 -7.0846197621153872e-01
      -4.4171617716706491e-01 2.0765957961316056e-01
      -4.6791920940846032e-01 4.8148161609979473e-01
      -5.5853033031719246e-01 -5.0484584704234947e-01
      -3.6814427281017009e-01 8.3651497278178577e-01
      6.3792376947578422e-01 -7.7532916200360513e-01
      -6.7753331844082354e-01 1.1079061005173578e-02
      -3.4903222357711339e-01 -1.2896236384355181e-01
      5.1506131496394747e-01 7.9160436688480562e-01
      7.9792192169587972e-01 6.8189168054431670e-01
      -8.8075304198988236e-01 -2.2674105152574550e-01
      2.3012718303191393e-01 3.0352316512871219e-01
      3.6837682282672722e-02 3.3448759375008735e-01
      5.8393339479259099e-01 -3.9279598455710529e-01
      9.9006690396071503e-02 1.0751703054209145e+00
      -2.7599942570345143e-01 -7.0688793209764822e-01
      -1.2425826234166339e-01 -2.6148744259124468e-01
      -4.9558956459179748e-01 1.5483208199211318e-01
      6.2536936774828453e-02 -5.6909422417174838e-01
      1.5647604231198411e-01 7.0833372087963120e-01
      1.0561585015384517e-01 -6.2396274859223755e-01
      -6.0531225773816484e-02 2.7261857828344765e-01
      3.9766478737691402e-01 -4.8650990544462636e-01
      8.4703592543656003e-01 -5.4631105790507328e-01
      -2.0297663701790805e-01 -1.6117816293516232e+00
      3.6070578080091653e-01 -5.0773234363752784e-01
      -1.3115913881372474e+00 2.1324177574780279e-01
      4.6031120017322869e-01 -1.8890567661735685e-01
      6.3281974089094906e-01 4.3058480350204159e-01
      2.2917522412020169e-01 4.5238872825936322e-01
      2.3696184168264650e-01 -1.2052730725809878e-01
      6.8145970612697601e-02 7.5181678893529458e-01
      -3.9615041829984693e-01 -8.6841649707406643e-01
      -6.5431220740705154e-01 3.5366681950532664e-01
      5.4631773370968040e-01 6.2094189961910129e-02
      -1.9108532910557680e-01 3.6263262551943204e-01
      -4.5291421012092881e-01 4.8009760727076245e-01
      5.2772244562852266e-01 -3.9551993596224605e-01
      -1.1826129680223163e+00 -8.5220910200520077e-03
      1.0012172435055973e+00 9.5435636834027193e-01
      -1.8363393343465909e-01 4.3549673528632432e-01
      1.8664468441827725e-01 -6.9334962063622207e-01
      -8.9468619194800514e-01 -4.1934479137243819e-01
      -3.3340949003396758e-01 7.4980348068651104e-01
      -7.1839503375933456e-01 2.0118090133740272e+00
      -2.7101458412467039e-01 2.0877959074853336e-01
      -5.7045012462131439e-01 4.5689213667311851e-01
      -2.9206719470512688e-01 -1.4060785909774451e-01
      2.8000489395402622e-01 7.6129895361424282e-01
      -5.7124165950027062e-01 -1.4694027263875750e-01
      5.2332255451472250e-02 1.0394585713172131e+00
      2.7383830223340871e-01 5.3777091382944502e-02
      6.5060464137998886e-01 1.6037827876416949e-01
      -1.5488725294570835e+00 -4.7238647983893145e-01
      6.9360358436517733e-01 1.6983351011959236e-01
      -1.3482861330014360e+00 -1.2951763722983389e-01
      -1.2579462543401589e-02 3.2207111280671535e-01
      -4.5001148694715731e-01 2.3512030354049537e-01
      -9.2580292847121837e-01 3.5352435656347525e-01
      -1.0575556812083657e-01 -2.9648694354807054e-01
      -7.1437939165615372e-01 4.6543053540167884e-01
      4.2254253976807044e-01 3.0154130064325835e-01
      -4.6444417366650843e-02 9.1769796328623032e-02
      1.0560938102260192e-01 -8.6495944744751762e-03
      2.8017565177909054e-01 3.9452303062940432e-02
      -1.8656462579686547e-01 -1.3679059691273510e+00
      6.0033743962533470e-02 1.1415926830430924e-01
      -4.6472474679199405e-01 -2.2075224816321196e-01
      -3.0297413426812858e-01 -5.0091581186990841e-01
      -3.0577971505537765e-01 -7.5255832683887872e-02
      -1.4436363582639070e-01 4.8168533094007382e-01
      1.3849923318276774e-01 -2.1499652586671461e-01
      2.9693189098361744e-01 -1.3465061762397890e-01
      -5.4194979242816399e-01 6.0227767891628189e-02
      -4.5756675072505826e-01 7.0095809926114749e-02
      -2.7573156097727397e-01 9.3672027099253985e-02
      -2.1649628230134516e-01 2.2595188855300441e-01
      4.4875283295276008e-01 2.4235589831141288e-01
      -2.4790158039157234e-01 2.1208706080619935e-02
      -3.2931923034238186e-01 2.6910632852739697e-01
      4.7389351529160706e-01 -3.5393358264116348e-01
      -1.4231019791985262e+00 -1.0269842375103523e-01
      -4.6341119127057595e-01 2.3572988196007474e-01
      1.7649906830465090e-01 1.1453373599447529e+00
      -1.1956898784766590e-01 3.3434106512257972e-01
      5.8965505111991146e-01 1.4389533332795149e-01
      -7.0001539357671794e-01 4.2286538429315618e-01
      7.9629658230016198e-01 2.7037510702688811e-01
      -3.4299852038402169e-02 2.6060040761145858e-01
      -2.0232167258510653e-01 6.4711443122160997e-02
      -9.4357544754291489e-01 -3.1701931514959547e-01
      -4.6206275683865783e-01 7.0778442860335272e-02
      -2.4657080303512896e-01 -3.0898637748240787e-01
      -2.7995847201007229e-01 3.4753327230536862e-01
      3.8313550842449412e-01 6.8123922212980317e-02
      3.3506327088406618e-01 2.2151369014058395e-01
      3.0669054008452468e-01 -2.9242411220736179e-02
      3.9895475167925898e-01 -3.3687075814416156e-01
      9.6024885553514572e-02 -5.8940977077457976e-02
      2.7330659713084093e-01 3.2474345574885372e-01
      -3.6739651174862076e-01 3.7904086709623153e-01
      3.0175664162678428e-01 -2.9955168867381082e-01
      3.5504567170001983e-01 -4.5585988583378156e-01
      -1.2914762050314947e+00 -5.0291209491150801e-01
      4.5724216287611469e-01 2.2073468142162397e-01
      2.7422853920011403e-01 -4.3933407363001559e-01
      -1.8352471595143885e-01 2.6968667504700339e-01
      -5.6445494793498663e-01 2.4769561448365748e-01
      -4.3467899940274557e-01 7.1689893183291609e-01
      7.1579402039056411e-02 -3.4039192088789294e-01
      -6.7874664410788133e-01 6.0483942037879057e-01
      4.7742156438814920e-01 3.2089607458239783e-01
      4.7341605265526776e-02 2.0981389626975974e-02
      1.7363015849340382e-01 -1.0225105005256249e-01
      2.0024752742786167e-01 1.4556843512270898e-01
      -1.6071089653318935e-01 -3.2443938468788586e-01
      6.7818018300236357e-02 -3.5838881882967126e-02
      -4.0116982171673654e-01 -3.3618522143245483e-02
      -2.9409971563900728e-01 -4.6935281930144551e-01
      -3.1350965535459202e-01 2.1000715341492556e-02
      -2.7070870964015850e-02 2.0905282208204498e-01
      1.3950724632280714e-01 -3.2368402761680881e-01
      2.7540859957855135e-01 -1.6512063909906999e-01
      -9.0045887909003267e-02 -4.6290340192456966e-02
      -3.8850998741278575e-01 1.4793006466103131e-01
      -1.7920086780241640e-01 5.8226074166446137e-02
      -1.7906572285350816e-01 2.3920128472700541e-01
      4.8826437500472547e-01 1.2655228221110293e-01
      -2.4395933033687256e-01 -6.3726878058811651e-02
      -2.0558715368960392e-01 3.3362895676761556e-01
      3.1721830821192337e-01 -3.8898315709620601e-01
      1.5624099341618949e-01 1.0137051505872800e-01
      -3.8911833201796653e-01 3.8958049057080675e-02
      6.6751839407592869e-02 -3.1743229372210741e-01
      -1.4189255511457891e-01 4.3799474205217942e-01
      3.9345871629309154e-01 2.2474705768573866e-01
      -3.3397328813986454e-01 3.5423515316296111e-01
      1.1836108833168992e-02 4.9312645988686943e-01
      -3.9651546452251984e-01 1.4769036932705018e-01
      -8.2658052832552592e-02 1.9369887636210162e-01
      -8.3959531431801082e-01 -4.3179790013153446e-01
      -5.2905978074111559e-01 -5.3363536304005234e-02
      -3.0093333161970820e-01 -4.4419925424115914e-01
      -2.6404047965778155e-01 4.2813761657102045e-01
      2.3023861575338023e-01 -8.0556454397380212e-02
      2.5235365673581206e-01 2.3187453242883471e-01
      3.0552216704943708e-01 7.9682831979008634e-02
      2.9205634220829868e-01 -3.1136677716643130e-01
      1.5794456031614498e-01 7.5940895834920655e-02
      9.9518751320700038e-02 2.7587084160387748e-01
      -3.5778356227521968e-01 4.1007020174588998e-01
      2.8270103386386441e-01 -7.8091834384541273e-02
      4.6956137360304445e-01 -3.3641489634142790e-01
      -1.0621245576184382e+00 -3.3281229606343005e-01
      2.8777066228477638e-01 3.8832640797983192e-01
      -1.2169426509806736e+00 8.4320518202760680e-02
      -4.3497668374086473e-01 5.8258484651102192e-02
      -2.5507430436481460e-01 -2.1202056866219749e-02
      -6.2460552222576560e-01 3.6008656331411415e-01
      4.3754383445974587e-01 -2.3212573194979147e-01
      -2.2406044919106871e-01 4.7046367532876249e-01
      2.0832283158119402e-01 1.4518576157570623e-01
      1.0143883732832336e-01 -1.7014590444166650e-01
      2.5575246541988722e-01 -2.3393896938646422e-01
      1.9545104505251731e-01 4.7622919097906830e-01
      -2.1164009380463744e-01 -1.2933294251620164e-01
      -9.2348222492019974e-02 -8.8987097591736147e-02
      -4.0431957980637628e-01 -1.7110398614681711e-02
      -1.1773749522349612e-01 -4.8842319957214930e-01
      -1.2371151184683964e-01 2.4360426648325748e-01
      2.5609485086621791e-02 -2.2529786143591052e-01
      -2.8870810228117483e-02 -1.2412760042886274e-01
      2.5895508063483419e-01 -2.6057870136174943e-01
      3.0467975463813485e-01 -2.6038595777626961e-01
      -3.0543662935172233e-01 -2.1475324021731060e-01
      2.1468177733734722e-01 -1.8813724629773559e-01
      -5.8034359600971719e-01 1.1768440386754603e-01
      3.9790800852866454e-01 1.1951366343785935e-01
      3.1267061382798417e-01 1.4695370502632779e-01
      -6.0983238376423235e-02 2.2776223392727435e-01
      3.2590218539498228e-01 -1.9012878342426442e-01
      -1.1783035145994861e-01 3.8900847736625821e-01
      -3.0517697677482103e-01 -3.1456558057657091e-01
      -2.4477770414888458e-01 -3.3002018730933023e-02
      1.4969695321161908e-01 1.5260441546419998e-01
      3.7248512477329732e-01 1.6116093829576972e-01
      -2.2862288282600507e-01 4.1701390943709621e-01
      1.9659821890342147e-01 2.4086499700138451e-02
      -3.7785522803634225e-01 8.9760979343201347e-02
      3.5206227404888846e-01 4.7020925408155118e-01
      -4.7894113786329967e-01 -1.5617028881140391e-01
      -2.5466543364302324e-01 -2.0262586490645795e-01
      -4.8542711727733789e-01 -5.6523256019032453e-01
      -2.4038262420295142e-01 4.0311131198505440e-01
      -2.3989753717727602e-01 4.5955135036815781e-01
      9.2825468744317255e-02 1.1911802083224009e-01
      -1.1153221299044275e-01 2.8119838739545494e-01
      1.0664375555273647e-01 -2.2943952864183847e-01
      1.1170940861751083e-01 3.4484147353354189e-01
      -1.2078552677930837e-01 1.4499317718321600e-02
      -1.5136568061485614e-01 4.6111952329166966e-01
      2.4851272773323688e-01 -5.8315540403228644e-02
      4.8046601781497916e-01 -2.0889553634953203e-01
      6.8198651334951399e-01 2.7013419873034278e-01
      -6.5095409359291383e-03 -4.6173627591973737e-01
      4.4211185513747570e-01 4.9800576790271611e-01
      4.9855651322857686e-01 1.0235953668735932e-02
      1.6124263889283069e-01 8.9330019597590529e-02
      6.8913323940093585e-01 -5.1055848814452220e-01
      -3.8861431753762721e-01 -4.2778847488393423e-01
      4.3585738493392762e-01 -6.8500255005269711e-02
      -9.8079513398034765e-02 -1.3964098226742885e-01
      -1.4870767288423518e-02 6.2025289447741432e-02
      -3.2421907841139846e-01 2.3049902573318298e-01
      -1.1356578147417051e-01 -4.7773428813984675e-01
      1.3673451512395893e-01 6.1340791281937690e-01
      9.0915408881125065e-02 1.1325534443297659e-01
      3.2615870794414603e-01 -4.4097955120411633e-02
      1.1937831134757508e-02 4.6715503414181692e-01
      -1.2935281320122383e-01 -3.4597698414942529e-01
      -2.1707152388487011e-01 4.7465531730032323e-01
      4.4126742758501543e-02 -1.5047199456605598e-01
      -2.6673619475091531e-01 3.2639730264597566e-01
      -7.4577624933788433e-01 2.9973595284195748e-01
      1.5889331482792304e-01 7.5717825055437837e-01
      -2.3800746258857419e-01 2.4558086936652196e-01
      6.5218194495878790e-01 -1.2223004623978713e-01
      -2.9490557902641906e-01 3.7194280519103791e-02
      -3.5371526803034725e-01 -2.0229989484031397e-01
      -8.1543878441163897e-02 -2.2665885987993861e-01
      -1.9572555736398328e-01 1.0582327886274086e-01
      1.0496937688956900e+00 -4.8240420351741092e-01
      2.5983339760116964e-01 5.1292049360363579e-01
      3.2188355894434617e-01 1.5520932189214118e-01
      -4.4584036234249408e-01 -3.9312472626091992e-02
      5.0151080008455596e-03 -2.0596407378554629e-01
      2.8904895395159214e-01 -3.5270130243633874e-01
      -5.1201476755356656e-01 5.0631199891268741e-01
      4.3581105380034851e-01 -2.8594683396230454e-02
      -5.4544135244196335e-01 -6.0362510632765154e-01
      2.8611554892170082e-01 -9.5271617875461873e-02
      -9.8397713865118804e-03 2.9194889050961587e-01
      4.9694484944739387e-01 3.1736583471283442e-01
      2.0874930217273868e-01 -3.8428266815887041e-01
      7.7108230263723243e-01 -7.7063693763852970e-01
      9.7262411221156253e-02 -7.3717647547074633e-02
      5.2377562233083763e-01 -2.8252002430889978e-01
      4.3290542895004662e-02 1.4201969812779355e-01
      -1.2533704328080178e-01 -4.0684138740630110e-01
      4.9848433174400225e-01 1.2233421502354562e-01
      3.0238860576114739e-02 -7.4585792942642570e-01
      -1.7893733637089110e-01 3.1709276582278879e-02
      -5.0985682433407420e-01 -1.6546563435626108e-02
      7.6243785445427170e-01 6.0037030080759890e-02
      -2.9277242253392211e-01 5.6618607857877305e-02
      1.2534045201278840e-01 -5.5690816756619410e-02
      6.4190602257736457e-02 -4.0887995833831875e-02
      6.8651463248667374e-02 -7.8934280955158087e-02
      5.5449701294294673e-01 2.0809414881431249e-01
      7.1301932066712509e-02 5.6326069357243536e-01
      -3.2982661031238390e-02 -2.9234063129918558e-01
      -7.9611120750617395e-02 -1.6813946638249130e-02
      -4.8312718417760442e-02 2.7931309991836784e-01
      2.2721219855047159e-02 -2.5407003017883428e-02
      -6.5034293206766305e-02 1.1018043211611524e-01
      2.7987282265177403e-02 -1.1969714796121683e-01
      -4.0603749039902624e-02 -5.1736141722316838e-02
      5.2352563634841824e-04 9.4317435742275454e-02
      1.0960332105796211e-01 2.3257911519988125e-02
      2.6846025819663955e-01 2.2923533777723126e-01
      2.9766266218495047e-01 -1.0163564818927392e-01
      -6.8835230315847859e-02 2.4320343154789609e-01
      -2.8008946564006119e-02 6.3817436443007122e-02
      -1.3680961978287851e-01 -4.3427201761940676e-02
      1.3652360935813365e-01 -4.0910609671992332e-01
      8.4672238165471952e-02 -2.0005541885040123e-01
      4.9821543316282767e-02 -4.4981040646874984e-02
      -3.6597563931911666e-02 -1.3634633303750021e-01
      -9.2643107342595038e-02 1.0166306580824505e-01
      2.8266818713207353e-01 -1.2748188484885051e-02
      -7.4305442993129425e-02 1.0257823086061252e-01
      1.8152242464828386e-01 8.6476959918049517e-02
      1.6914903301448674e-02 6.2002431696255411e-02
      -2.1183128143344926e-01 3.1693318170159973e-01
      3.6767824792164283e-01 -8.3814954372899278e-02
      -2.7609832765718068e-01 -3.1544172363355844e-03
      7.4544850897760473e-02 -3.0909062263805305e-02
      -2.4391371233538406e-01 -3.6083375767037135e-01
      -1.2967940902593125e-01 -6.7791227592643763e-02
      -2.8553921553106522e-02 7.5212135895964177e-02
      1.0166881123963604e-01 2.6398087864232417e-01
      2.4533098177037804e-01 -1.8949180122410891e-01
      5.5495315858728267e-03 2.5882650999171763e-01
      2.6492583444378333e-04 2.9386848616187799e-02
      -7.3654784860139966e-01 3.6953402160419108e-01
      -1.6123807647666943e-01 -4.8362058534810091e-02
      -1.6656545242347248e-01 3.9831244936859897e-02
      -1.8690305152683317e-01 4.3554322429577838e-02
      -5.4949694159410157e-03 5.1291681754158130e-02
      -6.2667685603775292e-01 -1.0747109197914487e-01
      1.4040469595115207e-01 -5.1026165843476201e-01
      -2.9707493335764841e-02 1.6017538524982847e-01
      -9.5881621321698252e-02 1.6840334723400813e-01
      -3.1909348204687416e-01 7.8714935670130062e-02
      5.8597249445961265e-02 -1.2774342164515198e-01
      1.7192665731545414e-02 1.4278028298357992e-01
      -3.8930497134938319e-02 -1.5821932536679396e-02
      8.8079598851437998e-02 2.4214091604655062e-02
      8.2740091152460549e-01 -1.5145734968285371e-01
      -8.2136574977140497e-02 -7.1363079835799681e-01
      3.9699912273335725e-01 5.5356122720258438e-01
      -9.7277828109407494e-02 -1.5954614080773016e-02
      -8.7185714074609968e-02 2.4790107506496618e-02
      -4.1006082200919579e-02 3.6307905996323525e-02
      -5.1210706420153122e-02 -1.7927722058093415e-01
      1.1181096322179975e-02 4.0921843305144529e-01
      4.7463550850137502e-02 2.4648745356216167e-02
      6.8583015310332743e-02 -1.8452970083851324e-02
      -4.4868522597044720e-02 9.0305585269776556e-02
      -5.8195795470092876e-02 -1.1773189302611889e-01
      -8.9178760566075238e-02 -8.9087862923600492e-02
      1.0275849347099348e-02 -2.7846580495374362e-01
      -5.1923813595151101e-02 -7.1522212639976823e-02
      3.6607962658270271e-01 6.2518478905213892e-02
      9.7846354460729146e-02 8.5548400987974249e-01
      -5.6668615787164853e-02 1.0539907545872046e-01
      3.1929186961171735e-01 -1.1913572945502965e-02
      -6.9751624963622777e-02 5.5680783243939623e-02
      1.5255891793793008e-01 9.5791762831130403e-02
      -6.9455263835482658e-02 -2.5969179903974730e-02
      -1.1958414887645705e-01 -2.4989945419847927e-02
      -6.2772736984665423e-01 -9.7983144381781934e-02
      5.6162818775626143e-02 -7.6150193431567301e-02
      1.0964735537545171e-01 7.7663005860491974e-01
      -2.5042274438591366e-01 5.5482618304267810e-02
      3.1971359934729637e-01 -9.4436240244882806e-03
      2.9062879523946406e-01 -9.6780301594584395e-02
      5.5931517767973415e-01 5.0483634831444202e-01
      1.3368248877349870e-01 -1.0166223499978939e-02
      2.0614322478695030e-01 -5.1016086409526901e-02
      -2.4960314023764416e-01 -2.3169443185076294e-01
      -4.7953064744287865e-01 2.1010881013432145e-01
      9.0415585518347566e-02 -2.5061986085868188e-01
      1.0220388892996498e-02 -1.0151724171655932e-01
      1.3449571290647071e+00 -8.2900335181323515e-01
      -7.9788627733508432e-03 -3.5433730430112553e-02
      -8.3393106600971698e-02 -9.8901145309307395e-02
      -9.6673541621967327e-02 3.8856822884808247e-02
      -3.9151871340435018e-02 -1.0716353198711033e-01
      7.5423662300534211e-01 8.1976044556464761e-02
      -1.9816102397500815e-01 6.4031495572348218e-01
      -1.6947668751108012e-02 -4.4702676430385439e-02
      4.0461016935663787e-03 -2.5758526186880254e-01
      2.9071514330316678e-01 1.0061759144583272e-01
      -3.9806864300787587e-02 -6.4390047550692942e-02
      2.0675068878325270e-01 2.5666585695407257e-01
      -4.7720716077302709e-02 1.1165913673985546e-02
      8.9769003098677469e-02 -4.7669246311249351e-02
      5.5595468813932292e-01 -4.2071368327245978e-01
      -4.6571501223134394e-02 1.1973460025354756e-02
      3.4058248776886935e-01 -6.5198805597742548e-02
      -1.0199858111015075e-01 -9.3117342526471372e-02
      4.2195274268825203e-02 2.7085367809467131e-02
      -9.6320010844829620e-02 2.0319514112568039e-02
      -1.1252383511651062e-01 -7.8742315188622486e-02
      4.2560740267488781e-02 4.1903534535092174e-01
      2.2756428018667452e-02 -1.6040688836353630e-02
      1.8933069473980657e-01 -1.1669497955135897e-02
      8.4256070816655107e-02 2.0554844912820103e-01
      1.7051936933512910e-02 -5.3037629181438117e-02
      -4.2744399449414071e-02 2.1787264686611529e-02
      2.3284317247868131e-04 -4.3652992935799342e-02
      -8.5617020272019492e-02 7.2098297784137053e-02
      -6.6362791046899919e-02 1.3850670394596604e-02
      6.7373789562927666e-02 3.7104251680075645e-01
      2.9408008487260034e-02 1.9374211364250046e-02
      1.8898547458238721e-01 -3.6697934457999480e-02
      -1.5711540831653664e-01 7.8331207149114571e-03
      4.5204507445672899e-02 -8.2147240057809295e-02
      -3.4972166541952732e-02 -9.8543695063074851e-02
      -1.0809297450836558e-01 9.2735884746394673e-02
      3.0652216467213000e-01 4.3289802538780946e-02
      4.4814004415631686e-02 -4.6821657378261550e-02
      -8.9549230069466031e-03 1.1560632123612700e+00
      -6.5654950487599187e-02 -9.4755689361997866e-02
      -1.2632303657659957e-02 -5.5493669951949001e-02
      1.7933176137626183e-01 -1.3584671337975779e-01
      8.3112554854085183e-02 1.3336617860037609e-03
      1.2690333337195106e-01 -2.1166997681969633e-02
      5.3641989968365479e-02 -5.3072621408460252e-02
      1.6085759234966018e-01 1.5446898411454849e-01
      7.4620127611068038e-02 1.5225368426458366e-01
      3.5542731009640449e-02 4.1299730765099707e-01
      9.7272423103716005e-02 -7.2475580779666288e-02
      4.0276811140342900e-01 -2.6677747599463048e-01
      -1.1139255116382082e-01 -1.2376950610628599e-02
      -7.1977213645145921e-02 -3.3334683716096797e-02
      -1.0445635748853302e-01 9.1650067031486551e-02
      -5.2580777485451126e-02 -7.2190085985199357e-03
      3.3555174788718994e-01 -3.2244404804234642e-02
      8.0466944843122182e-02 -1.5090360758894023e-01
      -8.1652186384265107e-02 7.1321973936871513e-03
      -1.7907156743181338e-01 2.3022599120835419e-02
      -1.0593683588954632e+00 -1.9306328554690669e-01
      4.1157111226939425e-01 1.0873822129001047e-01
      -8.9728668298073977e-01 -2.3956365833313448e-01
      -1.5171340751151530e-02 1.6319742669606283e-01
      -2.0231010334837901e-01 1.5181509093242374e-01
      -8.8893829149216785e-02 2.0511755417020036e-01
      -1.8864184351333815e-03 -5.1672790359321352e-01
      -2.6455093356126469e-01 2.1010783431652902e-01
      2.1454682718588489e-01 1.5880126203653250e-01
      -5.4550690667801660e-02 -4.0585434893926776e-02
      2.1971603584751642e-01 -2.8100900022458800e-02
      1.3945875114389097e-01 7.5452636141700363e-02
      -9.8555245557439580e-02 -4.9935260978013446e-01
      1.8056029043530195e-02 -1.1502263642976279e-01
      -1.6683931505433233e-01 -1.5441950543321256e-01
      -1.9050243354580249e-01 -1.8166029919043608e-01
      -1.9246899056638012e-01 -9.2522376141243520e-02
      -3.3821005659670494e-01 1.3661992697984805e-02
      9.9863992217468625e-02 -1.4369944841068519e-01
      2.2645338918925187e-01 -1.6186914192390814e-01
      2.5128454351636131e-01 -2.0179376418043220e-02
      -1.5705533808739119e-01 2.5516340741742055e-01
      -8.9014742164346683e-02 1.0068143840304813e-01
      -1.8653978129108728e-01 1.2205267216427218e-01
      2.2399460880865482e-01 1.6272975604059506e-01
      2.0719321844500904e-01 9.4196087239541440e-02
      -2.8291857606026583e-01 2.9229663460345956e-01
      2.2547794499574311e-01 -2.6478753182107906e-01
      -6.3764204851458939e-01 3.2835996548729478e-02
      -9.3751579600213047e-02 -2.2696751008265642e-01
      4.3206897390057189e-02 -6.9283698092170477e-03
      -2.3973827227908240e-01 1.8658660550593870e-01
      3.1730666379319239e-01 1.4265133061366092e-01
      -3.5213564795382091e-01 1.4720416095225258e-01
      1.0606927986884724e+00 1.9215342502885596e-01
      -9.8584045926447844e-02 1.1382707609772347e-01
      4.1681755979429230e-01 1.2297936925712048e-01
      -5.6113812697530219e-01 -1.1778450429909371e-01
      -2.0643361959342615e-01 8.6695231912715359e-02
      -1.0419177827685677e-01 -3.1567786209836396e-01
      -1.3099418534730170e-01 2.1113913044383761e-01
      6.8994799187833444e-01 -8.8053102848528242e-02
      1.5683722636709088e-01 1.2316918690280006e-01
      -2.4512839694283922e-01 1.8293856140721838e-02
      8.7944316175695064e-02 -1.3958410806974533e-01
      5.5316487788229333e-02 3.1072639537109085e-02
      6.1050226474823577e-01 7.9652366625836885e-02
      -2.6760267421130690e-01 5.5706997850761242e-01
      2.1882573985470968e-01 -2.6067339943239476e-01
      1.2208380169297500e-01 -2.5079947364733834e-01
      6.5023932895959957e-01 -1.6104452433969316e-01
      -2.7193754377782764e-01 2.1341831346527285e-01
      3.1349202494360096e-01 1.5344223878919347e-01
      -2.6365006832336035e-01 -1.6597421605710408e-01
      -8.2277828680506745e-02 -1.8250786503421151e-01
      1.5053001763355792e-01 1.3323361654224872e-01
      3.2470322029363208e-01 8.9626506918538384e-01
      5.3909955992000082e-03 -2.1468470533928752e-01
      9.4761002437207045e-02 4.3552300486006335e-02
      1.3077556438217643e-02 -8.8441562520392494e-02
      2.0007798869504814e-01 -1.6747358517784916e-01
      6.5241541570427844e-02 3.1099509797806574e-01
      -9.8335422183064125e-02 -2.0318823842264661e-01
      -1.5234640403107191e-01 -7.7838939297400822e-02
      -9.5270618345164856e-02 9.0059248618308066e-02
      8.7440588766543231e-02 -1.1075867652816739e-01
      1.6801262265356370e-01 2.8024007392672234e-01
      -1.5712778247417622e-05 -2.9181933251206482e-01
      -8.7750392271249936e-02 2.9668776670730634e-01
      5.3438105054762985e-02 -2.2619010443871296e-01
      1.4274284766249890e-01 -2.6054125830477892e-01
      -3.9695794760474336e-02 -4.1041545853695072e-01
      2.4831979170549293e-01 -2.7021037439913381e-01
      -3.6387082771642137e-01 2.1447352485205851e-02
      6.5816651983613889e-02 -9.1153365927648014e-02
      3.5290808753473524e-01 1.2905788005582811e-01
      2.8595264653519237e-01 4.4778352153284767e-02
      5.6429178372664840e-02 4.6936683183912281e-02
      -4.5771171523919696e-01 3.3797979561089836e-01
      -6.4031236076017406e-02 -2.8353827890554673e-01
      -3.1315880790438350e-01 -3.9497874442725517e-01
      4.3619847965633407e-01 -5.9836928485085629e-02
      -2.9073936354752672e-01 6.7184212914710162e-02
      -1.1568170773689580e-02 8.7018373016512274e-02
      -7.5787316720576814e-01 -7.7161343355006096e-01
      -3.3396889478791381e-01 -1.4815476748595457e-02
      4.7612674661216881e-02 2.6564092369675718e-01
      9.3552906685340831e-02 4.6092971437544950e-01
      4.0470482562160814e-01 -2.0065369954747342e-01
      -2.3809729487507919e-01 -1.9295786472673579e-01
      -6.5185851409470877e-02 1.5354313562291694e-01
      -8.7334931373685609e-01 2.9772849030166210e-01
      -3.2141635816302472e-01 4.4221657105084237e-02
      -9.1175365318839019e-02 2.3744943284397854e-01
      -1.7902903058865866e-01 -1.7734923212359002e-02
      7.8041696773816158e-02 3.2185234618920344e-01
      -3.9361571667317208e-01 -2.0506311834512142e-01
      1.7707900947271918e-01 9.1644499708197089e-02
      2.3061323417218473e-02 -3.3821027480088368e-02
      1.7351657806336496e-01 2.4495020188085770e-01
      -1.7878720745319893e-01 -1.2277342345251904e-02
      2.3884154895447093e-01 -2.9941398077466139e-02
      -3.6351705635477982e-01 -2.9832035215402458e-01
      -2.0696190663695446e-02 1.7395667993967259e-01
      2.8961280669167783e-02 4.6886027302079920e-02
      -5.7359200595168147e-01 -1.2605791871223413e-02
      -9.0998309847339059e-02 -3.5333359735566679e-02
      -2.6191874252814723e-01 6.1013418817867503e-02
      9.8871122858105398e-02 2.8038529314015567e-02
      7.4455256097829672e-02 -3.2086944964519049e-01
      -2.4462653570292386e-01 3.1469114708900243e-02
      3.1419800808419107e-02 -1.1676953655929544e-01
      6.0155713614443738e-02 -4.7219293088699105e-01
      6.6168487484043373e-02 9.7310693936687981e-02
      6.9771363167134101e-02 -7.9010203126583536e-02
      -6.5119457473906434e-02 3.5488310805782186e-02
      -1.4849558940901045e-01 -1.1798322384252680e-01
      -1.7658300468680568e-01 1.7135190849651646e-01
      6.3268452831282920e-02 -1.5480847105727512e-03
      -1.2047962451820045e-01 1.9307879040876979e-02
      -1.9087940528054922e-01 7.8639521904134424e-02
      -4.2699255489439016e-02 -2.3938100999413447e-01
      -4.2267283908294137e-02 7.3168935317313222e-02
      2.4300422090324285e-02 -2.4477747331511500e-02
      -2.7830830444083163e-02 6.3357400213525927e-02
      -5.5036997593811463e-02 1.0068563776525703e-01
      -2.0777958948045572e-01 -3.5486937153266229e-02
      4.0904531960798463e-02 1.1771728252312593e-02
      8.5924318849666703e-01 -1.4804930044692251e-02
      -1.4137753536643879e-01 -8.8358168790006551e-03
      9.5389042103375815e-02 -5.5260691367347237e-01
      -1.0885274495017161e-01 1.3873568982067278e-01
      9.7212798160229846e-02 -4.0934627063171324e-02
      -3.3624801533520576e-01 -4.5012631839732038e-02
      1.2306084831366135e-01 1.3904406560452576e-01
      4.3331856726328347e-02 -2.1043235259801816e-02
      1.2222639329804263e-01 -6.0571703476524970e-02
      2.6557466367798446e-02 -7.9865611271361173e-02
      3.5170139836256928e-02 -5.1497996332439643e-02
      4.0630497348978556e-02 2.1799654032431284e-01
      4.9256717254653096e-02 -6.0517411821502817e-02
      -2.2155439105857855e-01 2.8931863055403717e-01
      1.9544129734227500e-01 4.4431949428119497e-02
      -2.1649156339006720e-01 -8.6418301990639657e-02
      2.2271857931187949e-01 -2.8690575767401694e-02
      6.0675840666487048e-03 -9.5303297661002373e-02
      -2.9490467792974040e-01 1.5268494631334822e-01
      -6.0869467421729205e-03 3.1317054964005400e-02
      -6.3020861598431968e-02 1.9116888883808952e-01
      -5.6674992397680042e-02 -2.8521072559369861e-02
      -7.0556733998710389e-02 9.9785485985273439e-02
      -4.9931368135768754e-02 -6.3350538774795018e-02
      9.4433786023165855e-01 -2.4206980636758635e-01
      1.4861411944065641e-02 -3.9382113695230394e-03
      1.0424781215132667e-01 -6.3623091170828053e-03
      6.3181403095702515e-01 -9.3891473017265442e-02
      -1.0122069600859994e-01 -1.2373076970660427e-01
      1.0762719289792665e-01 -5.6371525740575121e-02
      -1.0684240793407218e-01 -1.8366787961059259e-02
      7.6292222586165678e-02 -1.5127996500407345e-01
      1.8469052748753313e-02 2.7952732978662655e-02
      -3.7678040325800737e-02 -8.4859652022121201e-02
      -1.2075029218666346e-02 4.2637970539417108e-01
      2.0341764583088700e-03 -4.3067473717474887e-02
      2.5795349586959296e-02 -2.5711800408904285e-02
      3.2675511985156176e-02 6.7092759341009486e-02
      -1.2356572727034795e-01 -7.5701517187345066e-02
      -1.9458435194190751e-01 -4.3161118277119333e-02
      2.0027992229826957e-02 -6.6340848941621219e-02
      -7.0792104640763163e-03 3.6162822563055808e-02
      1.3431738762018916e-01 3.3382755579957346e-02
      6.3423626226867535e-02 3.5521617470649899e-02
      -8.1967068808284915e-03 6.5028253106483469e-02
      7.2286366308335001e-02 -3.0707246811520001e-02
      -6.1771565302003201e-02 1.7604898880721413e-02
      1.0341776929569675e-01 -7.4836478957126376e-02
      -5.5775576004228411e-03 -5.8074984447343693e-02
      1.5874870094212627e-02 3.2724117480199384e-02
      6.0117020670450438e-01 -6.1001474780996469e-02
      1.1543440598435296e-02 -6.8887541708788053e-02
      6.5913970006865025e-02 2.6543472329890266e-01
      -2.1358159480929784e-01 -4.7793351194438838e-02
      -3.4497080336499210e-02 -1.2231219573998972e-03
      1.7460941889075934e-01 -6.5654276934585518e-02
      -3.6157511135314024e-01 1.9055965211787751e-01
      -7.5685645371316876e-02 -2.8343982640330483e-02
      2.5295919756513924e-01 1.4733131813662447e-03
      6.8070562913401703e-02 -3.2275388390113402e-02
      -1.9338155218463896e-02 9.5920028314324862e-02
      5.9720422928784059e-02 -2.8475176170366739e-01
      4.4053683196550023e-02 -2.7156612316047768e-02
      6.2721070580565608e-01 -1.3426442953513013e-01
      -5.8242425749329266e-02 -2.2277865996521241e-02
      6.1529363994693380e-02 -7.2451020370914851e-03
      -9.6105018498920725e-02 9.9780837046577753e-02
      -3.8401497460185681e-02 -1.1283431440099335e-01
      3.8466778010454455e-01 4.6809715552666459e-03
      2.2452187044228137e-02 3.1099764275236758e-01
      -2.8536087742748795e-02 -7.1362204749923761e-02
      -2.6711381528062496e-02 1.9799209535659099e-02
      -3.1092971282754994e-01 3.0174412784360175e-02
      4.3725000567768978e-02 -1.0285979784389195e-01
      -1.6239359302463488e-01 2.3673335700284265e-01
      8.6613695477547381e-02 -8.3237908464532703e-02
      -5.2987546853047261e-02 -1.0906545175071497e-03
      -1.2800698781540354e-01 1.3157736746951820e-01
      -6.6008044559282414e-02 1.6826253598491955e-01
      -1.2038863775653416e-01 -2.5119470771519229e-03
      3.2255481018623772e-02 4.7234990354388714e-03
      -3.4164259876222819e-02 -4.6481272919265085e-02
      1.1077638198383352e-01 7.4216747197208416e-03
      2.4941000470851755e-02 -6.5554309847636105e-02
      -2.6466019485875132e-02 -8.7501600529082665e-02
      -1.2430821972567946e-02 -6.0625961039758432e-02
      -5.7795945271694557e-02 -9.5481360054264233e-02
      -4.7923694471864578e-02 -3.1129814796707282e-02
      -1.8690049476847912e-02 -2.0613895654597099e-02
      2.5849389532242174e-02 2.4698413055391978e-02
      -2.1109537564916315e-03 3.0085006812518630e-02
      5.9613196372229948e-02 4.2191332558142142e-02
      -1.1884556109650349e-01 8.3336334345083293e-02
      -3.8825644124751993e-02 3.7988404626380819e-02
      -5.2542895562654499e-02 4.6900608595327083e-02
      1.3296086758852235e-01 1.4406714509348953e-02
      -3.5174214376286001e-04 5.7618058088557231e-02
      -1.2318116545650544e-01 -1.9734495339735128e-01
      -1.4258474338375442e-05 -3.7683010404792805e-03
      8.3498899804924323e-02 -3.4384607098121314e-02
      4.2343892843383323e-03 -1.1834153502731022e-01
      4.7897138121650633e-02 1.6208877313226780e-01
      5.4661108313902959e-02 1.0894124183425785e-01
      -7.3731971538962576e-02 6.2404996326949364e-03
      -3.3575160919704819e-02 -5.5614359361110472e-03
      -8.2747005632010442e-02 3.2553669539936402e-03
      2.9313805681845814e-02 -2.3330349267720509e-02
      9.0223973625832385e-02 3.6418630952801311e-02
      -2.4391229942133660e-01 -2.9054287551675897e-02
      -1.0998838524097700e-02 2.0511212621953649e-02
      -5.0146090554540022e-02 5.4567852357848154e-02
      6.4610176957707030e-02 -1.7139117692759978e-01
      -3.1607738408515218e-02 -3.1254271806409682e-02
      -3.8240304143771847e-01 -1.8841617361799678e-01
      5.0478478019775778e-02 -3.4943198509265881e-02
      1.9328866222973379e-01 -4.7096324466726130e-03
      -5.4525819436015949e-02 -3.9716205083012074e-02
      -2.8180178528828675e-02 -7.1048846099016433e-02
      7.2251265913082244e-02 -2.6568810133171930e-02
      1.1246250446132772e-02 4.0327100220534207e-02
      5.5589045203949021e-02 -2.1645958319153266e-01
      -2.8523868778553917e-02 3.3854685880805910e-02
      2.4193296684195689e-01 6.4345784867336969e-02
      -2.3478169324163181e-01 2.6457712788864381e-02
      3.6950592710357472e-02 6.7264996996014359e-01
      -1.4884778000509646e-01 -1.0898508664544680e-01
      1.0851101958588766e-01 -7.8303423717461532e-02
      -2.1354868153896645e-02 -1.1812902759511017e-01
      5.9042592598646554e-02 2.2797488274584765e-01
      2.1613584879365658e-01 -4.5581938758591095e-02
      -1.0838674936492544e-01 -3.8297080457918950e-02
      -5.0976172214943938e-02 -1.5552894297620234e-01
      2.9165195246585538e-03 -2.1648418369162818e-02
      -5.5169912703519487e-02 5.0940786772727453e-02
      -2.6582506047835457e-03 4.5816193927349702e-01
      -4.1852477425671684e-02 5.9245849891795814e-02
      -2.2002062081851573e-02 3.9482157951795764e-02
      4.0479821712730651e-02 3.8387507807507056e-02
      1.3550674848113917e-01 1.8547990480171545e-02
      2.3175180170085105e-01 -1.4727553019840617e-01
      -6.3404926200657533e-02 1.0835512515356531e-01
      -1.3654041974207155e-02 -1.6229728857714767e-01
      2.4461346271447965e-01 -8.1343393822339558e-02
      1.0244248688461303e-01 2.0672127996814091e-01
      7.6231592478636437e-02 -6.5695801897385081e-02
      -4.9563686063329466e-03 -6.4707902588480457e-02
      -5.4805406568628909e-02 -6.2800663407431415e-02
      1.5281428179313780e-01 8.6936264606151586e-02
      1.2466238750801957e-01 -4.9178306469149217e-02
      -5.4675944972656265e-02 1.0902675204299052e-01
      -7.5556818363106792e-01 9.2461567441280978e-02
      1.0899401281648395e-01 -2.7399777161041577e-01
      -9.4572175249718060e-02 1.3205915756380529e-01
      7.9879816587715993e-02 -9.8658824492349126e-02
      -9.4900333528181821e-02 -1.6362124329205193e-02
      2.4885907114729450e-01 -4.4566144391505566e-02
      -7.9818372370328849e-01 -1.5191377415900237e-01
      1.0000232519934850e-02 -1.0853915120308871e-03
      4.3727527527990784e-01 4.1991702717158269e-02
      2.5605957876718594e-01 1.3921427129329272e-01
      9.2625468987522983e-02 4.2590163286285411e-03
      -4.8094058765999280e-02 8.8030250275581756e-02
      2.7761942150061395e-02 -6.1009742552108892e-02
      -2.9739743138707198e-01 -2.7433749576574373e-01
      -6.7247774770262558e-02 -4.9125887420605162e-02
      -1.8238732916129524e-01 6.6307062363689453e-02
      -1.0768370155584239e-01 2.1966475017338716e-02
      -1.3770137550459235e-02 1.1328298442701160e-01
      -8.5545571894539291e-02 -1.0802443559742092e-01
      1.0672992306542123e-01 3.1675330118141143e-01
      -3.5809507211561058e-02 4.8319359258608488e-02
      8.7577049901509246e-02 1.0511946347568625e-01
      1.6301389006089537e-01 -5.0395532953144764e-02
      -1.6173676052493657e-02 1.8822603730607024e-01
      2.5207616290950763e-01 2.6523612726532547e-01
      -1.8704126195322129e-01 -4.9348354318069804e-02
      -4.5215703995448796e-02 -6.8637519950988232e-03
      1.4615117339069764e-01 -6.2757373039807413e-02
      1.8930977664831031e-01 8.2278548829715550e-03
      3.8540593403860244e-03 6.7330302005379775e-02
      -2.5787129128538998e-02 2.7913568046395863e-02
      3.8731174781306651e-02 6.8465826513795569e-02
      -2.1742580946588351e-03 -8.4811747851182687e-02
      -7.5783130040416036e-02 1.9029963120466856e-01
      -4.9582265016949963e-02 2.1045552651330093e-01
      -3.1487379788208589e-04 1.2758357298618203e-02
      -3.9113025972091459e-02 8.7252216987718290e-02
      6.7528294190662100e-02 -9.1359118751911203e-02
      7.2751224483959126e-02 7.6385402050276802e-02
      6.7176382477540070e-02 -1.1612084882749392e-01
      -1.0412504082544360e-02 6.6523760907962373e-02
      1.1574236678361027e-02 -3.4767875115353980e-02
      1.5648568893164211e-01 -1.5177323197727485e-01
      -1.8490877043643113e-02 3.9977486981686849e-02
      1.2270441919970472e-01 -7.8748673097884359e-02
      -1.4819495263846533e-01 9.0194879937697155e-03
      4.1242944349180938e-02 -7.1618915668892072e-02
      1.8946448859755036e-01 1.5446562405683092e-01
      -1.9362280330802839e-02 2.6913105067203569e-02
      -1.4129827147140802e-02 9.5744186470275966e-02
      3.7923772552306950e-01 2.1576312450564189e-01
      2.3023674258143643e-02 -1.6626992858496698e-01
      -1.0363911248238981e-01 -4.9835254449370003e-01
      2.5204762247607190e-02 5.9295126154421821e-03
      7.6932225795628278e-02 5.8234354741025555e-02
      5.5844214724919433e-02 3.6437603510047573e-02
      -2.6112174634123531e-01 1.0134802027442281e-02
      -1.7281085329299001e-01 -8.4475284706933482e-02
      1.9255764879066373e-01 1.5753000911893911e-01
      -2.3758040668230515e-01 1.3192884786247108e-01
      -4.7867978983739630e-02 -1.0546817779539146e-01
      -2.2932011221281998e-01 -3.3971997016069694e-01
      -3.3354073410709326e-02 1.4234688971569234e-01
      3.2009191029568423e-03 -1.9942353710430849e-02
      -9.5633635747180629e-04 3.0726236975917070e-02
      -4.2272244615096544e-02 1.1706715951620027e-01
      -2.1016966952739521e-02 1.2286624461045415e-02
      7.1789486437917271e-02 1.2437515730685773e-01
      5.0257050048707896e-02 -3.1666580375244877e-02
      -9.9672388205423752e-04 4.1409961129612372e-01
      4.0530353816368280e-03 2.0569455062096889e-01
      2.0355568575097371e-01 7.5402824658514431e-02
      4.2670651465161596e-01 1.0573429950955887e-02
      -3.5242636159226021e-01 3.3911234593848161e-01
      5.3480653458308069e-01 3.6935894061514424e-01
      -3.6487598321029935e-01 -2.1300950759555240e-01
      8.6728258542525485e-02 -1.8092013500187881e-01
      7.1532613360991448e-01 -1.3104631936284952e-01
      3.8354382173424389e-01 3.1042217622317597e-01
      4.2526499005644658e-01 -8.4803832720952418e-02
      -1.8933537691439251e-01 -7.6419222537689985e-02
      -1.8132124590438760e-02 -6.3662276287560549e-02
      1.2361105819684950e-01 -1.8204527948592980e-01
      -3.7125981840140772e-02 4.1614828549241745e-01
      -2.2278521208188032e-02 7.9849091765776226e-01
      -1.0832322298668243e-01 3.0526230202260345e-02
      -7.9401011588403472e-02 1.5494200636084238e-01
      2.5065526909027086e-01 -1.5154007788648444e-01
      4.1595664832389800e-01 3.7828141391509701e-01
      3.8819700235096977e-01 -6.3219832782924457e-01
      -1.6980935639818462e-01 2.3559647616808677e-01
      5.6357421226319600e-02 -3.0173756563385790e-01
      7.5994841772856936e-01 -2.8965041857592150e-01
      1.4899055047185178e-01 -2.2239642686913599e-01
      2.8256038982807746e-01 -3.4104064382144433e-01
      -4.6780966856232797e-01 -5.9138615120081575e-02
      1.0527398441215963e-02 -1.5413216990214373e-01
      3.3764642212997464e-01 1.8410556317487781e-01
      2.8812295263121573e-01 -5.3571411716340459e-02
      -1.1094204058106313e-01 2.1995651162103677e-01
      -7.9988104348827316e-01 4.4024699956701363e-01
      -5.8766465904799926e-02 -4.8026104587213103e-01
      -3.9926281277964659e-01 -1.8049918795794667e-01
      4.4278634266544642e-01 -2.1031249483078102e-01
      -1.8210448024696629e-01 1.5399498649876522e-02
      4.4689805393931575e-01 1.3042604035899863e-01
      9.4866665311374151e-02 -3.6638405372345206e-01
      -3.1296402585849586e-01 -1.2450917740783744e-01
      4.3902505696021210e-01 4.1595898013076915e-01
      -3.4296639075383129e-01 3.9988963539495792e-01
      1.4743000543887799e-01 -1.7348550113235728e-01
      -3.3855237670200261e-01 -8.9056488407391790e-02
      -3.3565535767953097e-02 2.0560258795397018e-01
      -3.5409915582404811e-01 2.1876954206401328e-01
      -3.7789063900257847e-01 -7.3608652607309394e-02
      -2.5244564692462379e-01 2.2033823948033870e-01
      -3.4397174854506796e-01 1.1991434533100659e-01
      7.6862923117300849e-02 3.6495719078946465e-01
      -1.6019019693242559e-01 -2.8579606202961416e-01
      2.2986357886661440e-01 8.1640401323123124e-01
      -3.6652816762503225e-02 2.1259949541841497e-01
      3.2750980329797902e-01 2.8125170582217474e-01
      5.5886777471989868e-01 -4.0578527276023547e-02
      -3.4143367814273512e-01 6.1385082050832229e-01
      1.9044933336233555e-01 2.6446509565964393e-01
      -5.7526811039526293e-01 -2.7949138069664481e-01
      1.6884003081570342e-01 -2.3487502732007243e-01
      6.4807170155150695e-01 6.2742682955169299e-02
      5.1674842517010466e-01 4.6701502184982019e-01
      4.3569953862751304e-01 -5.1869577164098768e-01
      -2.3435106664170963e-01 -5.9222450659128775e-02
      4.9157343867160695e-03 2.3144525222263901e-01
      2.6509160707393076e-01 -3.2394122265769815e-01
      -1.4995132071400724e-01 6.7232180046897849e-01
      -1.4935792287031296e-01 9.2714802139506569e-01
      -1.6795298957470989e-01 -6.4013225934670431e-02
      -1.0871762306910764e-01 2.7057984543143326e-01
      2.3517189785623666e-01 -2.2419905847003524e-01
      4.0772222978911266e-01 4.1292243185876293e-01
      3.4229642608151845e-01 -5.4869624901092828e-01
      -1.7138250253920700e-01 3.5337367796166813e-01
      9.8885671794183935e-02 -2.8461728389773061e-01
      4.3882665157810530e-01 -4.6130397107720517e-01
      2.3259715887412438e-01 -3.6987548110146612e-01
      3.1072065890179784e-01 -3.7849791776245550e-01
      -7.8691803525907200e-01 -5.3577504569395883e-02
      -1.0533678246465391e-02 -2.5452036895078523e-01
      3.4843973088043600e-01 -2.4290762129112870e-02
      4.2742472640584933e-01 6.2867094774796975e-02
      -1.2618436853943571e-01 2.8401981201367721e-01
      6.2846638944172351e-01 6.2353939040654538e-01
      1.7440075666105614e-01 -6.1719042331770635e-01
      -4.8211676838092987e-01 9.7463466593882486e-01
      4.4932321287735588e-01 -2.5992423826181443e-01
      -2.9431453537257940e-01 1.3789828214428196e-01
      4.8347962107911918e-01 1.5504884710044367e-01
      -5.3179093460475357e-01 -5.6202849560328627e-01
      -4.8581313992218028e-01 -2.0555762650101478e-01
      7.4772460680420338e-01 6.2820083694942719e-01
      -5.6440169916760785e-01 5.4255190852954893e-01
      4.1937936029411255e-01 -4.6424214515551071e-01
      -6.3110715860785971e-01 -2.9525251268669706e-01
      -9.2425767279764079e-02 3.0706325856543210e-01
      -1.5279568048340711e-01 3.4042577874982766e-01
      -3.3956956783349179e-01 -3.3497779413840044e-02
      -3.0628061553969921e-01 3.9610970502590920e-01
      -4.2605905787393744e-01 1.8186451803582387e-01
      1.6601324442246257e-01 5.3533103223924161e-01
      -2.2682957688125671e-01 -3.0485436032313501e-01
      3.4319711872995712e-01 7.8489181920303874e-01
      -1.3233976000741781e-02 2.9748396280765232e-01
      5.9717307341748660e-01 3.2747787047005328e-01
      -1.1813595845717285e-01 3.8661199307984527e-02
      2.3345659872861516e-01 -2.2497543363852370e-02
      -2.7688761753741969e-01 -1.3277642335517492e-01
      -7.8313638098376270e-02 1.0132119724061997e-01
      -6.5152407059577352e-03 1.0019026958923960e-01
      -5.8983184881143835e-01 -9.9861442642898035e-02
      9.0767807431637784e-03 -3.7451722425482736e-01
      -7.3265349160848536e-04 -4.0496253592058870e-02
      8.0838693953195831e-03 -1.3875812044807789e-02
      8.5771481987005141e-02 7.8976806817719125e-02
      -1.1635030763463632e-01 -6.6158193822351587e-03
      -4.6944689480260059e-02 -7.5277657239766996e-02
      4.1256152670775058e-02 5.4601867295212192e-01
      7.6324665535255118e-02 5.2000911605619024e-02
      7.4846994177094506e-02 9.3189018906762788e-02
      -2.9716180727298740e-02 1.0578575560108179e-01
      -5.8425016193260855e-02 -1.1813638195951093e-01
      -3.6932169639147888e-02 -8.6638037024336075e-04
      4.4858001480886200e-02 -3.5863893045393641e-02
      -1.3294404290676026e-01 2.4654533623134144e-02
      1.6869080008775245e-01 -2.0053545962086000e-02
      -9.4642354039870171e-03 3.0407844662086808e-01
      4.8031720764744747e-02 3.5807206930197838e-03
      1.2396129978353795e-01 1.5444159401967762e-02
      -4.4688148950915295e-02 -5.4330250288717116e-03
      2.3436741141480039e-01 1.4396436967027487e-01
      -9.6003712601735305e-02 -4.2465914318656456e-02
      -1.0190061169308663e-02 6.2690774856367593e-02
      -4.3210626679858505e-01 -2.5777502173942375e-02
      3.7731443118879882e-02 -2.0979756829022037e-01
      6.3320503942698142e-02 6.1626499708738014e-01
      -1.5892097743327499e-01 8.3209880169413580e-02
      1.3630076984735647e-02 -2.8092977393569016e-02
      9.2215581842603603e-02 -1.0096912833448919e-01
      -2.8581502624121881e-02 1.6688666477528424e-01
      8.2706813135253729e-02 -2.9687062759916363e-02
      1.8100664266045896e-01 -7.9741442109965838e-02
      3.3818471727036668e-03 -4.4303934705347443e-02
      9.3349218717709653e-02 -4.2438291758048002e-02
      -2.3727335914426075e-02 2.4093892206461312e-01
      5.2824319408064258e-02 -1.1036374383327133e-01
      -5.3016841012084488e-02 -3.4370747785147954e-01
      1.6523826556548388e-01 5.8199985239779768e-02
      -3.6058612276736229e-01 -2.8842478302190902e-02
      1.6768820934422304e-01 7.7539741593393285e-03
      4.9249625128673390e-02 2.9730717004298447e-02
      -9.1606753928281034e-02 8.6433359135131088e-02
      -1.9895644877794029e-02 1.5801075886351815e-01
      -6.6787049206547627e-02 2.7372232150341863e-01
      4.8624311832705130e-02 9.2731317164497978e-02
      -5.4009660498053591e-01 -1.2631207090037563e-01
      8.7927020871762310e-03 1.5090797834045402e-01
      -4.3233461273470741e-01 1.0154565572745069e-02
      -3.4243101515839774e-01 -2.9721359011938765e-02
      -1.3450333265930567e-01 -1.9222876630799707e-02
      -2.8470473439861105e-01 7.7348657618758782e-02
      1.2542066245464925e-01 -8.1937626408211603e-02
      -2.6307116896434246e-01 2.9250992775937223e-01
      5.9204828023146548e-02 7.5519332853347027e-02
      -1.4018450179701448e-02 -2.9111136493896038e-02
      6.1847855150000512e-02 -6.8387211616463689e-02
      1.2328363603643951e-02 1.4383826770019875e-01
      -2.2103074879264009e-02 -2.3877175928625455e-01
      9.2687455336339219e-03 1.2094415048000903e-02
      -4.2765677555549074e-02 5.4409362435045204e-02
      -7.8191049804632057e-03 -3.1394946869555622e-02
      3.1139086808329726e-02 1.2696736194669714e-01
      1.9865277663542968e-01 -1.5674344584699057e-01
      1.1642042581868095e-02 -7.3509769877863396e-02
      4.1020703490801759e-02 -1.3959597094696313e-01
      6.1307726068204638e-01 -1.4898545903967705e-01
      -8.6382727328669667e-02 -1.2060065372490522e-01
      8.7619529223466538e-02 -8.1919826251116018e-02
      -1.8614338263146979e-01 3.0506223896256783e-02
      1.0378739038966424e-01 -9.1336114300186143e-03
      4.4250311280025695e-01 3.3178349251576039e-01
      1.1211195783047490e-02 6.0135647228005573e-02
      4.5904471794190174e-02 -6.9615736814613027e-02
      7.1750006511841413e-01 1.9888332766234423e-01
      -1.3561230323599199e-01 -5.8707126765737017e-01
      -1.1240694120743662e-01 -9.1906225921539145e-02
      1.3151668786311635e-01 1.1396817102406767e-01
      1.1528370555858336e-01 3.8206855651942630e-02
      -1.3430072304092142e-01 8.9520721681149495e-02
      2.2439864731257411e-01 -2.9371465034015477e-02
      -8.3421705309054808e-02 -1.6651795982242958e-02
      9.0800775279391610e-01 2.0689038545419203e-01
      8.3043830159826124e-02 -7.6868569571091908e-02
      -2.4198447973753559e-01 -1.1275723705547495e-01
      -2.0649702776198750e-01 -1.8419433155226814e-01
      -8.8044334158094859e-02 1.3422694903599686e-01
      -3.5180566494233828e-01 2.8706057958456022e-01
      2.6983723574999768e-02 6.6856714043198914e-02
      -5.1679289349557767e-01 1.4642494357389865e-01
      -3.1430797901510271e-03 -5.3761145014465821e-02
      3.9689319988960463e-02 1.9325375331365449e-01
      -1.9083287830340112e-01 6.9270602862475130e-04
      -6.6992651606658127e-02 8.0602774777125785e-01
      6.5191656693248681e-02 5.4910880518321506e-02
      2.2682244449514077e-01 -7.5130568127463548e-02
      5.2804702117834501e-01 1.7134417835443191e-01
      2.4522843617648876e-02 -1.3228585329442477e-01
      4.1308298941490640e-01 -2.0718826786799757e-02
      4.2156467476908037e-02 -4.7175666344954625e-02
      1.4183817171390531e-01 -1.1261727720753964e-02
      1.6359221993319206e-01 -3.2330214941232216e-01
      -7.4413176535236214e-02 -7.7100464579871797e-02
      2.4340837866817713e-01 -3.2946983938782154e-01
      -7.6229238760588527e-02 -8.0470145144755187e-02
      6.7690094935795864e-02 -1.2974422780302228e-01
      -1.3926016032863181e-01 8.4399945534742365e-02
      -8.7419759718314463e-02 -2.3852708054256919e-01
      6.5692429777334985e-02 -7.6985348209429316e-02
      -1.2190272695688096e-02 1.1833345112698146e-02
      1.7778887101040527e-01 2.6810787690832154e-02
      1.0906106571432309e-01 2.0707791164765071e-01
      2.2126940987584935e-02 -7.7538264188591291e-02
      -3.6038489463388695e-02 -1.5876612137313645e-01
      -2.2707840096896692e-02 8.9487380714267178e-02
      -1.4687044472223942e-01 5.9722606394033262e-02
      3.0092969991337098e-01 4.5149771224429036e-02
      1.4556635825427536e-01 2.5031776909765296e-01
      5.3584842962769726e-02 -3.0352939031569829e-02
      3.6074149727378635e-01 -8.3443449864520222e-02
      -1.6662582863114248e-01 -8.0386642684497508e-02
      3.1998096756230571e-01 6.9648611863690644e-03
      9.6442690908744421e-03 -1.1410760502563347e-01
      -1.7106322314948577e-01 1.2344443031576895e-01
      -4.5694449723641395e-01 -3.9602983956611028e-02
      1.0509485862146416e-01 -2.1222937882775916e-01
      -1.0077127425348095e-03 8.3629309056495205e-01
      -5.2824850216463493e-02 -1.3023558341476840e-01
      -1.7246865865371397e-01 -8.6795778395558049e-02
      1.3040676016511582e-01 -1.3719705682036831e-01
      -2.5522754436119877e-01 6.9305290506064918e-02
      8.6480627113954003e-02 -1.2507913418980152e-01
      1.2104857338291206e-01 -1.8642771881588971e-01
      6.8168097104180326e-03 2.0288357297161129e-02
      1.7357018623705492e-01 4.7770088454439238e-02
      1.5277961740089549e-01 1.5316544064799248e-01
      1.0723814054135257e-01 -1.6232629030368992e-01
      8.5721398780714775e-02 -3.7004234240534467e-01
      -6.6597121103494000e-02 -4.3261003964856548e-02
      -2.3207661658178230e-01 -6.3905782847970452e-02
      -6.9517964095832704e-02 1.4353421775436512e-01
      2.5478990030336740e-02 -7.4267838611018211e-02
      3.1364093543476704e-02 -9.2309693069427008e-03
      8.3846211198718490e-02 -1.8169926551150703e-01
      -1.2661452532317888e-01 1.7016545963993593e-01
      -1.8416314652837679e-01 1.0323309678538783e-01
      6.5740460983599469e-01 2.3451615179886204e-01
      -5.8958176255469244e-02 -6.3648527664726715e-02
      3.4274611086675011e-01 4.3201699581735004e-01
      -1.2466370006958504e-02 -7.9297111767926282e-02
      2.8024751442426948e-01 -3.4901781344736371e-02
      4.4205385668794728e-01 -4.4499655212168882e-01
      -7.7840680343317453e-02 -1.8163793554787677e-01
      3.8355499714908747e-01 -2.0746204769575779e-02
      -2.5684969250053741e-01 -1.2850424146473430e-01
      9.3370387681164495e-03 -3.3141790464383571e-02
      -1.6195499021417234e-01 9.2353468998563920e-02
      -1.8697172040975915e-01 -1.2706460280827880e-01
      1.0025766516247872e-01 2.1707953883464251e-01
      1.0142359466523136e-02 5.2029697940249073e-02
      2.9364860448383284e-01 8.8957411110895793e-02
      9.6359576919466741e-02 3.1352237533153854e-01
      7.5867086374034012e-02 -1.0229718838751357e-01
      8.2810843899983971e-02 -1.1764013164470452e-01
      -3.4132138406380540e-02 6.5837201070257734e-04
      -1.6978382959907531e-01 -9.8405577887645881e-03
      4.7737370570897641e-01 2.6594487206729753e-03
      2.2644145390522707e-01 5.4247811122021106e-01
      8.8041936674639800e-03 4.5269164824934580e-02
      2.1481932451003474e-01 -1.1653503376010955e-01
      -2.6131126983952258e-01 -8.6716483936001870e-02
      3.3567959261197527e-01 3.1312061477963232e-01
      1.7034140549592996e-02 -1.7692137257456478e-01
      -2.3932629592092058e-01 1.8250125588102042e-01
      2.5743913672783303e-01 -1.3748730143685192e-01
      2.1010421388697728e-01 -1.5071213944139880e-01
      7.6902049065654024e-02 -1.2758635964962179e+00
      -1.3897456539784686e-01 -1.0791745224563284e-01
      -7.0535491446218582e-02 -1.1372648788095578e-01
      3.8330565600631517e-01 -2.5508367792418818e-01
      -2.7671059498411038e-01 1.8886373893956399e-01
      1.4313436185640110e-01 -1.3648323615345653e-01
      1.1342172481015067e-01 -8.2545097756203459e-02
      5.7157750532553409e-01 -2.2736648621070853e-02
      -6.7643012284657605e-02 8.6874790921233236e-02
      6.3676766104532226e-02 -3.4784663804091898e-01
      1.6184655216602678e-01 -1.9380857540360913e-01
      1.3676336103426243e-01 -6.5000192360658338e-01
      -4.4697775320506020e-02 -1.0818650593955635e-01
      -2.2986480414868399e-01 -7.7411308283015068e-02
      -8.3003602029757748e-02 2.1702431433173816e-01
      -3.5105606650541993e-02 -6.3149749798335181e-02
      4.5386651052978171e-02 -4.9568798182229382e-02
      5.8213022928206522e-02 4.0518081236410874e-01
      -1.6831644194905374e-01 2.0131892878985463e-01
      -6.0618643331707004e-03 7.4895530082466452e-02
      7.3639244411811045e-01 1.1549540344489392e-01
      -5.0147059097410629e-01 -7.5580546532020648e-02
      4.6638533460274190e-01 -8.0630252120763857e-02
      2.2632197845779872e-01 -6.3971420355040359e-02
      1.1632311489429782e-01 1.5960319215592395e-02
      2.3631075869696608e-01 3.8000648388943077e-02
      -1.2810692185298969e-01 2.1005637851022210e-01
      1.4794936291162131e-01 -2.4730009949943621e-01
      -5.5999765877445991e-02 -5.1734656128064327e-02
      -3.0352687622703399e-02 1.4257816583885075e-01
      -9.8945987328303370e-02 8.2312481174024191e-02
      -1.0187273738534047e-01 -6.7900599506849499e-02
      9.2117029609318377e-02 9.7462410470550501e-02
      4.6641633595759201e-02 -1.9472682875332221e-02
      1.5911352377591362e-01 4.5986952298693227e-02
      1.1249988166528963e-02 1.9096722527959434e-01
      7.8128224054182377e-02 -1.2864025255416398e-01
      -3.2500335943806642e-02 8.4157009020513734e-02
      3.5963350705439011e-02 1.6920754174073380e-02
      -8.9731975807894493e-02 1.3134485833854762e-01
      -2.2395069542821888e-01 1.0988099736456799e-01
      1.4638484027241591e-01 2.4907510566255883e-01
      -9.6596074369566007e-02 3.9580831853105583e-02
      1.3509426616934914e-01 -3.6938781855653101e-02
      -1.5820052975024260e-01 -5.1239587582830558e-02
      -2.6743990819293323e-01 -4.8497437585644648e-02
      2.4056191181236081e-01 -3.9262342634339371e-02
      -1.9183911954067961e-01 3.7875313024482417e-02
      8.9630995716590633e-01 -1.8723250392143859e-01
      2.5635511551801810e-01 2.6097746104479924e-01
      2.9389134413089067e-02 -2.8541914746268826e-01
      8.2862671031024397e-03 -5.2515154643820790e-02
      -2.8564790159847220e-01 -6.7133766987861831e-02
      1.6606598797911101e-01 -1.6916294775977009e-01
      -3.6464992798144463e-01 -1.7913293709260722e-01
      1.8678985129747638e-01 -2.5318103232610051e-02
      -3.3782953897941748e-01 -2.2157098037060324e-01
      8.5126927950503098e-02 8.3562929076280740e-02
      2.4006716610151435e-01 9.5476978885783090e-02
      1.3422945520367238e-01 1.0154102644150753e-01
      9.3701704410521253e-02 -1.5023075928827662e-01
      2.5747242235740919e-01 -4.4587170026168868e-02
      -6.3673338769011822e-02 -3.3282198362479240e-02
      2.2205285211303696e-01 -1.1420455591691503e-01
      -4.7747779694022142e-02 1.1061373450145809e-01
      -4.0424579593321158e-02 -1.0998477595830530e-01
      -3.2183516291089918e-02 -1.5692100571002641e-02
      5.0934285040370827e-02 -2.1077143917570115e-01
      -1.1601817190766647e-01 2.8887309459926548e-02
      -1.1712994997445328e-01 1.1981118069517500e-01
      -5.3581809336645381e-01 -1.0447421859936215e-01
      -2.4775370288372327e-03 -1.3043339031969839e-01
      -4.7793930368827947e-01 2.9746202226962287e-01
      1.0924009966608833e-01 1.3671625725525260e-01
      -1.2425149938618101e-01 1.3274244069729363e-01
      -1.8440403848495143e-02 -3.6586977189365641e-02
      -1.9129158708889105e-01 -4.1296272553592250e-01
      -1.7311686464666107e-01 3.5533647932446039e-01
      1.3378297647104201e-01 8.5936837419292117e-02
      -9.3758469793979934e-03 -1.4553904143711524e-01
      -5.5860247956661870e-02 9.0606976490792704e-02
      1.1426065751181841e-01 -2.3130876398703001e-01
      -4.0468506671668819e-02 -5.9786076561800783e-01
      3.9184779715265836e-02 5.5894339330467627e-02
      -1.1091028587364912e-01 -1.4778571184150535e-01
      -1.8019655061165424e-01 -6.0130847361561282e-02
      -2.5177847042681822e-01 -1.6970961187997260e-01
      -2.1320902957271440e-01 3.6885478934615851e-01
      9.2864350220909650e-02 -2.0970040065253215e-01
      5.1308564513705565e-02 2.2607084471292792e-02
      -3.6404125811174809e-01 1.3697900751882361e-01
      -1.3604215806534545e-01 5.4471933773067049e-01
      -2.2852381420557696e-01 1.9963953929826517e-01
      2.4193552230473284e-01 7.8330313665783927e-02
      8.7913195166124836e-02 1.2779666778820525e-01
      -5.1187898162770507e-01 -2.4149492947420115e-01
      -1.6367475275578178e-01 1.1416930317906313e-02
      1.1640825025424928e-01 -1.2706505792901696e-01
      9.3378980309039031e-02 -2.2699058115028944e-01
      -9.7880393483068165e-02 3.6096730801329746e-01
      2.1133380306778979e-01 3.6442355215846561e-01
      -2.8312091597729516e-01 9.4313897690586970e-02
      2.6270388309785486e-01 -1.7309097474946075e-03
      -2.4023970997290792e-01 6.4539406919467301e-02
      6.3234756327377140e-01 2.8060042653356831e-01
      7.1100293869114470e-02 8.0222828183824160e-02
      -4.7428721352231684e-01 -1.5872132923789545e-01
      -5.3147641501483467e-01 -2.2856012891538513e-01
      -2.5906815586075466e-01 8.5937907568480909e-02
      1.5415606631942624e-01 -8.9578922453682014e-02
      -2.6725473586480034e-02 -2.5385919820449795e-02
      7.9033266528226265e-01 -1.6534373481980144e-01
      2.3524421635848938e-01 2.8802152315748113e-02
      6.8766907155019863e-01 -5.2347293635747950e-02
      2.1610983389674673e-01 -1.2697051863450112e-01
      -1.1069544242198642e-02 -1.9306790947689081e-01
      4.3551835487913221e-01 1.6015539298203557e-01
      -1.8276619645924647e-01 -1.1975851624596111e-01
      6.3162337714727873e-02 -6.5504619420389376e-02
      4.1333156249136631e-02 -2.3277736010023273e-01
      -1.6848788819094063e-01 6.6524346498371703e-02
      -2.3266628973419631e-01 -4.3022349045614451e-02
      1.0732281990181257e-01 8.5462057669655252e-03
      1.9327669363743791e-01 1.9286358084587785e-02
      2.4418656506386967e-03 1.2222352453833518e-02
      3.1640867804553002e-01 -1.3434535518341886e-01
      -9.3280579545426387e-02 -2.0131354739836430e-01
      5.7168059602047391e-02 -4.2374587949071771e-02
      -4.8618456017762810e-04 -5.4281367791619572e-03
      -6.6963713037363759e-02 1.6058271999608659e-01
      -3.7790029806711138e-03 3.3324073417040530e-02
      -2.7896380622476187e-02 -5.8157782542118376e-02
      4.0673866787618654e-02 1.1104089005135563e-01
      3.1791379369087318e-02 -3.6485609660804309e-02
      1.3627157784410884e-01 -6.8390902650185756e-03
      -2.6111825898566747e-02 1.1491506852584840e-01
      -3.6691530710229979e-02 -3.2900400653788554e-02
      -1.3280093602021797e-02 1.1532281372220531e-01
      5.6032146446629155e-03 -1.7262957729653419e-01
      -3.9235513313124526e-02 8.4245707117295621e-02
      -1.5227550112846328e-01 7.0346578323955286e-02
      3.2416927651960477e-02 2.2738367873870541e-01
      -4.2137552236929714e-02 5.5131986857974637e-02
      9.4588561067661961e-02 -1.7791563394671750e-02
      -7.7908509110390822e-02 1.1417142220329786e-02
      -5.9918651401524997e-02 -4.5674152353074302e-02
      1.9709318530654954e-02 -3.2813508966058641e-02
      -6.6857884934845110e-02 -3.0609908776145393e-02
      4.6048090526243209e-02 -8.6399107690929774e-02
      2.8701104597294490e-02 1.6956024447826401e-01
      2.4367862120244645e-02 -7.4689218911825450e-01
      -1.1773054697516488e-01 2.1031992054847765e-02
      -1.3745973591096257e-02 -3.2909472676213462e-02
      8.2112933812052619e-02 -5.7149345376196252e-02
      4.2254502257203640e-02 1.5259989399490786e-01
      4.0351189246696458e-02 4.7323539477916406e-02
      -3.4734509627258353e-01 -8.5417654847270957e-02
      4.6128411130158226e-01 -5.9400134359662106e-02
      -1.4295309764825476e-01 1.6657662097264078e-01
      8.4856696371819570e-02 6.4396363113121788e-02
      2.7423689719464569e-02 -9.4271051714077500e-02
      5.7084914394267239e-01 -1.7736210237795891e-01
      -3.9402784760127284e-02 1.9735764244981795e-02
      1.0206737729072339e-01 -5.3473632792596849e-02
      -5.4203785197167752e-02 1.2310279944163541e-02
      -1.4924129864017902e-02 -1.1033180013472241e-01
      1.6455198192872050e-01 -1.8995027258650855e-02
      -4.0495035622033979e-02 -4.1294585349245921e-01
      -2.3354035964423280e-02 -6.5142590722848240e-02
      -1.7789571280325595e-01 -2.5750683980532343e-02
      1.1433777917586572e+00 2.5731497671801290e-01
      -1.2413568302313302e-01 1.5841929940465554e-01
      2.4542784066534848e-01 6.2079258502934942e-01
      -4.1685191849053627e-01 -2.2059228894283767e-01
      2.9418857346758803e-01 -3.0725842830954375e-01
      5.7515471846187927e-01 -3.1369613980893624e-01
      4.2181506839172195e-01 7.7032243079841900e-01
      2.8777590260229463e-01 -6.2867536235701382e-01
      -2.9580270700359007e-01 -2.2440768177246656e-01
      -4.1922660434493518e-02 4.0646781747800308e-02
      -4.8439019896816720e-03 -1.3875980686406009e-01
      -2.2163443364537169e-01 3.6623577571680804e-01
      5.4889253385836369e-02 -2.0337206730176174e-01
      -1.5951663050464684e-01 8.4362740248093582e-03
      1.5098030108669791e-01 1.6939064676245724e-01
      3.5244398426195139e-01 1.5897482199848006e-01
      6.0051869340010644e-01 3.8917891193661036e-01
      5.1333049965224475e-01 -6.9266693520499478e-01
      -2.5921673641399029e-01 5.1389321881612116e-01
      -1.2315779848116824e-01 -1.8899962253211600e-01
      8.7081798408485733e-01 -3.1750357972828785e-01
      2.8436363518424396e-01 -5.5537741171329358e-01
      4.1621460272038480e-01 -4.3277478954809473e-01
      -1.1623697145465794e-01 -1.7729918811722278e-01
      -2.0996198573532554e-01 -2.7183955326142201e-01
      4.9485895840891075e-01 6.1212953637707297e-02
      4.0774101256891637e-01 -2.2331810041894490e-01
      -2.0244558753050901e-01 3.9904571043485215e-01
      -2.9229661380672983e-01 4.4224206049524112e-01
      1.0510096429695265e-01 -5.7183902258369690e-01
      -4.8526679722969590e-01 5.3858760781870685e-01
      5.6324154790363268e-01 -3.1260453153787798e-01
      -5.5998420252916137e-01 -8.5247380901791528e-02
      4.8902279418329503e-01 -1.4682282963992527e-01
      -4.2581550903608614e-02 -5.6956975498553486e-01
      -2.8281574969863527e-01 -1.9194986911435064e-01
      6.8078654914008208e-01 2.8784921447345607e-01
      -4.7069716007218952e-02 5.3726959871975577e-01
      4.9276146007769922e-01 -3.0571857017583226e-01
      -1.6767979425551532e-01 -1.6366498361799675e-01
      1.0058653221384831e-01 -5.7203817469223400e-02
      -8.1894607658212537e-01 3.6447921994793975e-01
      -4.2644716025246021e-01 -1.9819892028813554e-01
      -3.7809163766290482e-01 2.3078275368083412e-01
      -4.7638095240982098e-01 2.3291861139193479e-01
      1.7564965191776496e-02 4.3557883975315220e-01
      -5.9734682641182524e-01 -4.0622047977305442e-01
      4.0796558162010144e-01 6.8794547807912854e-01
      -2.0959553270352407e-01 3.2932307888013096e-01
      1.3436446429235691e-01 4.9976603639902695e-01
      -8.0067415189507940e-02 -1.4249880538420519e-02
      -2.9225489100117441e-01 2.4955989392135725e-01
      -9.4969765459024164e-02 3.4671543920393955e-01
      -4.0303543331883213e-01 -2.2653425277672459e-01
      -1.2163523175915235e-01 -1.8739959635493189e-01
      -4.3774643815059200e-01 1.1214343700948627e-01
      2.9794523601000178e-01 4.9898137161353467e-01
      -1.4476825165940924e-01 2.2290006550271024e-01
      9.1432860454314195e-03 -2.0870915635953335e-02
      -3.0302157292383867e-02 2.2110827039648567e-01
      1.6974479592682010e-01 -1.4992953482699697e-01
      1.1525659748230206e-02 4.1091389734621930e-01
      -6.5134968250146683e-02 -2.8447263338006595e-02
      -9.3112051533425721e-02 -1.5594640704158056e-02
      -1.4819628494911388e-02 1.1967316148900772e-01
      1.3208922385833857e-01 -8.0325992163574875e-02
      2.9100141936510232e-01 3.5769364094667522e-01
      3.4118083406122740e-01 -4.0775870451221646e-01
      -8.5327872116070069e-02 1.6841528404817341e-01
      7.6572966006463059e-02 -2.1345020784263810e-01
      3.9690474476695553e-01 -2.1775942127740575e-01
      -3.5734189083505431e-02 -6.9807977288164347e-01
      1.8742528127793254e-01 -2.6983288120268301e-01
      -5.3049460057490194e-01 1.5890915148563289e-02
      7.8248423480099985e-02 -8.5135705057570926e-02
      2.6914621578260933e-01 1.0859799959548394e-01
      2.3699046336467083e-01 2.4346119334027826e-02
      4.8776831078874795e-02 4.1827180863755913e-02
      -4.5652882998783825e-02 3.0750535633904685e-01
      -2.4317875706240614e-02 -3.3881630650190164e-01
      -3.2771085593504240e-01 8.8449819440867572e-01
      5.4250130003075581e-01 -6.1448230915077895e-02
      -1.2532966110372507e-01 4.6664164037260703e-02
      1.2002969669972418e-02 7.2064680483722679e-02
      1.3031930493974292e-01 -6.2498885704303431e-01
      -1.7718933096237541e-01 -4.4528519031605714e-02
      3.6555436917843936e-01 3.9627082036740785e-01
      -2.1457469114486752e-01 2.7781233829795682e-01
      1.6602193401683984e-01 -1.8373026632155373e-01
      -3.1470544038038850e-01 -3.7107789056981072e-01
      -7.2757700726547248e-02 1.7186742038873803e-01
      -1.0640938538679556e+00 6.3574889057816319e-01
      -2.5712082084576166e-01 3.1687586067058918e-02
      -1.3825693766580202e-01 2.2306807370711629e-01
      -1.3855165340486114e-01 -3.8742907785788157e-02
      2.9795186366931320e-02 2.8881031408089114e-01
      -6.5361926240268764e-01 -2.6330119237549909e-01
      1.1779246914356942e-01 8.0370602128972901e-01
      8.9217985869088218e-02 6.4423318513401343e-02
      3.6739786840297872e-01 2.1581674955925273e-01
      8.0269421887651804e-01 2.0744696125309123e-01
      -9.1154564254994477e-02 -1.0030162142707587e-01
      5.2602741434902379e-02 -3.7596818364324186e-02
      6.2518151302987518e-02 -1.6018347015083523e-01
      1.9497847066643248e-01 -1.5843544346117847e-01
      1.9066291651099382e-01 -1.3174765314526821e-01
      -5.7421952564475028e-02 5.0454294421300538e-01
      -4.2916028032624620e-02 -4.4868922861950983e-01
      -1.9929677365692525e-01 -1.1789953093436886e-01
      -5.1476822348173051e-02 -2.5677538124759453e-01
      -5.4346920141795263e-02 1.2393910807858455e-02
      -7.6598584877045586e-02 1.7857845147170443e-03
      4.7408627780672515e-02 6.1991346922022905e-02
      -5.5541436786098811e-02 5.8288628781444238e-02
      1.5596999066567135e-01 -1.9628022476935431e-02
      1.8999459041491570e-01 2.5414363758831948e-01
      2.0368201592327764e-01 -1.6069979587086749e-02
      1.1778287817678475e-01 -3.9083956193625272e-02
      -8.2833298463393684e-02 1.7188757182944178e-01
      -8.7100083061912387e-02 1.0090113066122300e-01
      1.0463762728268418e-01 2.6807509967098981e-02
      1.8296596383894351e-01 -3.8450692875237885e-01
      4.1721941112198889e-03 -6.6228879650137462e-02
      -2.1677203300525538e-02 -1.4654516668842452e-01
      -2.4329372601980501e-01 -3.7917631791399641e-02
      5.4203647584822004e-02 -1.5509557576572133e-01
      1.4067003690811264e-01 -1.9414957597480009e-01
      -8.8964147062627910e-02 2.0019801584351526e-01
      -1.7975989004778484e-01 -7.6511733371770793e-02
      2.4645759154760424e-01 -3.5849889569143374e-02
      -7.6449955111741699e-02 4.1391735936074209e-01
      1.9077110290209168e-01 -1.8734768826596682e-01
      -4.0299211984820066e-01 -1.5968135677670428e-01
      1.9921965714750112e-01 -1.9205121103881376e-01
      -1.0694422140264788e+00 -3.7132037236120746e-01
      1.8042827118994975e-01 -1.0379416614680448e-01
      1.4471205872160756e-01 -1.2236295928457648e-01
      -2.4887451753939444e-01 1.8995828556145214e-01
      2.7108213459935021e-01 -9.1251446992680495e-04
      7.5821488505968607e-02 1.1881480968425175e-01
      1.1176431508483547e-01 -2.0829883769579219e-01
      -8.1339031559045405e-01 3.5192821195321267e-01
      -1.6761555401823774e-01 -1.1340839708071102e-01
      -1.2573937487249875e-01 -2.7172276113455771e-02
      -1.6366883611728469e-01 1.6205695832550582e-01
      -6.2887655145391658e-02 -3.8952358741509853e-02
      -5.9134534778300363e-01 -1.6190806903041308e-01
      3.3056227377673397e-01 -4.9428918431108144e-02
      -1.0063722505430475e-01 3.2422756031755692e-02
      -1.6791318505053388e-01 3.3410367530670465e-01
      -6.1415444632080352e-01 -2.5639593163458502e-01
      1.7733281301524806e-01 1.2234652142423234e-01
      3.5613179389784322e-01 1.4686893495868447e-01
      -4.1522166083951241e-02 1.0871268537549045e-01
      -2.8452664406119782e-01 2.0095207529013440e-01
      -3.6289877642397888e-03 4.9233937541243299e-02
      -2.0646796813582686e-02 -3.3433169306705690e-01
      -8.8020822814893249e-02 5.9442266968327129e-01
      2.1333218296170953e-01 1.5221971740596607e-01
      -3.1368853479629498e-02 -1.5918002483085630e-01
      9.2451204738892651e-02 -4.7259406093855982e-02
      1.2206929887753178e-01 2.3012338940316585e-02
      -7.6566365200266759e-02 4.1563588500849008e-01
      7.9141989817714462e-02 -9.7633972866044798e-03
      -1.4535224238589328e-01 -4.8161514424978381e-02
      -1.9013102303174040e-01 -1.4088655841544565e-01
      -2.3428899943219605e-01 -9.8569516671033308e-02
      -1.5271326068467536e-01 1.7883919311333485e-01
      9.2598636336471016e-02 -2.7674854850936365e-01
      1.2189955663117165e-01 -9.2838147302842372e-02
      1.6165889064478831e-03 1.8324411723874390e-02
      -2.1129808707174647e-01 7.6783564786116121e-01
      -1.0775258854576296e-01 1.1056766414559929e-01
      -9.2374245278678824e-03 1.6301285675469224e-01
      1.8718893194125649e-01 1.5593578987345963e-01
      -1.2323946278659727e-01 8.0221874392537251e-02
      -1.7498608165659138e-01 1.9595150461951186e-01
      7.6250512401533688e-02 -2.3737123923860279e-01
      -7.8613564547931891e-01 2.0748415184184436e-03
      -1.5899635848486637e-01 1.3893430605662740e-01
      1.2707646091333358e-01 -2.4148353257299562e-01
      -2.0679758992769337e-01 2.5341294318824492e-01
      3.2035726694160510e-01 8.2860000580096821e-02
      5.6006297492778388e-03 1.4292777534803097e-01
      -2.3702531947734928e-02 3.3617116432086525e-01
      -4.5499461332369019e-02 1.1369793098326138e-01
      -1.4665675452035076e-02 7.4173452007035776e-02
      -2.5376685062861742e-01 -2.9928836869980890e-01
      -5.1326389559356667e-01 1.2474415152739296e-01
      -1.1784353714250416e-01 -1.4773905120111336e-01
      -1.4045466386605329e-01 1.8392126353579691e-01
      5.3972264891205912e-01 -9.1313403794775716e-01
      1.9215170201265239e-01 1.8063902880338117e-01
      1.1418294780513320e-01 -3.0316572128058173e-03
      1.7990572260330373e-01 -1.7803333400887289e-01
      3.1523778384079902e-02 -8.0338322845172321e-03
      5.8979556018181623e-01 1.7660869373246801e-01
      -3.1454584136068775e-01 1.5056336795031008e-01
      1.5099691787863426e-01 -6.2629889016111467e-02
      1.8476607153626745e-01 -2.8917368436373486e-01
      -4.8081859414719375e-02 -5.9858994238984884e-04
      -5.4403802080405565e-02 -4.1073471975353375e-02
      5.3024081161302894e-01 -1.2569930753141947e-01
      1.5618466011886967e-01 4.7762729822219852e-02
      3.3880370162747434e-02 3.0110815210968273e-02
      -1.6485051509570472e-01 -1.1186030422701879e-01
      -1.7254414145341535e-01 1.3498439954548216e-01
      -1.4224427644535392e-01 -4.3363569014977631e-03
      9.7988965667077602e-03 7.0726923576347198e-03
      -2.5559686610313909e-02 -1.6249945670270605e-02
      -3.3890497012951173e-02 8.6172097019573735e-02
      2.3735770845169823e-02 -9.9901604424502036e-02
      4.4426848390056490e-04 -3.2501400421655097e-01
      3.4571341363361249e-02 6.3108854522600052e-02
      2.6851611661263111e-02 -6.2700604775105473e-02
      -1.5720637118324467e-02 4.7700182187623355e-03
      -4.7404031808692980e-02 -1.1193911963082132e-01
      -1.5039693451765077e-01 2.6351196330767329e-01
      6.4637921340268065e-02 -1.4019546902408619e-02
      -3.0188032331125666e-03 1.2931981131611539e-01
      -5.4705376988703736e-01 1.3594602263608729e-01
      -1.2837771229363037e-02 1.2672564632700206e-01
      -1.9585204206701751e-01 1.2891340432829165e-01
      -6.6527604213939148e-02 2.6437924529683191e-02
      -3.8400132837719946e-02 4.3271725862915771e-02
      -3.8195289156232654e-01 -1.9136404347514338e-01
      -2.2776319302517656e-02 -2.9300903273281727e-02
      -2.6500966592043533e-02 -4.3477664298929616e-02
      -3.8584570403251743e-02 -2.9468036857446761e-01
      6.0306751108714696e-02 5.3367891563754177e-01
      1.5848218912560241e-01 6.8263849166139590e-01
      -8.1604666071509568e-02 -2.2570390463889728e-02
      -6.7553375153069889e-02 -5.5254341152935232e-02
      -3.8171618920622312e-02 1.2973669491012276e-02
      2.1674701288093742e-01 -1.8001582863161898e-02
      3.9082478706708036e-02 4.8719781892846925e-02
      -7.2050146111439295e-01 -8.8818233674842220e-02
      7.9526591887992729e-02 2.9813133360353607e-02
      6.0609305621415456e-02 8.0834414241486505e-02
      1.0817757818529132e-02 -2.7933231611644571e-01
      3.9507925430971882e-02 -1.1890996385922555e-02
      -6.1813686247117604e-02 1.2482398881695005e-01
      -2.6351835720919987e-02 5.4863284218792455e-02
      4.9774809822319810e-01 -1.4770820190032338e-01
      3.0047273610064179e-02 3.9709878332856008e-04
      -1.9920151320929929e-02 -2.0763695198875912e-01
      -1.1064497885821663e-01 2.0870476082701952e-02
      -3.0989863020018337e-02 -9.1425673031833896e-02
      1.8264177914471887e-02 -9.1541842222067335e-02
      6.5371887704246651e-02 -7.6716768165634042e-03
      -5.3875381186778246e-02 7.5415534018375294e-02
      7.0891401522948816e-02 -1.2434425426120459e-01
      4.9760531637041770e-02 3.0434061140875601e-01
      -1.3889706081122411e-02 -7.1524806650467157e-03
      -2.3448153788529859e-02 -9.2890007394914043e-03
      -2.8778923889996555e-01 -1.1488026747342486e-01
      -1.2186103735416053e-01 -1.6601395462711785e-01
      1.4374188738679777e-01 9.0831076435199054e-02
      -1.5175369603548317e-02 -6.3181886395282383e-03
      4.1699197780607537e-02 -5.1474645397754839e-03
      -2.8384106088830715e-03 5.0408657938474127e-02
      1.7513078449590901e-02 -1.2800834812536965e-01
      6.7045240522131150e-02 5.4423500153149773e-01
      3.1401919552427916e-02 -1.3580927425596880e-02
      6.5912837823444662e-02 -7.0124921895879516e-03
      -8.0819640441294367e-03 1.5106533714571962e-01
      -2.0636559370790116e-02 -7.4432274936627588e-02
      -3.9723832756678680e-04 3.9887972567466623e-02
      2.8112801280395602e-02 -1.5801173723510628e-02
      -5.3847684624702262e-02 1.4121010812883774e-02
      7.8054930340939466e-03 5.5673354403075477e-02
      -1.5628185674234612e-02 -1.3254833127087307e-01
      -5.2185867010068242e-02 1.1063144470848964e-01
      8.3075287033517575e-02 6.6391122194276462e-03
      -8.2698714642908316e-02 1.8128984355218047e-02
      1.0862968394068009e-01 1.5231154451616083e-01
      -7.6437650579287544e-02 -6.2394981205854329e-02
      -5.0714829278579517e-02 2.1024093070762744e-02
      2.1880177772290421e-01 -2.0564073843290280e-02
      4.3939688717613425e-02 -1.5989901599461567e-01
      8.7891921715980370e-02 7.4949899737060330e-02
      -4.6721722685234925e-02 2.5112797800810548e-03
      3.0236710057633110e-02 -4.3888406450552142e-02
      1.1888988303874674e-01 -9.5004669642558034e-02
      -6.0018274465751864e-01 -8.4025595220142468e-02
      4.4975212477935560e-02 -2.7363541856014518e-02
      4.8519185272322224e-01 -1.5356519869941848e-02
      2.9374739404038633e-02 -8.8476211290718892e-02
      -7.4439769645578052e-02 6.3733729636332032e-02
      6.4697940652916605e-02 -2.0282097297167254e-01
      3.3812830815209832e-02 -3.0902787168812257e-02
      -2.7184831598782228e-01 -1.7448260422436995e-01
      7.9237318002301437e-04 1.6341180471065600e-02
      -3.2054704813645735e-01 -5.0529646529711425e-02
      1.5033809872512398e-02 1.8681544235575336e-03
