<?xml version="1.0"?>
<opencv_storage>
<DigitOCR type_id="opencv-ml-ann-mlp">
  <layer_sizes type_id="opencv-matrix">
    <rows>1</rows>
    <cols>3</cols>
    <dt>i</dt>
    <data>
      39 30 6</data></layer_sizes>
  <activation_function>SIGMOID_SYM</activation_function>
  <f_param1>5.9999999999999998e-01</f_param1>
  <f_param2>1.</f_param2>
  <min_val>-9.4999999999999996e-01</min_val>
  <max_val>9.4999999999999996e-01</max_val>
  <min_val1>-9.7999999999999998e-01</min_val1>
  <max_val1>9.7999999999999998e-01</max_val1>
  <training_params>
    <train_method>BACKPROP</train_method>
    <dw_scale>1.0000000000000001e-01</dw_scale>
    <moment_scale>1.0000000000000001e-01</moment_scale>
    <term_criteria><epsilon>9.9999999747524271e-07</epsilon>
      <iterations>1000</iterations></term_criteria></training_params>
  <input_scale>
    1.9762858787337381e-01 -9.8208471825210542e-01
    7.0273604623762964e-01 -1.6378191095968699e+00
    9.3500179092131119e-01 5.8490590128740205e-01 1.2204634522670597e+00
    3.9457931786351158e-01 1.2445199691852356e+00 3.7161213705411478e+00
    1.3685675862909588e+00 -5.3948187521736257e-01
    1.4277970388883341e+00 5.2446057638251453e-01 1.5007684726022603e+00
    -1.4711552886130511e-01 1.7374220423846096e+00
    -5.1567855124873641e-01 1.8731017994588401e+00
    2.4542458735011730e-01 1.9595699184090498e+00 3.1138472342236684e-02
    1.9986461480809965e+00 3.0679836225394759e+00 2.0814887147769645e+00
    3.3002738960820172e-01 2.0897064857748133e+00
    -2.6820562833940014e+00 2.2192325134488735e+00
    5.5325891940834239e-03 2.2822850103937355e+00 1.0847776591957852e+00
    2.3518391139548136e+00 8.9047130395732998e-01 2.4065289813581483e+00
    5.5563011248978833e-01 2.4490185843463754e+00 1.3044967110747696e-01
    2.5825103333316703e+00 7.6342860024113679e-01 2.7015220804474911e+00
    -8.3426670113218762e-02 2.8086705128749134e+00
    -2.9689052623437467e-01 2.9299829410169473e+00
    1.4110868265284691e+00 2.9860727035347789e+00 4.0475531616027377e-01
    2.9875785685119984e+00 8.9010861841314526e-01 3.0280842454528196e+00
    7.6110794050300246e-01 3.2416992712216919e+00 1.0383692637605912e+00
    3.2836153014934046e+00 -1.8349046630771937e+00
    3.3956169128717977e+00 1.0499579416477798e+00 3.4813178551664543e+00
    1.6237171610173559e-01 3.5896120116696824e+00 1.9456951463153593e-01
    3.6391486391234955e+00 -2.6094455374341190e+00
    3.7032180476999574e+00 2.4144304407332065e-01 4.1103186642916896e+00
    1.9651974125299301e+00 4.2716853838985074e+00
    -1.4758428841552216e+00 4.3762100255573486e+00
    1.1673627810067777e+00 4.4894096153891265e+00
    -4.6067544820294730e-02 4.5284942052915076e+00
    -5.1325246147852632e-01 4.6790088801843766e+00
    1.7339536666776807e+00</input_scale>
  <output_scale>
    5.2631578947368418e-01 4.9999999999999994e-01 5.2631578947368418e-01
    4.9999999999999994e-01 5.2631578947368418e-01 4.9999999999999994e-01
    5.2631578947368418e-01 4.9999999999999994e-01 5.2631578947368418e-01
    4.9999999999999994e-01 5.2631578947368418e-01 4.9999999999999994e-01</output_scale>
  <inv_output_scale>
    1.8999999999999999e+00 -9.4999999999999996e-01
    1.8999999999999999e+00 -9.4999999999999996e-01
    1.8999999999999999e+00 -9.4999999999999996e-01
    1.8999999999999999e+00 -9.4999999999999996e-01
    1.8999999999999999e+00 -9.4999999999999996e-01
    1.8999999999999999e+00 -9.4999999999999996e-01</inv_output_scale>
  <weights>
    <_>
      8.2577858566105089e+00 -2.2714002679808925e+00
      -3.3107420560663936e+00 -1.3208564085189760e+00
      3.7433602547463407e-01 4.1759866830411978e+00
      -2.0910394918952835e+00 -1.3396048169581036e+00
      -3.9046567520516411e+00 -2.5001679168740742e+00
      -1.9701953382191681e+00 -1.1772729292001285e-01
      4.6756621589987479e-01 4.5194384251321411e+00
      5.6727472409541981e+00 4.3251951900135683e+00
      -5.7326891994418743e+00 -1.2593257345251954e+00
      4.0732930341308702e+00 -2.8812257493881077e+00
      -2.1511897002868305e-01 -9.1903820778815053e+00
      2.2415944805479890e+00 -7.1421653774576277e-01
      -5.1208850147285183e+00 -1.9772883904012786e+00
      -5.0993613209275672e+00 1.5485267654541388e+00
      -2.9698467907475594e+00 -1.7402472917869798e+00
      -1.9027012171159843e+01 -6.2074485815505520e+00
      -6.4425629706014487e+00 6.4712844883690401e-01
      -6.3141910536043322e-01 -1.7797212499684940e+00
      -3.7088380274872418e-01 1.7015795268653208e-01
      -3.5165116433359520e+00 -1.0218470701583124e+00
      3.8707670128793253e-01 -4.4811565209362297e-01
      1.8067460970600975e+00 -1.9926724031741414e+00
      -2.1072295245339627e+00 2.9532503858613910e+00
      -3.9685805180030820e+00 5.8438491444593579e-02
      1.2537415525779629e+00 -3.5412821098018967e+00
      -2.2090945197347205e+00 1.9406639438620281e+00
      1.9189715109501192e-02 -5.7382754296404448e+00
      -7.9323812752237510e-01 -5.6548910208348984e+00
      -7.2803504968505794e-01 2.5483503013685732e-01
      -6.6181274979071052e+00 7.0379342924805888e-01
      -6.9038012914142204e+00 5.8282441773535310e-01
      1.0633523608901683e+00 -3.8944984906594393e-01
      1.1526911460348337e-01 1.7130804278551224e+00
      7.7414590496567881e-01 9.6084111228032021e-01
      1.1651695616609714e+00 1.3327908242883992e+00
      -7.1723835446840056e-01 2.3924627520981048e-01
      -2.0717730434870163e-01 3.0882367538562425e+00
      -3.6786745070681515e-01 2.1950042167028259e+00
      1.6481136401223566e+00 -5.2594398167335599e-01
      -4.7723827491518049e+00 1.9366564068903334e+00
      -3.2305247287883537e-01 2.3179396797533749e-01
      -6.3477904115632944e-01 3.8123651355039423e-01
      5.8308532418240955e-01 -5.8418074149884180e-01
      -2.1173132503688127e-02 1.8846944835633669e-01
      -5.8800849051070903e-01 2.8329501985555101e+00
      -8.8105329954603864e+00 8.9606069911013730e-01
      -1.0379942465579441e+00 3.5818512517554235e-01
      1.4015060473948274e-01 8.3814723810996283e-01
      -1.3819703017555176e+00 -1.4518039835419632e+00
      -5.5402200001748925e-01 -4.7910773820046710e+00
      2.0618408556771519e+00 -1.0768168991255488e-01
      -5.9306742932807399e-01 6.2265694933772604e+00
      1.8848257691557164e+00 -1.3300266856112914e+00
      -2.4761767571440330e-01 -7.5897478498551063e-01
      -5.5952754328865517e-01 -5.3360032031959148e-01
      -2.8675701597736697e-01 2.7677164423322365e-01
      -6.0755921602752383e-01 4.2530311340026152e+00
      5.2663723924414929e-01 -2.5461193541604095e+00
      2.2065323348672963e+00 2.6575465327476649e-01
      -6.5220611570989895e-01 2.7172741415115977e+00
      -1.1483647431234720e+00 2.3259719683193687e+00
      -6.1617484477333284e-01 2.1163971789388665e+00
      6.4697864709566899e-01 -9.6696647080040818e-02
      -3.0075865775548549e+00 5.4762342191325253e-01
      -1.4149915316800685e-01 -3.1320170005198462e+00
      1.9968914350029763e+00 8.6520961700460008e-01
      -3.0294947502252665e+00 1.7421185882346848e+00
      -1.5133262630347419e+00 -2.1606962915280727e-03
      -1.3313205929885685e-01 -3.0035947622250632e+00
      4.7192972088773733e+00 -2.1913328260964393e+00
      -2.5545860703819439e+00 2.6922292835742467e-01
      -2.8692766401879993e-01 2.0927465585036686e+00
      2.4018090163667853e+00 -1.9581967144777519e+00
      3.5357145372123722e-01 -2.6350715693298077e+00
      -2.3139989923333144e+00 -1.9379588550941429e+00
      -7.3540284773887601e+00 -2.2900997246831079e+00
      -5.9071596956858796e-01 7.9519972125781702e-01
      -3.7195523595744467e-01 -3.5585262296508147e-01
      1.9351971414060811e+00 7.7728391360863891e-01
      -2.9566583774312544e-01 1.5555841283763885e+00
      -1.7446880047443849e+00 -3.2378834805342517e-02
      2.9172896422819172e-01 -3.3929523866906841e+00
      -1.6522618950280261e+00 1.3107607184629628e+00
      -8.3122343804632640e-02 6.5247760532329030e-02
      -6.3309427087425174e-01 2.2533472246526558e+00
      1.0245682084366687e+00 1.1944803872281300e+00
      -1.5173869190276530e+00 2.5558647857879713e-01
      -1.8400522611828782e+00 -2.6435224471167191e+00
      -2.1303925807086190e+00 1.6544804732737564e+00
      -1.8442767736188698e-01 4.3979916176254519e-02
      4.4533335664906133e+00 -2.6236491553293068e-01
      1.3558609052110848e-01 -2.5742156680882373e+00
      -4.1055161428177195e-01 -1.3609351242547114e+00
      -3.5449020896346073e-01 4.8293756101846286e-01
      -7.6474674027353196e-01 1.8945498211188994e+00
      1.4366548778827202e+00 -1.5684983957417685e-03
      3.4228480928832803e+00 -1.3407544073966826e+00
      2.6467511614029382e+00 1.9677160454779683e+00
      6.2624373405936662e-01 -8.1175389046301938e-01
      1.7074252518889803e+00 1.0867514671160790e-01
      7.7351138701084221e-01 1.8044511233899840e+00
      -3.1296517934319944e-02 -1.3343794631502104e-01
      -1.0362424740606753e+00 1.5498473868799476e+00
      -1.0750687736257611e-02 3.4429329838405747e+00
      8.3135345820876516e-01 -1.8660658401644479e+00
      6.7999183280578523e-01 1.2817603892920304e+00
      7.2476851332107045e-02 5.2918746993209442e+00
      8.4638597463752208e-01 6.7849194280698244e-01
      -1.2187164673568227e+00 3.6653012086874097e-02
      -4.8729155396616880e-01 -3.8502251386155750e+00
      -1.6057017178148569e+00 1.8048116711695619e-03
      -1.7129888972841418e+00 9.3758908575263145e-01
      -1.3082293740571873e+00 -1.3634393548979367e+00
      -9.1516864379673601e-01 8.2823493500764345e-02
      -7.6838294311188704e-01 -1.6297888427184468e-02
      -2.1737482748164796e+00 1.3715516007859023e+00
      -1.4261980458556651e+00 9.3481140635124949e-01
      6.1455632254690395e-01 1.2396956742998757e+00
      -7.9054488241867837e-01 -1.1715853942974495e+00
      4.2149935262145360e-01 7.3894172770686350e-01
      3.5026730897399365e+00 -2.4113441226871790e-01
      2.4771172400712985e-01 2.7382909123550974e+00
      5.9391321272198783e-01 -1.0781188497807221e+00
      2.2724311717138108e+00 -2.9631181027593018e-01
      7.2141869402579950e-01 2.3406745759515992e+00
      -1.5607013811974797e+00 -8.0062890356575012e-01
      -3.6970500004225165e-01 -3.3034771489750079e+00
      -3.2458330036379002e-01 -1.3155277706978994e+00
      -6.8243214500873717e-01 9.9218758345632513e-02
      -8.4724780184177639e-01 7.2678941557161814e-02
      -4.2128827849214978e-01 7.0603920520868014e-03
      -5.8226086154095558e-01 2.2184699692210312e+00
      -1.5806766675278101e+00 1.3400661554407007e+00
      -2.0087201632452398e+00 -2.4092687660368965e+00
      8.1748067688122361e-01 -4.5659383223059130e-01
      4.6985499083305378e+00 -2.1690788224206830e+00
      1.1543504621991387e+00 -5.7732466018284967e-01
      -5.7029326547690384e-01 -1.6853620261272175e+00
      9.6329048535249318e-01 -5.7109815124177798e-01
      8.3198927422697466e-01 3.3958109643465559e+00
      -3.7388612171970221e+00 -7.6227834017018703e-01
      1.3495406470386642e-01 3.7274152296533364e-01
      -2.0828203717787073e+00 6.1840478312240521e-01
      1.5630533941912210e+00 1.7135531788259592e-01
      -2.0976262029637771e-01 -3.3144792947838003e-01
      1.8846586621585553e+00 5.2144584790189052e-01
      -1.0450418008122482e+00 -3.9277682956681115e-01
      -2.1726658630363644e+00 2.5406103225365753e+00
      1.0724897314792123e+00 5.2542207050725054e+00
      5.8069988357011026e-01 6.3422401937635076e-01
      -8.1356419441992189e-01 -2.7249332600323553e+00
      2.7835640641818177e-01 3.3004896989624424e+00
      2.6262351128467760e-02 -1.6420894932925816e+00
      1.4919226671378480e+00 -1.1021245009554366e+00
      1.3047719773704929e+00 3.3374683216586796e+00
      -2.5328896182369465e+00 7.8738436797321298e-01
      -7.5678624525044669e-01 -6.0946493738606247e+00
      -1.2820614754056900e+00 3.0027209828323094e+00
      -3.9189783881246949e-02 -1.2056583352570563e-01
      -1.1713325305553244e+00 1.1274310690252547e+00
      2.4802303562865560e+00 3.3253878588899244e-01
      -8.4717374787472755e-01 5.2194896761978149e-01
      -2.0514371885613403e+00 1.8450679217022690e+00
      -1.1349258347802356e+00 -2.5084312037434384e+00
      -6.3089219860794221e-01 4.2418003416875011e-01
      -3.8557792994642668e+00 -1.8703058566750672e+00
      1.4794300273847383e-01 3.3245550273787936e+00
      3.0671700149356690e-01 9.7932959238642514e-01
      -1.5082133759899883e+00 -2.9569460792230981e-02
      -1.1470681862359389e+00 -1.8942479255826818e+00
      1.1824890879901755e+00 4.3664570043795331e-01
      -7.7558648171196776e-01 1.0819881523002293e+00
      -1.6383812829894693e+00 -6.9849945380337441e-01
      -3.4345778110941622e-01 6.6552973348057431e-01
      -2.3666879217048415e+00 2.6713951264285618e+00
      -1.7790785243757166e+00 -1.9986675131710460e-01
      1.4380541934463706e+00 6.2876396043809635e-01
      -1.7432434893242971e-01 -9.8366921133165552e-01
      -1.1994144061832033e+00 1.1312642913085025e+00
      -8.5637066767482806e-01 4.6309997998831037e-02
      -6.8788679382967022e-01 -1.2411221930250584e-01
      -5.5796548472700003e-01 4.8199169605780362e-01
      3.6295768692969066e-01 -1.6743170838997928e-01
      1.4146972685652640e-01 -3.8976291723859074e-01
      3.4745914216140200e-01 2.0210694331471326e+00
      -1.3156318527456101e+00 -8.3100411132413187e-04
      3.0755686414032542e-02 -1.4398768243708293e+00
      -1.8873630569524629e+00 8.0209436031805004e-01
      -4.6381446456858594e-01 1.1901947870237528e+00
      -5.4578832171426162e-01 -9.4944666991261500e-02
      -5.3730207520241147e-01 -1.8398613549253856e-01
      -1.2556575178824929e+00 -8.2087121868527779e-01
      -1.0596717679591579e+00 2.9012840179966387e-02
      -2.2826499557297369e-01 1.1707866233048523e+00
      1.3938247434964866e+00 8.9692659449848028e-03
      9.2388369876933685e-01 1.1085782896227998e-01
      3.2411024866406196e-01 -1.3786568597104014e+00
      -6.5280682773768209e-03 -3.5263567275409835e-01
      1.0847060927121939e+00 3.4522290796243676e-01
      2.3530374506853008e-01 -6.5852593759031164e-01
      2.2337747662298217e+00 -1.0717407777923740e+00
      5.8392182459920583e-01 2.2133845542780453e+00
      3.4887142545332770e+00 2.0645317757177398e-01
      6.2164912177927945e-01 -1.5046254302251136e+00
      1.6804010603611592e+00 -2.4675051222201989e+00
      -3.0395761189193354e-01 1.1951767314938218e+00
      1.9490979192641102e+00 9.5697170547971755e-01
      2.6205261821577523e+00 -1.7666997185223801e+00
      -1.7964680514139864e-01 1.9095349257698746e+00
      1.5240585775701301e+00 4.1271995639965231e-01
      -1.8172566522683020e+00 7.4247639921305908e-01
      6.9733798408205427e-02 -1.2420005653531965e+00
      1.6046571435257430e-02 7.0554054321110803e-03
      -6.0764038583274405e-01 -1.7499088774790159e-01
      -1.0963610074889725e-01 -2.8118453296720793e+00
      -1.6164823282821117e+00 2.7196786408764501e-01
      6.3123008389098945e-01 2.0259026920647816e-01
      2.4020227164283758e-01 -5.1245902542773791e-01
      5.2062156887998638e-02 1.2094695918296750e+00
      1.0307836956282508e+00 3.7030136573593081e-01
      9.3219675414588576e-01 -7.3036786936443399e-01
      8.5065242214285641e-01 -4.6848094597543466e-02
      1.8704848086007994e-01 9.9944293652851526e-02
      1.1615003992251178e+00 1.0918381252243243e+00
      2.3189523934619591e-01 2.0162571305423424e-01
      -2.1514178144556042e+00 -1.3633047576629653e+00
      -6.5460359254430867e-01 -3.8746194313814075e+00
      -2.6925947159241170e-01 -2.9397309487631101e-01
      -8.7365963762767318e-01 -5.0019682439062962e-01
      -6.5640034862765179e-03 3.1331731764817459e+00
      3.3331561659462352e+00 -2.4678552255983169e-01
      2.7947481422272835e+00 1.6141674650447408e+00
      1.9903191402188147e+00 2.7245863378070190e-01
      1.2668389654616972e+00 -1.0039718050816031e-01
      1.8403753001924146e+00 -4.7026012218506064e-01
      1.8028375853286085e+00 6.5853998525794344e-01
      1.0336400488134159e-01 7.8701016227799314e-01
      -1.0351019949751314e+00 4.9923565882011955e-01
      3.0987176253445792e-01 5.0105662289016211e+00
      2.6482330210823274e-01 -1.7012059251325951e-01
      6.3664995861106932e-01 3.2684672560689426e-01
      -4.1736398670255880e-02 -1.7871859140006936e+00
      6.5327776154996231e-01 4.0034532305285164e-01
      -1.3900922722638753e+00 -9.4701502314259153e-02
      -4.6765740192270061e-01 1.3235764008515152e-01
      -3.6853668574037335e+00 1.2301739711171542e+00
      6.9401250782708701e-02 -3.7226684658378595e-01
      -5.7944216936855908e-01 3.1023879743073951e-01
      -3.2140814241364063e-01 4.9536107576601518e-01
      2.8613365826541592e+00 2.0027759070479663e+00
      3.0446503885696035e+00 -1.3905057698093553e+00
      -4.4489832292718484e-01 -1.0577125861101171e+00
      6.7668774511693219e-01 1.9408531282706445e+00
      3.2108763112576155e-01 -8.5675758909619171e-01
      7.2234028686244886e-02 8.0679195845949014e-02
      -6.0796065732039510e+00 6.1201265692129581e-02
      -1.5689026142125524e+00 -1.8896466836883454e+00
      -2.2830355749599067e-02 -3.3560814520302079e-01
      1.1824582570568098e+00 2.5737554391429964e-02
      -1.0071926713400960e+00 -9.5502107339689823e-01
      3.3141468083725667e+00 -3.5028929919820434e-01
      3.3568727007764143e-01 1.1501386341427990e+00
      8.1241323532802645e-01 1.9918721323478696e+00
      -1.5389177168370716e-01 1.0046104041760144e-01
      -6.2012936510681749e-01 -1.6890223795709129e+00
      -2.6599295339817433e+00 2.2124212757045161e-01
      -5.3908886828491032e-01 1.6665134978491367e+00
      -6.6631793339474288e-01 1.6872864738940545e+00
      9.2309783793569566e-01 -1.4777121215436337e+00
      -8.7753966428916119e-01 -1.5519591356216300e+00
      -1.2889319726992381e+00 -2.6890203379896453e+00
      -4.1407673134952777e-01 -3.0177695303661395e-01
      1.6429000171796618e-01 1.0354051074928321e+00
      2.3837093819032824e+00 -4.9795799738835150e-01
      -1.3367517947893284e-01 2.8355949734496262e+00
      8.4896728652976350e-01 2.7917587968928498e-01
      -1.5163038929162920e+00 -1.0902131104701165e+00
      1.4190509738326087e+00 1.6880128710670899e+00
      -2.6438940098437064e-01 7.3193736145481980e-01
      9.4687527004268435e-01 -1.9338428065725052e-01
      2.9944254363536499e-01 8.4906310007165287e-01
      1.6629121896727761e+00 -5.0681245659168606e-01
      -4.5838258737008519e-01 -4.5857560177152806e-01
      4.9438619052099630e-01 2.4697534846626596e+00
      7.8694864813641641e-01 3.5156047455781874e+00
      1.4949968566528566e+00 -1.3146366973728041e+00
      5.8330228535557914e-03 1.0474777488511242e+00
      3.1063790777339988e-02 -2.2348190314846772e-01
      3.2162782516292771e-01 8.4200355168625196e-01
      -2.5808462713962405e-01 -3.2621210965112019e-01
      -3.1385118284888156e+00 -1.0126997236946999e-02
      1.9878215345445613e+00 -2.6454668375305475e+00
      -3.8024014877990986e-01 3.5558487151561324e-01
      3.6537059100097147e-01 -4.7681467719567927e-01
      4.2611313243273996e-01 3.8191491669017270e+00
      3.5627565337013578e-01 -1.3299137613142772e-01
      -9.1879418359663512e-01 5.4326028545207150e-01
      -1.8943460049739613e+00 1.5003362096336021e+00
      3.6979715959414024e-02 1.4429769015065066e+00
      9.9931064724231333e-01 1.5215549253048612e+00
      9.8161958932786142e-01 1.2636473565411259e+00
      -4.5581195431358518e-01 4.9323902828214433e-01
      -6.1449575356733421e-01 3.3942488105110002e-01
      -2.0307974229919190e+00 2.1107210810130861e-01
      1.0213260914519641e-01 -1.3412966681760048e+00
      -2.3739199007074694e+00 2.8850597207607909e-01
      -1.0757772604895834e+00 -9.4444136915211663e-01
      -6.3344659582101365e-02 -3.9218994958522280e+00
      -2.6443474684020102e-01 -3.0459003206285279e-01
      -4.0896160503725243e-01 -1.6769328618787235e-01
      1.3787566716237010e+00 1.0204413155378842e+00
      -2.9087983690106833e+00 5.4026659589040693e-01
      -1.1120727264165544e+00 3.7267193404391097e-01
      -1.3449014103624546e+00 -1.4052820591318365e+00
      -9.3478039286162695e-01 6.7030174795034669e-01
      1.7313695867793912e+00 -4.1599420556278044e-01
      -3.4221697188464534e-01 -3.6846464250438302e+00
      -4.5460849938233661e-01 -6.9240172271723432e-01
      -8.0171512757001330e-03 -7.0764163554636916e-01
      -3.5847884829900151e-01 -2.6675247611837500e+00
      3.2230535581593935e+00 4.9559793309592853e-01
      2.3245206301981618e+00 6.5214609921708702e-02
      1.6056291089173051e+00 2.4029230975977236e+00
      -3.1011184414609211e-01 6.0428036422486142e-01
      -1.8959416178932140e+00 -7.1472375296176793e-01
      2.6457333649007762e+00 -4.4557331802861705e-01
      -1.3354089113749279e+00 3.2062068462154270e+00
      -1.7912474828517115e+00 -2.0198755731111020e+00
      3.7146885946454383e-01 2.0130180083814198e+00
      -1.1364767346925366e+00 2.3348707416996080e+00
      -6.2187116131399982e+00 -8.6448291679978506e-01
      7.8335273454230014e-01 4.7717745992202705e+00
      4.3900289829977351e-01 -7.5782746381578214e-01
      -3.3800555650147439e+00 4.0244210541150816e-01
      9.6519846916277641e-01 1.4809375743278372e+00
      -1.5777034811689774e+00 -7.6363754968758335e-01
      -8.7575108789999123e-01 -1.1594832987287287e+00
      -6.3582615019372943e-02 1.8379252428077888e+00
      2.2788377606098192e-01 -1.8773136547815210e+00
      1.8150812898807103e+00 -6.4898497854235970e-01
      -1.7866241374517704e+00 7.4153701757361179e-01
      1.1215051540080436e+00 -1.0658259792419036e+00
      1.0946225211040868e+00 2.3166038304621521e+00
      -9.8512222046350384e-01 -2.2285974676284446e+00
      3.8396036364641534e-01 -3.9033902412123828e-01
      -8.4061019281548308e+00 5.6449481162893922e-01
      -2.1109722862248309e-01 3.0367836346405035e-02
      1.7060637862526462e-01 7.5468847281264650e-01
      -1.4811221743054728e+00 -1.1744979663658475e+00
      3.4046983336850883e-01 -1.2045973368061096e+00
      7.7063629860793559e-01 2.4681927097470548e-02
      2.5947995169733007e+00 2.3699451221550069e-01
      -1.6741529287720341e-01 -8.7562847562542256e-01
      -2.9609577739260162e-01 -8.8714243997909970e-01
      3.4112840111119941e-01 7.3587706672188224e-01
      -1.0181175268840030e+00 1.2879436125456620e-01
      -5.8621185190986436e-01 -3.6186652120353818e-01
      -6.2857118337090434e-01 9.7275440689561926e-03
      4.8428923723784428e-01 -1.4638043329973278e+00
      6.3255542266628539e-01 1.2060112644396146e+00
      -2.7771186805243140e+00 -1.4527134285315029e+00
      1.9450718972883135e-01 8.4572879874663429e-02
      -1.5373601609130852e-01 -5.5367863792330063e-01
      -7.4725248584040194e-01 5.3349333737627613e-01
      3.8141433247754686e-01 3.5841310056827869e+00
      -2.4666381627275005e+00 -6.1019639512146728e-02
      -3.3275245944398391e+00 -1.8472182085446363e+00
      -6.4414268771539573e-01 -1.3264706941282234e+00
      1.4441803012642558e-02 -1.7416130480126366e-01
      -6.2802685399122737e-01 -1.0524523765510794e+00
      -9.9511410146052692e-02 -2.1789310632579700e-01
      3.8527395888147908e-01 -7.7514579996139477e-01
      7.7455131456703596e-01 6.3950406774487889e-01
      -1.7206095334674840e+00 -6.8556987782521328e-01
      -6.7063528586094032e-02 -1.1656126589995017e+00
      -5.1356072763033849e+00 -6.9783886202048273e-01
      -4.5960554367830780e-01 -3.2477738136328305e-01
      1.9835464314416001e-01 -2.9634235278271898e-01
      1.1994067715844847e+00 -3.3978044442149491e-01
      3.5696803879514738e-01 1.1375339973039311e+00
      -1.8355364432521555e+00 8.6523529195297127e-02
      -3.7018643766391186e+00 -6.9318270729323173e-01
      -2.6278987689454310e+00 1.1202372530291196e+00
      -3.1941115706314477e-01 1.1387330472983739e-01
      -8.4464145305673988e-01 -2.0305713991060589e-01
      -1.9099423859454814e-01 8.3736798341498705e-02
      -1.2015781175807219e+00 -1.0900404125917912e-01
      -5.2133930044901811e-01 9.0927915982952334e-01
      -3.5268356987009120e-01 1.7140112350840371e+00
      2.8908165630050642e-01 -2.7256526282133520e-01
      2.2827541842022230e+00 -7.8099910927368954e-01
      5.5325708809357210e-01 4.5288956859326506e+00
      -7.6541118033106051e-02 2.1283683106086487e-01
      1.2280244505588322e+00 2.5491366651923308e+00
      3.9679489646876537e-02 -2.1186742823603066e-01
      -2.4787594361851850e+00 -1.7234430612082011e-01
      -1.1708739311249505e+00 -2.0064101524919380e+00
      -1.6800754285194661e+00 6.1281372475175999e-01
      2.7755013498771630e-01 9.3095750257029186e-01
      2.5714065137821512e-01 8.8123517951255181e-01
      8.2346160660257139e-01 -2.9240779123164179e-01
      7.6460823984842308e-01 -2.1463445268393486e+00
      -3.6112288810749987e-01 2.2881279780874340e+00
      -1.0819120593487119e+00 -3.1637256418618644e+00
      6.5212539935025543e-02 -1.0506885767888532e+00
      -9.2152255097217173e-01 -4.2172989125772947e-01
      -4.8078160537599524e-01 -2.8010734961627975e-01
      -3.7823817489124656e-01 -6.6401719224566524e-01
      -7.7592153856414925e-01 2.6913260856743243e-01
      -2.1358115866854996e-01 -5.0294627506417433e-01
      -1.9178085626095390e-01 1.7336958471350767e-02
      -1.3831959749538847e+00 2.6293000356716800e+00
      8.8977546636319749e-01 1.3390074725407475e+00
      9.0630995648820850e-02 5.4094426449072719e-01
      -6.1446564079971411e-01 -1.6257001439652201e+00
      1.9050454668678609e+00 2.1522965815553158e-01
      -6.5665803389513622e-01 1.2787811204098973e+00
      1.1558372748726571e+00 2.1135068420481345e-01
      -9.1488661717239428e-01 3.4982380956844334e+00
      1.3589520335790131e-01 7.3395022632499751e-01
      1.2150766193687916e+00 8.2085274003147202e-01
      -2.0859876045421155e-01 1.0939009886793842e+00
      4.8155275102669226e-01 2.8336093608135382e-01
      7.8404710007043488e-01 7.0337170449526665e-01
      8.1264483142526767e-02 -7.5125496431838279e-01
      -1.0999836338855630e-01 7.8620491147715021e-02
      5.8097752594498328e-02 2.2689957956340493e-02
      -1.6013735299708975e+00 -8.2365015323251620e-02
      -1.8932751149995750e-01 -7.4100896726548657e-03
      1.2304808632652844e+00 -5.7829449091928975e-01
      -3.5155423437439770e-01 4.4517083117260836e-01
      1.3197227241188317e-01 4.4973584831495200e-01
      1.3953447724715666e+00 -1.7817564170709179e+00
      -1.5461613216590155e+00 1.4926058181032981e-01
      -1.2115814701082345e-01 -1.9451673792055773e+00
      -4.3547232928127659e+00 8.5091265234106728e-01
      2.4822665714128424e-02 -2.2618917648278578e+00
      -1.0727148754999529e+00 -1.9134924595073997e-04
      -4.8538517619706761e-01 -5.3639905478042704e-01
      -8.0102728616799779e-01 -7.4335814118744487e-02
      2.4322548748044217e+00 8.7779305638159544e-01
      1.0523266619812710e+00 7.5832190812422262e-02
      1.1650754932958789e+00 2.1522295042095446e-01
      8.8213317819880677e-01 -1.5485355365166580e+00
      1.0154594843076812e+00 -9.7934275168616997e-02
      3.1713484714744339e-01 -1.1737606392658949e-01
      -1.5326341214831601e-01 -1.1096609170250453e+00
      -6.9887047043389217e-01 -1.0042480727848113e+00
      -1.8220156396763119e+00 3.5288774777073133e+00
      -8.9180536932039656e-01 -1.1304062581131160e+00
      3.6720647682784184e+00 -5.9972053935695180e-01
      -1.9997420959221698e-01 9.5423810705748346e-01
      -3.0195081344523428e-01 -7.5490309831449620e-01
      -5.3534673887325357e-01 -2.7278483025624387e-02
      4.7939739374205642e-01 3.6826660973527705e+00
      -1.6573053931018558e+00 2.5200476514375758e-01
      -1.5353214719193242e+00 -1.0468822984921287e+00
      1.5392207515307821e+00 5.2351763292325559e-01
      3.3211749584107925e-01 1.7001304470449519e+00
      -9.4936937072431016e-01 -2.0388778477469782e-01
      -4.1032515710166612e-01 -3.8942602077059817e-02
      -1.4277001217023142e+00 4.1934726215867330e-02
      2.6285421271918236e-01 1.3555942052654451e+00
      1.0330064435115396e+00 1.6754220949197569e+00
      -6.2173293354301544e-02 2.9090656309261348e-01
      3.0402269271308224e+00 -1.8982666881366339e+00
      2.1499268866568902e-02 -3.4502824296693380e+00
      -2.7494083816427500e-01 -7.6321263596192590e-01
      1.1080675276131284e+00 3.6271492736767630e-01
      4.6906657535766161e-01 5.5291941993280214e-01
      3.0641940841443303e+00 -5.8905475754713732e-01
      2.1344858716908592e+00 1.1123142155207546e+00
      2.8847987295344937e+00 2.0915841167850515e+00
      9.2553140517395216e-01 8.8598770923962089e-01
      -1.5289083295913244e+00 -6.0863752054067477e-01
      2.2126115354263654e+00 5.5893696271330014e-02
      1.4434801890657027e+00 -4.6711505933829256e-01
      -9.3353037606834022e-01 1.4202186083410484e+00
      7.3039616561840126e-01 2.3914739897059039e+00
      2.6579785297289865e-01 4.8951077183874336e-01
      7.7892907905549853e+00 4.9137187010905686e-01
      4.8005382775280864e-01 3.0495743512479128e+00
      1.7019522662143918e-02 1.1041177670701248e-01
      -1.6535372004832863e-01 -3.7620048842688070e-01
      -2.7668122883766022e-01 -9.7685854520327686e-01
      -6.2202401931870677e-01 2.1617719882587430e-01
      8.1484142966081663e-01 -8.2271726871957540e-01
      -2.2281689353560776e+00 7.1516716835512351e-01
      9.2142646839031922e-02 -7.0681168106175252e-01
      9.1310067026544806e-01 -1.8039434863159667e-01
      -1.2063437984233853e+00 2.0139609544059084e-01
      -1.0572257419554332e-01 1.5057312710324675e+00
      -1.8002269372142918e-01 -1.7806144874330141e+00
      1.5408312042278283e-01 -2.8460926118512417e+00
      5.6717552673129423e-01 3.5274007073945492e-04
      4.2822107780189897e+00 2.4454918170629047e-01
      -7.5732000289035969e-02 -7.9053915200408176e-01
      3.5765970743021835e-01 3.0632531352180574e-02
      -2.1515462615635448e+00 -1.0017404269037318e+00
      9.3877483857884170e-01 -6.8796904954966576e-01
      -3.5321905988123803e-01 7.1683006060181342e-01
      3.3063663928100347e-02 -1.0233274463018729e+00
      -1.4604002325700693e+00 5.2231469612400583e-01
      -2.4183319218030758e-01 1.1509988882397799e+00
      1.1619270000268371e+00 -1.3548523135982415e-01
      -1.0831748027070696e+00 -3.0338228166835318e-01
      -5.0537221057179260e-01 1.1634483156981942e-01
      4.4366126379103143e-01 -7.0296634286174553e-01
      3.8941114544950051e-01 -6.8629097825308194e-01
      6.8439854684465812e-02 -3.3365457029079609e-01
      2.2614253514940055e+00 -4.6205841586492064e-01
      -3.0514142043953907e-01 1.3565578563969340e+00
      -1.3896874629702749e-01 -4.7154783156418073e-01
      1.0089283193426124e+00 -3.5869425000234106e-01
      2.8833657330111273e-01 -2.0524133433885252e+00
      -9.6552425891308136e-02 -6.9647677081956350e-01
      3.7691816306302700e-01 4.3606855382470994e-01
      -3.3149753836850522e+00 -2.6201351806376871e-01
      -1.0666098960669143e-01 -1.3497269391111468e+00
      -1.5621994102184531e+00 -4.5852289446706362e-01
      -1.5887729764742178e+00 -6.0008480265423725e-01
      -2.8287235779039439e+00 -4.4153833592759172e-02
      -6.6629253295447410e-01 2.7657679391130577e-02
      6.6832708722083201e-01 7.2816895501142051e-02
      1.2053182601637910e-01 1.2191756160081391e-01
      2.1654446302122494e+00 -1.3915445957450203e+00
      -3.5516737015938360e-01 5.1194185124402836e-01
      4.4708691423037195e-01 -1.0860127738894779e-01
      1.1241318124003150e+00 -1.5812687909272263e+00
      2.2220191210114554e-01 -8.3177512633268502e-01
      1.7292315772599693e+00 -3.8063890586287935e-01
      6.0803923012847638e-01 6.9041370703024374e-01
      -1.5697478769748752e+00 -3.5261351342563246e-01
      -5.8816020275274228e-01 9.1866322749553875e-01
      -3.7271012282492971e-01 -6.9226873338527684e-01
      -2.8383057258005109e+00 -1.1566763073770980e+00
      -7.3863378085241538e-01 -6.3145929019452418e-01
      2.1007071119248119e-01 -2.9466447045377747e-01
      2.0129093169689001e+00 1.8750530895456301e+00
      5.7941633798839565e-01 9.3848027588170913e-01
      -4.1336536619622475e+00 7.6512382225304307e-02
      4.1014192156888946e-01 1.1025976927667316e+00
      4.5386967659410582e-02 -2.7896984491674415e-01
      1.9032853999891866e+00 8.6530143336916044e-03
      -2.9461264191098790e-01 -8.3807446411386932e-01
      -2.4438723870686170e+00 5.3454547681952336e-01
      -4.7827935740526123e-01 -2.4331088421035321e+00
      -5.5865591102468665e-02 9.0418571284797966e-01
      7.0773586992947002e-02 -2.1339621180127483e-01
      9.8324313977818500e-03 1.7264913176969230e+00
      -6.5963404022981453e-01 -4.4132913031380100e-01
      4.2896357797204282e-01 -4.7100751084020848e-01
      -1.9394262788449942e-01 9.1192217802466224e-01
      -7.6190514861715553e-01 8.2597998063316624e-01
      -7.1159482825547926e-01 -5.3621637686923251e-01
      -6.6483840673138319e+00 -4.0358002656483344e-01
      3.5076461000905662e-01 1.3898612851408128e+00
      2.1404026259816131e-01 -4.3697437144320250e-01
      -6.6148702606268950e-01 1.2973039853671781e-02
      5.0701551676507972e-01 1.2640836147698407e+00
      -1.9767584297456304e+00 3.2670828779601169e-01
      -1.4422236378289033e+00 -1.9384564674520104e+00
      3.8825905428909011e+00 7.1237631115217970e-01
      -4.3330262180470802e-01 7.2098580937692247e-01
      2.6664642227507018e+00 1.1691277767228767e+00
      -1.7418277675279583e+00 4.2501215235834683e-01
      -4.4117787097675321e-01 9.5435347376636337e-01
      -8.8828945385687352e-01 3.2601000177014816e-01
      -3.2997804095917356e-02 -1.3835264705435195e+00
      2.3447932588361176e-01 6.1842887654210776e-01
      -5.3668922067180453e+00 7.1863937691416979e-01
      1.3477962552836023e-01 1.7901137065686692e+00
      -1.3802887460362737e-01 1.0896970687314738e+00
      1.5078965120235537e+00 -1.7794905962133997e-01
      -1.0048255086771303e-01 -1.0700130697923782e+00
      -1.7864482295144450e+00 1.0207788917016225e+00
      2.9804120951399171e-02 4.8325711108347935e-01
      2.3487579511774999e+00 -1.7262821535586267e-01
      1.4623358987297205e-01 -9.5057889300594489e-01
      -1.6542069406269631e+00 1.8621542746350097e+00
      4.8118325161863984e-01 4.1342862852435928e-02
      -1.0188386983941016e+00 -4.8723282909389715e-01
      8.3698915555196474e-01 -1.4101687941659085e+00
      -3.6789670453248635e-01 7.7650009475929982e-01
      -3.9292481130571116e-01 1.7604595180002367e+00
      4.6382811171330802e+00 5.8467489530908245e-01
      7.1236251386380778e-01 -2.4440139702702837e+00
      6.5840739551767493e+00 2.0519094059842837e+00
      -3.6156670746342514e+00 2.9425644319149336e+00
      1.5919624034991773e+00 6.4969070681221675e-01
      -3.1086092243331485e+00 6.4859866709275131e+00
      -5.2012479430328131e+00 -1.7973646293284313e+00
      -4.3568641351801474e-01 3.9596704363456176e-01
      1.5885893107474969e+00 -6.7152926676401625e+00
      -1.2555941896458354e+00 -1.0366170173508062e+00
      -4.0216701626328506e+00 3.4041299989900925e-01
      6.5092859021995224e+00 1.2191980850982633e+00
      -1.8633320588136799e+00 -6.6417581046184104e-01
      2.6990214412152831e+00 3.2910787465108169e+00
      1.9164230734352938e-01 -3.8657055055121035e+00</_>
    <_>
      -8.3202010315932218e-01 -2.8103001215620227e-01
      -8.7557030521774926e-01 -2.2947066994906432e-01
      -3.1836430306019819e-01 1.5335626609659217e-01
      -4.0294485924141590e+00 3.3777716605076957e+00
      2.7428305414684808e+00 1.2745660556909402e+00
      -2.5824439331971334e+00 -5.6259114630745781e-02
      2.5954889738161473e+00 -1.2056688613886120e+00
      -1.4900357086831097e+00 -6.6708122741568756e+00
      -4.0923776690085090e+00 5.3784510249132591e+00
      3.1615147621645479e+00 -1.0779526927399792e+00
      -1.3508368103319957e+00 -4.4596788801475755e+00
      4.5320350405180969e+00 -2.5885169851622043e-02
      -4.4412236053390783e+00 -5.3024385660950655e+00
      -1.6048952639643337e+00 -3.1914121791862309e+00
      -6.7448823961903068e+00 -8.5890114496809455e-01
      -3.8815092399787767e+00 -3.3583050931106539e+00
      1.4299543963557766e+00 -1.6494429257489029e+00
      3.8653890062406265e-01 1.7200156062695884e+00
      7.5786646799729385e-01 -4.7461381810732733e-01
      9.8698171229529574e-01 3.7997067039190493e+00
      -3.3795572289437872e+00 -7.8334236194548712e-02
      -4.7711487092537963e+00 2.6779625245324974e+00
      2.0742761077629548e+00 -1.3387542058255471e+00
      -4.7738803299994748e-01 -7.5180141213842566e-01
      8.2163843470593356e-01 -9.8884359932608090e-01
      1.7762196452737511e+00 -2.7522473689811040e+00
      -5.8479209118471296e+00 -7.6683492258375885e-01
      1.3113672883533403e+00 8.1497405030622849e-01
      -1.4786569853089220e+00 4.8070488569738519e+00
      -4.5745731804256557e+00 1.6153708412391130e-01
      1.2175674536290695e+00 -2.0998762499830503e+00
      2.7726526338266586e+00 4.4666132293000382e+00
      -4.2514486591327607e+00 -3.0741316922069467e-01
      1.4845769623488286e-01 -1.3999434202792114e+00
      -6.9993059317391566e+00 -3.2800230416405438e+00
      -3.2395204694902202e+00 -1.4850066868236234e+00
      2.2158813795257215e+00 1.6498399838736257e+00
      -1.9980579817494803e+00 4.2269203326244398e+00
      -3.7880266668360396e+00 -4.1936230848305035e-02
      -1.3154077950633278e+00 -7.1247115577855507e+00
      4.8023612370909916e+00 1.4087914440509000e+00
      -1.3987124055543236e+00 1.7126898563217330e-01
      -1.5168288806744712e+00 2.2938215432750133e+00
      -1.2615895398986869e+00 3.4602989942229017e+00
      -3.6546655026521129e+00 1.8847006356647114e-01
      3.0988276546605614e-01 -1.5027432391511877e-01
      -6.9710262681968160e-01 3.6925169225536840e+00
      -3.8067585050595354e+00 3.1818296208018748e-01
      2.7534714840753640e+00 2.4033382866780362e+00
      2.3413519938062981e+00 -7.3527139524810075e+00
      -3.3581970947413229e+00 -4.9301273513865718e-01
      1.8911847672265498e+00 2.1976051764557365e+00
      -7.9096773579846658e-01 -3.4458343082362788e+00
      4.6643442345420993e+00 -6.1148904932063632e-02
      -3.6704180014926830e+00 4.5423376866398746e+00
      -3.2817172694521624e+00 2.8813196572322317e+00
      -2.3006632620804530e+00 1.0974469696808065e-01
      3.1645552528530123e+00 -3.0432859533309928e+00
      1.7953867171533366e+00 2.3585090377076012e+00
      -2.7182388267641269e+00 1.6281500891344208e-02
      1.6923525951386191e+00 2.9275395703504925e-01
      1.2286411013300148e-01 -4.5074859688835929e+00
      4.9610869126823092e+00 3.1480782883006486e-01
      2.8429707184245183e+00 4.0274971094739360e+00
      4.0801726905252700e+00 -4.2657264767816585e+00
      3.9691564653252334e+00 -3.5118615695476376e+00
      1.5898771809119211e-01 -2.5554128083732586e+00
      -1.4873675475305377e+00 -6.2041853131181002e+00
      4.4785433005933601e+00 1.0713391558487394e-01
      -2.0098227136569524e+00 -2.8833465440038220e-02
      3.9922361844306054e-01 3.6151811360764534e+00
      -4.0738968040518264e+00 2.4259493327050008e-01
      -1.7903243272238287e+00 3.6979066117740116e+00
      4.0287043583608746e+00 2.7643575353672900e+00
      -2.2941442657974416e+00 -2.9377408768475760e-01
      1.3211468972784322e+00 3.3259714262917006e-01
      -1.3152244335773438e+00 4.6917634518779137e+00
      -5.2292508503391488e+00 5.1670517491288603e-01
      -3.5426017960839014e+00 3.0657513315387015e+00
      -1.9556954095060303e-01 1.7724769436177650e+00
      -2.8566987157182466e+00 -5.4650035708168021e-01
      3.1620373318168349e-01 -1.9535934185164716e+00
      1.0755164394854615e+00 4.8843256861223301e+00
      -4.9962514849176287e+00 -1.3080182288787692e-01
      4.1752845298867325e-01 9.4058496880897058e-01
      -7.8547462435547610e-01 -7.9650047104977713e+00
      2.2084254753400074e+00 1.0547911595968511e+00
      2.6014263814050924e+00 -3.9164896631382415e+00
      3.3792250873380292e+00 1.8801431393240555e+00
      -1.6771898940329277e+00 -4.4068871169551610e-01
      -6.3275948258457699e+00 -8.8635111364289632e+00
      -6.5204656904323501e+00 -6.8555771214112209e+00
      -9.2980403775475970e+00 -3.6765666296066408e+00</_></weights></DigitOCR>
</opencv_storage>
